{"model_state": {"net.0.linear.weight": [[0.014841963537037373, -0.010772868990898132, 0.017934154719114304, 0.009586207568645477, 0.0017585176974534988, -0.0075535280629992485, 0.010668044909834862, 0.01857907511293888, -0.019142139703035355, -0.0011691629188135266, -0.01383669301867485, -0.000589827832300216, 0.0020959104876965284, 0.015239724889397621, -0.023761767894029617, 0.014329792000353336, 0.011929593048989773, 0.009124654345214367, -0.017723599448800087, -0.0012979500461369753, 0.0019205091521143913, -0.020462974905967712, 0.02786877751350403, -0.011648483574390411, -0.020015953108668327, 0.005376600660383701, -0.01078103668987751, -0.0011687887599691749, 0.01418322790414095, 0.004623643588274717, 9.569514077156782e-05, 0.027512336149811745, -0.01160851214081049, -0.002255279803648591, 0.02670087106525898, 0.03430389240384102, 0.013560714200139046, -0.0007921308279037476, 0.024787746369838715, 0.015011903829872608], [0.0025766415055841208, 0.015627259388566017, 0.023080427199602127, 0.015471388585865498, 0.01481990423053503, 0.004926918540149927, 0.004264643881469965, -0.017820188775658607, -0.013911242596805096, 0.005974555853754282, 0.0054915170185267925, 0.005383647978305817, -0.003145291469991207, 0.003246115054935217, 0.015932345762848854, -0.01378863025456667, -0.018229909241199493, 0.020625852048397064, 0.017233390361070633, 0.009026492945849895, 0.002380776684731245, -0.014999691396951675, 0.010326586663722992, -0.0019015262369066477, -0.018485790118575096, 0.01423508208245039, -0.025000926107168198, -0.033878590911626816, -0.02283506654202938, -0.005401524715125561, -0.019452616572380066, -0.005863756872713566, -0.0194534994661808, -0.008077499456703663, 0.010476849041879177, 0.017637765035033226, 0.026552950963377953, -0.015003610402345657, -0.025815075263381004, 0.023816008120775223], [0.023568782955408096, -0.02283417247235775, 0.009899074211716652, -0.015528466552495956, -0.008011049591004848, 0.009532750584185123, -0.0003476214478723705, -0.02543310448527336, 0.015048159286379814, 0.0030692964792251587, -0.01059282198548317, 0.015683308243751526, -0.004313354846090078, -0.010734668001532555, 0.027651814743876457, 0.01714426651597023, 0.01014730054885149, -0.008570816367864609, -0.017254041507840157, -0.006943198852241039, -0.02393038012087345, -0.004491724073886871, 0.01168404147028923, 0.010181992314755917, 0.004928406793624163, -0.009394974447786808, -0.010967317037284374, 0.005839311517775059, -0.016820089891552925, -0.016635484993457794, 0.011330311186611652, 0.005824423860758543, 0.006186177022755146, -0.009756888262927532, -0.0014953557401895523, -0.007956554181873798, -0.01700882986187935, 3.775736331590451e-05, -0.003923343028873205, 0.005622557830065489], [0.01941411755979061, 0.025914857164025307, -0.0034173845779150724, -0.0106955049559474, 0.0016351337544620037, 0.007999248802661896, 0.010998937301337719, -0.025194916874170303, -0.01675538904964924, 0.027041466906666756, -0.004115843214094639, 0.007569529116153717, -0.030427541583776474, -0.007748362608253956, 0.01513269916176796, -0.021154411137104034, -0.013967468403279781, 0.028318392112851143, -0.0019484454533085227, -0.002778680296614766, -0.05387554317712784, 0.0052993143908679485, 0.018311623483896255, 0.0025623012334108353, -0.010767715983092785, 0.013802343048155308, 0.0013500850182026625, 0.00881912186741829, -0.025460658594965935, -0.0059448969550430775, 0.009760274551808834, -0.0009605413069948554, -0.022909540683031082, 0.01193940918892622, -0.011603894643485546, 0.010443717241287231, -0.043040383607149124, -0.013084865175187588, 0.013839887455105782, 0.0019258448155596852], [-0.013801774941384792, -0.016981661319732666, 0.020172974094748497, -0.00823404174298048, -0.019646791741251945, 0.012385876849293709, 0.02746378630399704, 0.018499260768294334, 0.011526349000632763, -0.01844113878905773, 0.030722767114639282, 0.019935034215450287, 0.0028017349541187286, -0.006930558010935783, 0.010139118880033493, 0.02256353758275509, 0.012201884761452675, 0.004556253086775541, -0.01942962408065796, 0.016201918944716454, -0.01825057528913021, -0.021673541516065598, 0.008573563769459724, -0.012976800091564655, 0.0013417910085991025, -0.00403280183672905, -0.027216987684369087, 0.01615692488849163, 0.0017473878106102347, 0.006884870119392872, -0.003038128139451146, 0.0003442017186898738, 0.01610243134200573, -0.008799493312835693, -0.010104982182383537, -0.007534502539783716, -0.005784826353192329, -0.019362958148121834, 0.019685162231326103, 0.006241161841899157], [0.015616885386407375, 0.015738848596811295, 0.014581075869500637, -0.018088918179273605, -0.0047620791010558605, 0.03624136000871658, -0.0001373693230561912, -0.0072781918570399284, -0.027046214789152145, 0.0027405766304582357, 0.023309357464313507, 0.01268278993666172, -0.016262641176581383, 0.0037158713676035404, 0.014025263488292694, -0.013715129345655441, -0.005315700545907021, 0.005828225519508123, 0.0012196088209748268, 0.008985455147922039, 0.006930216681212187, -0.011898969300091267, -0.015430931933224201, -0.003069852478802204, 0.014475765638053417, -0.015771066769957542, -0.014904828742146492, -0.0010672686621546745, 0.00477985106408596, 0.0013602268882095814, -0.0013284416636452079, 0.00453411927446723, -0.018376348540186882, 0.007560440804809332, 0.0040976242162287235, -3.451507382123964e-06, -0.03270470350980759, 0.00986729096621275, -0.014009728096425533, 0.0026314985007047653], [-0.02842829003930092, 0.007727682124823332, -0.003188873641192913, -0.010297838598489761, -0.0035508042201399803, -0.011117355898022652, 0.001267175073735416, 0.003445169422775507, 0.024004396051168442, -0.024400753900408745, 0.002463138895109296, -0.002644601045176387, 0.02243865467607975, 0.014741546474397182, -0.007616531569510698, -0.013221915811300278, -0.013009157963097095, -0.004597947001457214, 0.0024866508319973946, 0.00952377263456583, 0.03570573776960373, -0.03174588829278946, 0.0056890943087637424, -0.016848601400852203, 0.0146913668140769, -0.01292792335152626, -0.005745718255639076, 0.0009091345709748566, 0.005862187594175339, -0.01963471807539463, -0.01077281218022108, 0.011968834325671196, 0.02824956178665161, -0.0015263445675373077, 0.010961417108774185, 0.007834150455892086, 0.04123509302735329, 0.013745369389653206, -0.0008765902603045106, -0.011568594723939896], [-0.025143399834632874, 0.003296921495348215, -0.0008238868322223425, -0.007937438786029816, 0.00947816763073206, -0.023561859503388405, -0.025254828855395317, -0.0031141366343945265, -0.013051176443696022, -0.006617104168981314, 0.010982954874634743, 0.008161691948771477, 0.018593046814203262, -0.015278415754437447, -0.01648189127445221, 0.009349803440272808, 0.02456345036625862, -0.020181847736239433, 0.030908187851309776, 0.002130478620529175, -0.004383311606943607, -0.030551405623555183, -0.014814745634794235, -0.007010366767644882, 0.031206700950860977, -0.01322892028838396, 0.013494527898728848, 0.011361958459019661, -0.01391285564750433, -0.012488034553825855, -0.0240168459713459, -0.03194864094257355, -0.0028272925410419703, -0.0013376185670495033, 0.005826462991535664, 0.025150317698717117, 0.0008435422787442803, 0.009547215886414051, -0.022859342396259308, 0.011224627494812012], [-0.01692109741270542, -0.008643453009426594, -0.010228647850453854, -0.016476944088935852, 0.018837392330169678, 0.007645470090210438, 0.021822169423103333, -0.00786825641989708, -0.007976256310939789, 0.0026583760045468807, -0.022697467356920242, 0.014718940481543541, 0.009975242428481579, -0.005099842324852943, 0.010284045711159706, 0.0208128672093153, 0.00018014147644862533, 0.012103317305445671, -0.005448339972645044, -0.009223372675478458, 0.011699817143380642, -0.005482555832713842, -0.013549397699534893, 0.0090967807918787, 0.00900011695921421, -0.0015245936810970306, 0.003443511901423335, 0.0035884897224605083, -0.01548143569380045, 0.010694964788854122, -0.019898105412721634, 0.0016040182672441006, 0.0005896358052268624, 0.0032215644605457783, 0.0039086793549358845, -0.010592136532068253, -0.0035011672880500555, 0.004846044350415468, -0.0037937324959784746, -0.016427291557192802], [0.015016705729067326, -0.009299215860664845, 0.02278359979391098, -0.006596516352146864, 0.02152295596897602, 0.012428094632923603, 0.013531005941331387, 0.016994310542941093, 0.006136636715382338, 0.0216897651553154, -0.010610656812787056, -0.0022083958610892296, 0.015920521691441536, -0.003832134883850813, 0.002019663341343403, -0.010488028638064861, 0.022078946232795715, 0.005268405191600323, -0.018124587833881378, 0.011126742698252201, 0.023415151983499527, 0.019129782915115356, -0.004980988334864378, 0.009879576973617077, 0.026226595044136047, 0.008332033641636372, 0.003393821883946657, 0.022252347320318222, 0.022049138322472572, 0.008230125531554222, 5.0773945986293256e-05, 0.019435416907072067, 0.005545504856854677, 0.009200473316013813, 0.006161159835755825, -0.009035426191985607, 0.019592618569731712, 0.0019281493732705712, 0.016010168939828873, -0.008795483037829399], [0.003328160382807255, -0.0016142483800649643, 0.028083156794309616, -0.001290213200263679, 0.000991074019111693, -0.016169819980859756, 0.013473701663315296, 0.0045585851185023785, 0.006881867069751024, -0.026678239926695824, 0.02516297437250614, 0.0050953226163983345, 0.004274164326488972, 0.03476034477353096, 0.03254716843366623, 0.0023418397177010775, 0.02089766226708889, 0.018924424424767494, 0.011624038219451904, 0.00342419371008873, 0.011022394523024559, -0.018640568479895592, -0.018251948058605194, 0.007430471479892731, 0.001427527517080307, 0.019020715728402138, -0.008910070173442364, -0.027346640825271606, -0.004934391472488642, 0.006291582249104977, 7.984805961314123e-06, -0.02184886299073696, -0.007636929862201214, -0.02307800203561783, 0.004925801884382963, -0.005336418282240629, 0.007803055457770824, 0.01198918092995882, -0.012172684073448181, 0.014232623390853405], [0.003513382514938712, -0.009063208475708961, 0.012766680680215359, -0.02483772300183773, -0.011260527186095715, -0.0030555068515241146, 0.021852996200323105, 0.015265862457454205, 0.0032953897025436163, 0.011306130327284336, -0.02301505021750927, -0.017982441931962967, 0.030224332585930824, 0.010798314586281776, -0.008449320681393147, -0.0008434299961663783, 0.0030488239135593176, -0.01995759829878807, 0.013593611307442188, 0.013869776390492916, -0.011640011332929134, -0.001812982838600874, -0.00953967496752739, 0.0004586330323945731, -0.0017526205629110336, -0.00186779850628227, -0.010138423182070255, -0.01886916719377041, -0.0018925619078800082, 0.010320880450308323, 0.028004540130496025, -0.017482666298747063, 0.0033370673190802336, -0.01594012789428234, -0.009130722843110561, 0.01396709494292736, -0.007824327796697617, -0.005395434331148863, 0.010507347993552685, 0.005305506754666567], [0.016026947647333145, 0.01277537364512682, -0.010185359977185726, 0.02335367724299431, -0.007878622971475124, -0.010808545164763927, -0.00899229384958744, 0.0049602980725467205, -0.021436985582113266, -0.0035774081479758024, -0.004015511833131313, -0.00022776190598960966, -0.0090134022757411, 0.018624866381287575, -0.0018569845706224442, -0.010672364383935928, -0.007742925547063351, -0.003465109970420599, 0.012182463891804218, -0.012547172605991364, -0.015013189986348152, 0.014971883967518806, 0.013385288417339325, -0.005120023153722286, -0.03562698885798454, 0.021579230204224586, 0.019742600619792938, 0.004926770925521851, -0.017135927453637123, -0.017346056178212166, 0.006067108828574419, 0.012651752680540085, -0.006927961949259043, -0.015966815873980522, 0.007909128442406654, -0.006401156075298786, -0.020179782062768936, 0.0011567374458536506, -0.0043736048974096775, -0.00802107434719801], [0.002182145370170474, -0.0021498019341379404, -0.007814240641891956, 0.02230832912027836, 0.011969968676567078, 0.010838987305760384, -0.02286110445857048, -0.013681269250810146, -0.018656650558114052, 0.0038203932344913483, -0.010984890162944794, 0.02381071448326111, -0.00474373996257782, 0.015946421772241592, 0.009838689118623734, -0.030172495171427727, -0.01460132747888565, -0.01638156920671463, -0.0021815220825374126, -0.016781644895672798, 0.013128564693033695, 0.003694394137710333, 0.030237624421715736, -0.009711390361189842, -0.009149479679763317, 0.0030828353483229876, 0.029601195827126503, -0.010130131617188454, 0.016639433801174164, 0.01504751481115818, -0.010827752761542797, 0.01772565022110939, 0.0011031182948499918, 0.013573773205280304, 0.0012606364907696843, -0.005253970623016357, 0.00926064234226942, -0.005218552891165018, -0.026563141494989395, -0.025172756984829903], [0.01592976413667202, 0.016522377729415894, -0.01934036798775196, -0.020186545327305794, 0.006910847965627909, -0.008010480552911758, -0.004921031184494495, 0.014291469939053059, -0.007416769862174988, 0.018747469410300255, -0.00601207185536623, -0.014599532820284367, -0.016895558685064316, 0.02297229692339897, -0.017364688217639923, 0.030080411583185196, -0.0035174561198800802, -0.001378874876536429, 0.004090029280632734, 0.03640703484416008, 0.003035578178241849, -0.0021098230499774218, -0.005151763092726469, -0.015264123678207397, 0.00614283699542284, 0.004366204608231783, 0.014877083711326122, 0.004164011683315039, 0.00937053095549345, 0.0029124903958290815, 0.01670348457992077, -0.00446428544819355, 0.0171926561743021, 0.010149268433451653, 0.009043999016284943, -0.011630282737314701, -0.008096735924482346, -0.006077921483665705, 0.021374989300966263, 0.0006275675841607153], [0.005198094993829727, -0.013386473059654236, 0.014947297051548958, 0.022046932950615883, -0.02332650125026703, 0.0067422171123325825, 0.016706760972738266, 0.02250559814274311, 0.018181946128606796, 0.00653146393597126, 0.009405740536749363, -0.03226182982325554, -0.002227203920483589, -0.015390927903354168, 0.0009171689744107425, 0.027432166039943695, -0.006779268383979797, 0.01902781054377556, 0.018892113119363785, -0.009907281957566738, 0.017838696017861366, 0.00011888639710377902, -0.0006071471143513918, -0.014065264724195004, -0.018131770193576813, 0.0029332428239285946, -0.016254181042313576, -0.012515068054199219, 0.0020566419698297977, 0.008768518455326557, -0.013367966748774052, 0.018042653799057007, 0.0017116066301241517, -0.010580779053270817, -0.006315220147371292, 0.02046293392777443, -0.005907759070396423, 0.0028590653091669083, 0.009340118616819382, -0.018615055829286575], [0.009082290343940258, -0.021433744579553604, 0.009860469028353691, -0.011222876608371735, -0.02216588705778122, 0.008194724097847939, 0.0035742504987865686, 0.0021775669883936644, 0.001241315738297999, -0.026475640013813972, -0.015550002455711365, -0.005534342955797911, 0.023709354922175407, -0.02354498952627182, -0.01464307401329279, 0.018640559166669846, -0.019225502386689186, 0.01319970190525055, 0.00506112864241004, 0.014840204268693924, -0.025929149240255356, -0.004119346849620342, 0.01741243340075016, -0.022556861862540245, 0.012876621447503567, 0.0031880405731499195, 0.01759202778339386, -0.025218509137630463, -0.0075530861504375935, 0.021951157599687576, -0.03346550092101097, -0.024037417024374008, -0.025458812713623047, -0.012988850474357605, 0.0026061194948852062, 0.01645260490477085, 0.012923764064908028, -0.009783249348402023, -0.012875684536993504, 0.02204950712621212], [0.019928742200136185, 0.011782958172261715, -0.014696924947202206, -0.01068001426756382, 0.010640498250722885, -0.013625108636915684, -0.009083124808967113, -0.020359594374895096, -0.025188839063048363, 0.003142712404951453, -0.013495010323822498, -0.005206575617194176, -0.013328853994607925, 0.018494846299290657, -0.02123122103512287, 0.009896064177155495, 0.007232328411191702, 0.006233014166355133, -0.018487559631466866, 0.0024305651895701885, -0.0030308992136269808, -0.0170817319303751, -0.004833112470805645, -0.00466647045686841, -0.00910997111350298, -0.01948506198823452, 0.023126963526010513, -0.020955834537744522, -0.010491265915334225, -0.0041893464513123035, -0.011518549174070358, 0.020464424043893814, -0.0033088955096900463, -0.017012756317853928, -0.023803651332855225, 0.005962091963738203, 0.009904428385198116, -0.028672385960817337, -0.0016165425768122077, 0.016403228044509888], [-0.001488807494752109, -0.01618235744535923, 0.009031221270561218, -0.013090989552438259, 0.010137318633496761, 0.006674677599221468, 0.007609085645526648, 0.0014678178122267127, -0.013767585158348083, 0.01640086993575096, 0.01090153120458126, 0.015412743203341961, 0.014538546092808247, -0.01737728714942932, 0.009195714257657528, 0.018473030999302864, -0.004943457432091236, 0.013852082192897797, 0.004344587214291096, -0.00355300004594028, 0.014451717026531696, -0.008529971353709698, 0.014279413968324661, -0.017135484144091606, 0.006100032478570938, 0.024699483066797256, 0.00887349434196949, -0.011163507588207722, -0.027889026328921318, 0.02814781293272972, 0.005405978765338659, 0.01809544861316681, -0.023640023544430733, 0.009334447793662548, 0.010037211701273918, 0.0003573450958356261, -0.015226824209094048, -0.02688981033861637, 0.014494653791189194, -0.0003906844067387283], [-0.013320201076567173, -0.028030604124069214, 0.006126470398157835, -0.037714190781116486, -0.02494698017835617, 0.017391787841916084, 0.00857333280146122, -0.005592084024101496, 0.004616836551576853, -0.008968712761998177, -0.008742528967559338, 0.03019571118056774, -0.025163866579532623, 0.0012815233785659075, -0.0024631901178508997, -0.005435253493487835, -0.010383279994130135, 0.016818944364786148, 0.003696269355714321, -0.02072381041944027, -0.02666204795241356, -0.025506526231765747, -0.009461029432713985, 0.004805747419595718, 0.01684417761862278, 0.008080701343715191, 0.002539768349379301, 0.01600407250225544, -0.015431728214025497, 0.02994503825902939, -0.0022530111018568277, -0.014858241192996502, -0.02774319052696228, 0.008285065181553364, 0.011530537158250809, 0.024909479543566704, 0.001686946372501552, -0.02726483903825283, -0.003191375872120261, -0.0006043350440450013], [0.0017335208831354976, 0.016181666404008865, 0.01126541942358017, 0.015356969088315964, -0.013425668701529503, -0.007736679166555405, 0.015547121874988079, 0.011304691433906555, 0.014316311106085777, -0.0037408387288451195, 0.03187879920005798, -0.009775202721357346, 0.0003014479298144579, -0.006627087015658617, -0.0075942459516227245, 0.0021508396603167057, -0.017344152554869652, 0.018505947664380074, 0.014439490623772144, 0.024097321555018425, 0.012508269399404526, 0.0113512659445405, -0.0183468759059906, -0.013912897557020187, 0.010872029699385166, 0.01538945734500885, -0.015132703818380833, 0.015615763142704964, -0.02996385283768177, 0.013786042109131813, -0.007026702631264925, -0.009544210508465767, -0.016827071085572243, -0.022459184750914574, -0.003562638536095619, 0.010155542753636837, -0.0061201066710054874, -0.009735568426549435, 0.01612805761396885, 0.00991700030863285], [0.016726618632674217, -0.016202624887228012, 0.02005845680832863, 0.004179422743618488, 0.012027866207063198, 0.01096479594707489, -0.01000465452671051, 0.020124511793255806, 0.006268487311899662, 0.0011985241435468197, -0.014185303822159767, 0.010388225317001343, -0.00844309851527214, 0.013675550930202007, 0.020717279985547066, 0.018644239753484726, -0.0026221454609185457, -0.014840655028820038, -0.017534036189317703, -0.007950020022690296, 0.005790248047560453, 0.023440929129719734, 0.02679695561528206, 0.008409484289586544, -0.011098166927695274, -0.03422912210226059, 0.01519454549998045, 0.0017907124711200595, -0.017169784754514694, 0.01676369458436966, 0.022624662145972252, 0.0007128754514269531, -0.010370822623372078, -0.012381404638290405, 0.011387494392693043, -0.0019802944734692574, 0.005703252740204334, 0.030726192519068718, 0.04584064334630966, 0.011518619023263454], [0.0023821238428354263, -0.0018715487094596028, 0.003812288399785757, -0.0037830595392733812, 0.0005196912679821253, 0.017177922651171684, -0.000674592622090131, -0.008040578104555607, 0.02574542909860611, -0.017316272482275963, -0.011819018051028252, -0.010553618893027306, -0.03461466729640961, -0.0047089713625609875, 0.01740379072725773, 0.007752472069114447, -0.0020309591200202703, 0.018653152510523796, 0.005081599112600088, -0.00043232939788140357, 0.02221832424402237, -0.01316780410706997, -0.008808162063360214, 0.010835280641913414, -0.022238140925765038, -0.012242965400218964, 0.014748680405318737, -0.00988893024623394, 0.027026716619729996, -0.01608799584209919, -0.017168857157230377, 0.007076661102473736, -0.02418108470737934, -0.00015941138553898782, 0.00461720721796155, -0.006644160486757755, -0.0011122736614197493, -0.0067543997429311275, 0.0053521497175097466, 0.015272041782736778], [0.015015214681625366, -0.009960262104868889, 0.005631941836327314, -0.02274308167397976, 0.0185147263109684, 0.00938973668962717, 0.009281291626393795, -0.01639685221016407, -0.010185238905251026, 0.018203744664788246, -0.007009246852248907, 0.014667931012809277, -0.015163606964051723, 0.015113444067537785, -0.012068473733961582, 0.001524364110082388, 0.014603955671191216, 0.002973957685753703, 0.003574209986254573, -0.013597482815384865, 0.011661716736853123, 0.011467451229691505, -0.008278248831629753, 0.0007063537486828864, 0.006456598173826933, 0.004312743432819843, 0.010520161129534245, -0.005495429039001465, -0.021341420710086823, 0.017557017505168915, 0.011993887834250927, -0.011710979975759983, 0.016656851395964622, 0.006581126246601343, 0.006709763780236244, -0.0012111724354326725, 0.019052783027291298, -0.0021943103056401014, 0.008283535949885845, 0.001101790927350521], [0.02787829004228115, -0.01602647267282009, 0.00462698470801115, 0.005497668404132128, 0.0034439999144524336, 0.018331972882151604, 0.021254446357488632, -0.01067748200148344, -0.013437861576676369, -0.006745575461536646, -0.01932184025645256, 0.011595332063734531, 0.0024116605054587126, -0.009752514772117138, 0.015899084508419037, -0.012497388757765293, -0.0016406166832894087, -0.012155571952462196, -0.008985633961856365, -0.008144314400851727, -0.01515408605337143, -0.029230576008558273, 0.003943758085370064, -0.015158940106630325, -0.015147805213928223, 0.001195400720462203, 0.019918764010071754, 0.0224809180945158, 0.004099806770682335, 0.006560296751558781, -0.014994435012340546, 0.024629179388284683, -0.0003188244591001421, -0.016733257099986076, -0.01117725856602192, -0.007720916997641325, 0.005367263685911894, -0.0012543636839836836, 0.043238651007413864, -0.023297814652323723], [-0.011307884939014912, -0.032756950706243515, -0.01968911848962307, -0.010820116847753525, -0.006231383420526981, 0.018147824332118034, -0.00242688343860209, 0.018265239894390106, 0.0037439370062202215, 0.0016690950142219663, -0.024107404053211212, 0.008296732790768147, 0.005917689763009548, -0.017533956095576286, -0.015525695867836475, 0.02214204892516136, -0.004726326558738947, 0.01902788318693638, 0.02998640388250351, -0.0034721612464636564, -0.012805832549929619, 0.01605396158993244, 0.02133362367749214, 0.016648568212985992, -0.0027496563270688057, 0.013825418427586555, 0.010670551098883152, 0.023212065920233727, -0.012265353463590145, -0.011708633974194527, 0.0006655601901002228, 0.026955366134643555, 0.020443446934223175, 0.017403336241841316, -0.026031581684947014, -0.009339086711406708, -0.03298652917146683, -0.008359488099813461, -0.03680654242634773, -0.007458528038114309], [-0.011997654102742672, 0.010670819319784641, -0.016376247629523277, 0.008728370070457458, -0.008901726454496384, 0.00650083227083087, -0.025449581444263458, 0.005919554736465216, -0.015642166137695312, 0.02018207311630249, -0.007603898178786039, -0.025730520486831665, 0.004155807662755251, 0.014134101569652557, 0.008305256254971027, -0.0023979751858860254, -0.0239905696362257, 0.00940427090972662, 0.03220970928668976, 0.006164351478219032, -0.013973580673336983, 0.021202452480793, -0.026842880994081497, 0.01562904752790928, 0.007079279515892267, -0.0084093501791358, -0.0028543362859636545, -0.030529635027050972, -0.03260139375925064, -0.01300461869686842, 0.025510532781481743, 0.008768109604716301, -0.025186222046613693, 0.017744170501828194, 0.019841954112052917, 0.0013451447011902928, -0.015255758538842201, 0.01829793117940426, -0.030763203278183937, 0.0007163155823945999], [-0.018709057942032814, 0.010690813884139061, -0.001456991070881486, 0.02578330971300602, -0.005538593977689743, 0.013781397603452206, 0.007933935150504112, 0.00961839035153389, -0.011441279202699661, -0.009165809489786625, -0.01568726636469364, -0.013419363647699356, -0.01655293069779873, 0.013777012936770916, -0.006166588980704546, 0.00018648455443326384, 0.006313326768577099, -0.008525587618350983, 0.00903902854770422, -0.005156929139047861, 0.025235917419195175, -0.003640572540462017, 0.010917904786765575, -0.001917313551530242, 0.023104166612029076, -0.025617487728595734, -0.012559833936393261, -0.020329950377345085, -0.003558452008292079, 0.016184493899345398, 0.013932527974247932, 0.009093520231544971, 0.013580527156591415, 0.023231839761137962, -0.011461326852440834, 0.00352089898660779, 0.018070239573717117, 0.02051447331905365, 0.00022326473845168948, 0.0030121866147965193], [-0.021269416436553, 0.01451099757105112, 0.006994373630732298, 0.007207305636256933, -0.0018827469320967793, 0.021449297666549683, -0.028788255527615547, -0.03645768389105797, -0.016538627445697784, -0.006777048110961914, -0.006119776051491499, -0.0012914652470499277, 0.012386799789965153, 0.010053714737296104, -0.008368377573788166, 0.023516163229942322, -0.0107059795409441, -0.023887386545538902, 0.024721745401620865, -0.012122102081775665, -0.011273604817688465, 0.0077338675037026405, 0.006516760215163231, -0.01466111745685339, -0.021270686760544777, 0.0012693966273218393, 0.01020144484937191, 0.02350112609565258, -0.0020729214884340763, 0.007470798213034868, 0.023222818970680237, -0.02468458004295826, 0.014287457801401615, -0.0017926058499142528, 0.00040480904863215983, -0.015192104503512383, -0.008685148321092129, 0.007416156120598316, 0.0014635168481618166, 0.012544902972877026], [-0.014105638489127159, -0.01252827886492014, 0.005956446286290884, 0.027024950832128525, -0.013711157254874706, -0.009995526634156704, -0.01634254865348339, -0.011705328710377216, 0.0020184223540127277, 0.009896595031023026, 0.004743004683405161, 0.01024441048502922, 0.00497277220711112, -0.015661904588341713, -0.006698294542729855, -0.005072867497801781, -0.014948130585253239, -0.019786762073636055, -0.0013421535259112716, -0.00805529672652483, -0.02647164836525917, -0.01557746808975935, 0.0005215401761233807, 0.017240673303604126, -0.01619063690304756, 0.02084343507885933, 0.009586522355675697, -0.00808874610811472, -0.007624178659170866, -0.010412212461233139, -0.0011518991086632013, -0.013712804764509201, -0.02973969466984272, 0.013386344537138939, -0.0019333474338054657, 0.014845192432403564, -0.01974290981888771, 0.011377106420695782, 0.009372038766741753, -0.007324824575334787], [0.019043657928705215, -0.004571891855448484, 9.544484782963991e-05, -0.02065730281174183, -0.02214135229587555, 0.016618022695183754, 0.00969761237502098, 0.0019061756320297718, 0.027487829327583313, -0.02069988287985325, -0.015898900106549263, 0.008946049027144909, 0.037006642669439316, 0.011012652888894081, 0.024309774860739708, 0.010702229104936123, 0.000689229927957058, 0.032800015062093735, -0.028490548953413963, -0.02477269247174263, 0.03161747008562088, 0.02992791309952736, 0.016207994893193245, 0.0042968331836164, -0.011400934308767319, -0.024961940944194794, -0.00717865489423275, 0.016081228852272034, 0.012320847250521183, -0.021882791072130203, 0.005676574539393187, -0.023611992597579956, -0.017875894904136658, -0.012717065401375294, -0.012948743999004364, 0.0070407032035291195, 0.035932376980781555, -0.02630525454878807, 0.009626060724258423, 0.007733416743576527], [0.019224025309085846, 0.011723100207746029, -0.025287223979830742, -0.018809961155056953, -0.01686110720038414, -0.014197423122823238, -0.00735970726236701, 3.793488576775417e-05, 0.02554980106651783, 0.00369621510617435, 0.016121353954076767, 0.009360951371490955, 0.012448037043213844, 0.017571352422237396, 0.011395853944122791, -0.019483160227537155, -0.013816007412970066, -0.02997840754687786, -0.01048534456640482, -0.002564425580203533, 0.010769416578114033, -0.009707062505185604, -0.03177040442824364, 0.008963203057646751, -0.0035930543672293425, 0.0008255060529336333, 0.013461384922266006, -0.013845262117683887, 0.010443533770740032, 0.0033084657043218613, -0.011036323383450508, -0.01676754653453827, 0.0322132483124733, 0.004797912668436766, 0.0013209189055487514, -0.021803170442581177, -0.010964535176753998, -0.0190955251455307, -0.018543848767876625, -0.028601108118891716], [-0.01776154898107052, 0.006084955297410488, -0.023175830021500587, 0.014150593429803848, 0.013286580331623554, 0.0034389039501547813, 0.012683192268013954, -0.0015839912230148911, 0.011043042875826359, -0.013862770982086658, 0.009137148037552834, -0.02433295175433159, -0.00761247705668211, -0.027398670092225075, -0.02866254933178425, -0.004803505726158619, -0.037446800619363785, -0.0026302954647690058, 0.010178711265325546, 0.020389197394251823, 0.001336282235570252, 0.013498606160283089, 0.00907688308507204, -0.0031624974217265844, -0.004349044524133205, 0.007228950969874859, 0.011780545115470886, -0.012784603051841259, -0.0013871017144992948, -0.0017400678480044007, -0.02156718820333481, -0.0010150920134037733, -0.015632735565304756, 0.013075482100248337, -0.017892267554998398, 0.0009924605255946517, 0.007394523825496435, 0.00044385952060110867, 0.029265878722071648, -0.010242738761007786], [-0.023062191903591156, 0.02256910130381584, 0.02390049211680889, 0.007168139331042767, 0.0060575841926038265, -0.026635974645614624, 0.012315685860812664, 0.020898468792438507, -0.01347547210752964, 0.01601553149521351, 0.020549161359667778, 0.003664883319288492, -0.001100556692108512, -0.014313059858977795, 0.011823181994259357, -0.014921114780008793, -0.00594235397875309, 0.014762794598937035, -0.0025709595065563917, -0.010422545485198498, -0.006525826640427113, 0.0029062116518616676, -0.0027815676294267178, 0.015690263360738754, 0.01772991567850113, 0.007356051355600357, -0.003042642492800951, 0.023176033049821854, 0.020149219781160355, 0.00209490186534822, -0.011582517996430397, 0.010582875460386276, -0.0020401226356625557, 0.00045115151442587376, 0.006390254478901625, -0.01210841629654169, -0.001630243263207376, 0.007395939435809851, -0.02082681655883789, 0.012703387066721916], [-0.0022185214329510927, -0.03543740510940552, -0.0171049777418375, 4.372944385977462e-05, 0.01324927806854248, 0.010131396353244781, -0.014029363170266151, -0.03092738799750805, -0.013840037398040295, -0.009153453633189201, -0.01420446764677763, 0.005596155300736427, 0.008704885840415955, -0.014628010801970959, -0.010865142568945885, 0.01728896051645279, -0.01749775931239128, 0.008356614038348198, -0.02979508601129055, -0.008868655189871788, 0.0026798078324645758, -0.016118738800287247, 0.00038838849286548793, -0.024517318233847618, -0.01776374690234661, 0.0020434220787137747, -0.007983418181538582, 0.02853994444012642, 0.006007852964103222, 0.0018766679568216205, 0.008912668563425541, -0.004790042992681265, -0.019814053550362587, -0.018543191254138947, 0.019503973424434662, -0.03813562169671059, -0.00784904882311821, 0.021392395719885826, -0.018341979011893272, 0.0016408695373684168], [-0.012333438731729984, -0.012657101266086102, 0.005795296281576157, 0.002640154678374529, 0.0005085106240585446, -0.009192293509840965, 0.01252947561442852, -0.011704698204994202, -0.008491705171763897, -0.011173889972269535, 0.009692941792309284, -0.007901908829808235, 0.008547165431082249, 0.002202986739575863, 0.011123520322144032, -0.0013324266765266657, 0.02167612314224243, 0.012157417833805084, -0.013588910922408104, 0.01809217408299446, 0.0214153453707695, 0.0001349035883322358, -0.01713334023952484, 0.016098730266094208, -0.007863842882215977, -0.014590381644666195, -0.01895190216600895, 0.006854736711829901, 0.025038443505764008, 0.0013320388970896602, -0.010505970567464828, 0.005302033852785826, 0.02282177470624447, 0.013787530362606049, -0.01737101376056671, -0.02169160172343254, 0.003318206872791052, 0.005611899308860302, 0.021892787888646126, 0.012662776745855808], [0.02243667095899582, -0.033036068081855774, -0.004091301467269659, -0.0024905973114073277, -0.03447666019201279, -0.01732134073972702, 0.010946894995868206, 0.019455980509519577, -0.0015754327178001404, -0.005069768521934748, 0.026197189465165138, 0.008620628155767918, 0.011650065891444683, -0.009567780420184135, 0.013295451179146767, -0.0008761984063312411, -0.009394842199981213, 0.008271102793514729, 0.0034139766357839108, 0.025051048025488853, 0.008965405635535717, -0.014994998462498188, -0.01325821503996849, -0.011409256607294083, 0.01250289473682642, 0.0055422415025532246, -0.0036753991153091192, 0.0045980243012309074, -0.017217600718140602, -0.014751739799976349, -0.009275665506720543, 0.0008429346489720047, 0.00515179056674242, 0.02342705987393856, 0.010587569326162338, 0.0060289944522082806, -0.007125061936676502, -0.004790049511939287, -0.00861321296542883, 0.013469359837472439], [-0.00037907491787336767, 0.023160062730312347, -0.012603508308529854, -0.028046881780028343, 0.02184533327817917, -0.010453077964484692, 0.014111258089542389, -0.0014614321989938617, -0.004691685549914837, 0.0093251196667552, -0.01000412367284298, -0.0017326242523267865, 0.02881458029150963, 0.020478572696447372, 0.006279665045440197, -0.006401762366294861, 0.028159603476524353, -0.0009399136179126799, 0.006708129774779081, -0.010641824454069138, 0.01132968906313181, -0.015922315418720245, 0.009079568088054657, 0.0038362923078238964, -0.009265361353754997, 0.006379085127264261, -0.00788886658847332, 0.004776202142238617, 0.014230035245418549, 0.0057756612077355385, 0.009454174898564816, -0.0021515937987715006, -0.004677664488554001, -0.001052072853781283, -0.025857731699943542, -0.0008265430224128067, 0.010077127255499363, 0.019234739243984222, 0.015085812658071518, 0.009929558262228966], [0.008679898455739021, 0.015160981565713882, 0.015353954397141933, 0.00888171698898077, 0.0277867391705513, 0.02974935993552208, 0.016176078468561172, 0.004108578898012638, -0.014182397164404392, 0.040443990379571915, -0.008890211582183838, 0.02818017266690731, 0.014095691964030266, -0.021175788715481758, 0.010622491128742695, -0.011110009625554085, -0.023572085425257683, 0.02520819567143917, -0.014852953143417835, -0.016782181337475777, -0.005060034804046154, 0.0024446628522127867, -0.002216918393969536, -0.004218717105686665, 0.005504014901816845, 0.00649400195106864, -0.007497756741940975, -0.006444503087550402, 0.0019378561992198229, 0.011208777315914631, 0.003913219552487135, 0.008626705035567284, -0.01099346112459898, -0.01816144771873951, -0.008896458894014359, -0.025784004479646683, 0.012593254446983337, 0.0015042198356240988, 0.01647738553583622, 0.015292960219085217], [0.009753464721143246, 0.010991177521646023, 0.018111729994416237, -0.005463169422000647, -0.010579467751085758, -0.012184138409793377, 0.014293953776359558, 0.008608308620750904, 0.0010656769154593349, -0.012209258042275906, -0.014926928095519543, 0.026044921949505806, 0.006437010131776333, -0.015747888013720512, -0.02030946873128414, -0.005971355363726616, 0.013737156987190247, 0.018286792561411858, -0.01843731664121151, 0.01336891669780016, 0.008120536804199219, -0.006384207867085934, -0.0007130586891435087, 0.007785836700350046, 0.008622529916465282, -0.013966469094157219, 0.02404114417731762, 0.009414821863174438, 0.0035514994524419308, 0.03893271088600159, 0.022198615595698357, 0.003659144276753068, -0.02203829400241375, -0.017132211476564407, 0.019833996891975403, 0.008618967607617378, -0.009249689988791943, -0.0009000303689390421, -0.0033919778652489185, 0.022436408326029778], [0.003318586153909564, -0.008299371227622032, -0.02641315571963787, 0.003053216263651848, 0.0023236803244799376, -0.023004477843642235, -0.02827983908355236, -0.022067351266741753, 0.020453350618481636, -0.011606820859014988, 0.02287907339632511, 0.01405112911015749, 0.021264338865876198, 0.008889244869351387, -0.02137012965977192, 0.01775156892836094, 0.007007415406405926, -0.006652700249105692, 0.002157856011763215, 0.015691692009568214, -0.027750087901949883, 0.003459497820585966, -0.02108491212129593, -0.02059950865805149, -0.00048463934217579663, 0.01705203205347061, 0.010286029428243637, -0.02712763100862503, -0.010070943273603916, 0.025926947593688965, -0.006337318569421768, 0.029878199100494385, 0.006804662756621838, -0.028804130852222443, 0.027564439922571182, 0.014951313845813274, 0.009637298062443733, 0.007509892340749502, -0.011539552360773087, 0.0013853585114702582], [-0.0034855371341109276, 0.021023603156208992, -0.014731427654623985, 0.0034228332806378603, -0.021213971078395844, -0.010793755762279034, -0.0024926699697971344, -0.014789866283535957, -0.011533662676811218, 0.002433589193969965, -0.0016611613100394607, 0.030210373923182487, 0.006247866898775101, 0.005615137983113527, -0.013383456505835056, 0.018324924632906914, 0.00956809800118208, 0.022282831370830536, -0.023395787924528122, 0.018035514280200005, 0.025314416736364365, -0.01511214580386877, 0.015819106251001358, -0.008236332796514034, -0.023599468171596527, 1.916211112984456e-05, -0.00012795734801329672, 0.007037031929939985, -0.009595857933163643, 0.0049814097583293915, -0.028318626806139946, 0.0008056425140239298, -0.02462121471762657, 0.0005750868003815413, 0.017370251938700676, -0.010653087869286537, 0.010931582190096378, 0.023945089429616928, 0.005975245963782072, 0.018831832334399223], [0.02749188244342804, 0.009213571436703205, 0.0027997142169624567, 0.0034547133836895227, -0.021995391696691513, -0.008818292059004307, -0.020039625465869904, 0.003359284019097686, -0.01689687930047512, 0.011289678514003754, 0.014470004476606846, -0.0184176005423069, -0.015547187067568302, 0.00817310530692339, -0.009151598438620567, -0.007134192623198032, 0.02034687250852585, 0.0016029009129852057, -0.020674405619502068, -0.005019048228859901, 0.008333832956850529, -0.0001759895239956677, 0.019196700304746628, -0.014822651632130146, 0.01633376255631447, -0.0012950182426720858, 0.007086548022925854, 0.03349699825048447, 4.123767575947568e-05, 0.02731521800160408, -0.012345506809651852, -0.004458067938685417, -0.008220769464969635, 0.03319217637181282, 0.01808030717074871, -0.0172332301735878, -0.027380652725696564, 0.014156833291053772, -0.025753848254680634, -0.0177813358604908], [0.02665402553975582, 0.00932108424603939, -0.015725847333669662, -0.023412873968482018, 0.02341013215482235, -0.016593661159276962, 0.011590449139475822, 0.015023194253444672, -0.00012604217045009136, -0.017727717757225037, 0.008757784962654114, 0.008878898806869984, 0.009962653741240501, -0.008154424838721752, -0.01728300377726555, -0.013302306644618511, -0.006509207654744387, -0.004289242438971996, -0.011971868574619293, -0.003617573995143175, 0.0036634979769587517, -0.01616688445210457, 0.02066071704030037, -0.003334183944389224, -0.02609897218644619, -0.013438627123832703, 7.512136653531343e-05, 0.018753333017230034, 0.006704277824610472, 0.006557057145982981, -0.0011869781883433461, 0.01466008648276329, 0.008646261878311634, -0.011893120594322681, -0.013491270132362843, 0.008012920618057251, -0.011592240072786808, -0.006438483949750662, 0.029473157599568367, -0.0006904416950419545], [0.000495067099109292, 0.02168399840593338, 0.032590191811323166, -0.028652507811784744, -0.02741989679634571, 0.021793916821479797, 0.011684205383062363, 0.021822892129421234, 0.020508619025349617, 0.015244536101818085, -0.027991225942969322, -0.005965851712971926, -0.011387179605662823, 0.011799994856119156, -0.01475584413856268, -0.011238986626267433, 0.014395077712833881, 0.022816531360149384, -0.008949519135057926, 0.01659277454018593, 0.010064801201224327, -0.008732295595109463, -0.01480065006762743, 0.0022969311103224754, 0.003393895225599408, 0.016929589211940765, 0.010079766623675823, -0.012019510380923748, -0.03622565418481827, -0.010200407356023788, -0.01337725855410099, 0.014935855753719807, 0.009463440626859665, -0.027014099061489105, -0.01971740648150444, 0.025150582194328308, 0.02034784108400345, -0.0007585262064822018, -0.027654344215989113, -0.0249139666557312], [-0.012952965684235096, 0.0173092819750309, -0.0065481048077344894, -0.007833229377865791, 0.01676284149289131, -0.02384869195520878, 0.020166654139757156, 0.03324737027287483, 0.011835690587759018, -0.006493354216217995, -0.008924183435738087, 0.010973487049341202, 0.00817498192191124, 0.009526499547064304, 0.015262695029377937, 0.02625863067805767, 0.01954478770494461, 0.008199062198400497, -0.01448141224682331, -0.022674309089779854, 0.014374421909451485, 0.013243112713098526, 0.0284612774848938, -0.0008578083361499012, 0.01054397877305746, 0.010976375080645084, -0.023297615349292755, -0.016180574893951416, -0.001879568095318973, 0.006502517499029636, -0.011155229061841965, -0.02065890096127987, -0.002620141953229904, 0.007014200557023287, 0.02301778830587864, 0.004355421289801598, 0.004801319912075996, 0.00130528025329113, -0.020930657163262367, 0.005221121478825808], [0.016587261110544205, 0.018844857811927795, -0.0060425917617976665, -0.0038376483134925365, 0.003189180977642536, 0.02959926426410675, -0.023866863921284676, 0.005572234746068716, -0.02384905330836773, -0.004681675229221582, -0.0260564386844635, -0.006631807889789343, -0.006697224918752909, -0.02157951332628727, 0.008109970018267632, -0.019704941660165787, -0.01730692759156227, 0.01253194734454155, 0.017269033938646317, -0.01540355570614338, -0.02538263611495495, -0.01626284047961235, 0.021413644775748253, 3.853473754134029e-05, 0.008985046297311783, 0.010060588829219341, 0.0067686461843550205, 0.027798842638731003, -0.03314313292503357, -0.009828105568885803, -0.014415650628507137, -0.010726581327617168, 0.014973852783441544, -0.015312419272959232, -0.029274599626660347, 0.007099741604179144, -0.021189332008361816, 0.004950545262545347, 0.015166698954999447, -0.010828942060470581], [0.005076305009424686, -0.006696512922644615, 0.004545682575553656, 0.024868927896022797, -0.000874537683557719, -0.001387875759974122, -0.0008759601623751223, 0.01830441877245903, 0.0006577951717190444, -0.00017410545842722058, 0.0038323223125189543, 0.0175983514636755, -0.0195450559258461, -0.004918456077575684, -0.016329217702150345, -0.01150323823094368, -0.0006697569042444229, 0.013618823140859604, 0.00649007735773921, 0.004066656809300184, 0.005686312448233366, -0.012475444935262203, 0.010910455137491226, 0.00760579714551568, -0.009858492761850357, 0.0023027986753731966, 0.0028052579145878553, 0.0010212623747065663, 0.01470090914517641, 0.011537672951817513, -0.016674282029271126, 0.00940195843577385, -0.0024852128699421883, -0.015116099268198013, 0.013658958487212658, -0.019723914563655853, -0.0026292256079614162, 0.009495176374912262, 0.028274638578295708, 0.005327349528670311], [0.006111131981015205, -0.00784300547093153, -0.01848461665213108, -0.020588167011737823, -0.0033525440376251936, -6.0344729718053713e-05, 0.0002497142704669386, -0.033267952501773834, -0.013977321796119213, 0.02336699329316616, -0.00751093914732337, 0.024311397224664688, 0.015104406513273716, 0.0028076714370399714, -0.014389866031706333, 0.019762659445405006, 0.015524322167038918, -0.00866452045738697, 0.005557671654969454, -0.032227564603090286, -0.005639300681650639, 0.014753143303096294, 0.004946349188685417, -0.010168456472456455, 0.009070144966244698, 0.0080325398594141, 0.0035404679365456104, 0.021920423954725266, 0.028460953384637833, 0.004355903249233961, 0.014361375942826271, -0.017665671184659004, -0.02567962184548378, -0.012307791970670223, 0.011409916914999485, -0.01546933501958847, 0.027260033413767815, 0.0073420265689492226, -0.003578051459044218, -0.006289517506957054], [-0.010814920999109745, -0.01501359511166811, -0.010727818123996258, 0.024803398177027702, 0.01752096600830555, 0.013063120655715466, -0.0057834237813949585, -0.02173265628516674, 0.004187844693660736, -0.008793821558356285, 0.01200104784220457, -0.016334543004631996, -0.011436987668275833, -0.0027559970039874315, 0.008048705756664276, 0.01382319163531065, 0.004987012594938278, 0.009881324134767056, 0.006911103613674641, 0.02203526720404625, -0.014233879745006561, -0.005197060760110617, 0.001649414305575192, -0.007834321819245815, 0.006074781529605389, 0.005266695283353329, 0.007729691453278065, -0.01890462078154087, -0.012372111901640892, -0.005992060527205467, -0.005677385255694389, 0.010940258391201496, 0.010640541091561317, -0.0014983797445893288, -0.0031667486764490604, 0.005761020816862583, -0.005197243299335241, 0.008083056658506393, -0.0038093619514256716, -0.009549502283334732], [0.01569514349102974, 0.014566645957529545, 0.02237342670559883, 0.02377389185130596, -0.017339548096060753, -0.023513132706284523, 0.010741637088358402, 0.011377421207726002, -0.014952972531318665, -0.0028783988673239946, -0.012990016490221024, 0.020693721249699593, 0.0057682981714606285, 0.0032739313319325447, -0.016110850498080254, -0.021033301949501038, 0.01770869456231594, -0.005563637707382441, 0.019682379439473152, -0.01364399679005146, 0.02693994902074337, 0.021003596484661102, 0.017086533829569817, 0.01029330212622881, 0.010918614454567432, 0.0002350184804527089, -0.027875488623976707, 0.020702684298157692, 0.021961020305752754, -0.00390969542786479, 0.0060944813303649426, -0.0010238474933430552, -0.03379598259925842, 0.006159636657685041, 0.004005146212875843, -0.011443722061812878, 0.0330696702003479, 0.01584796793758869, -0.012562986463308334, 0.00807125959545374], [-0.007713839877396822, -0.022943036630749702, -0.012324154376983643, 0.014599038287997246, -0.02461726777255535, 0.007084092125296593, -0.0004060339415445924, -0.024824269115924835, 0.0036084009334445, -0.004831850994378328, 0.000894223980139941, 0.01294693909585476, -0.02256731130182743, -0.017361877486109734, -0.015603695996105671, 0.007969795726239681, 0.006742304190993309, 0.0080894585698843, 0.017560521140694618, -0.01854417659342289, -0.008662770502269268, -0.02754201926290989, -0.023392654955387115, -0.009172755293548107, -0.031033853068947792, -0.018049033358693123, 0.010776504874229431, 0.01808100938796997, -0.025893723592162132, 0.006111566908657551, -0.011147821322083473, -0.00804007239639759, -0.02380289137363434, -0.005409413482993841, -0.011717231012880802, -9.836286335485056e-05, -0.02163495495915413, 0.011288960464298725, 0.023904066532850266, -0.004224587231874466], [0.004022341221570969, -0.019084688276052475, -0.007175333797931671, 0.002579536521807313, -0.0004719361604657024, 0.013762326911091805, 0.010012333281338215, -0.0028292264323681593, 0.003888162784278393, 0.0244773980230093, -0.016408724710345268, -0.013197331689298153, 0.01910450868308544, -0.0073519181460142136, -0.0015076707350090146, 0.00432653957977891, -0.023142805323004723, -0.0018636563327163458, -0.02067789062857628, -0.016828864812850952, -0.005083510186523199, 0.02218097820878029, 0.0020369167905300856, 0.005029108840972185, 0.027302585542201996, 0.028603985905647278, 0.020877910777926445, -0.0009334851638413966, 0.019420824944972992, -0.014873415231704712, -0.0012125491630285978, 0.024130763486027718, 0.0005835273768752813, -0.012526988051831722, -0.0024505939800292253, -0.010600329376757145, 0.003543955972418189, 0.0001463156659156084, 0.019791381433606148, 0.022648930549621582], [-0.013430648483335972, 0.015162711963057518, -0.014806870371103287, 0.012682638131082058, 0.007588622625917196, -0.016539132222533226, 0.02496078610420227, -0.00893128477036953, -0.006131987553089857, 0.005102686583995819, 0.01643592305481434, 0.02771872654557228, -0.003816438838839531, -0.004882950335741043, -0.014263796620070934, 0.0067391484044492245, -0.007327713072299957, 0.003745860420167446, -0.019206972792744637, -0.02895597741007805, -0.006340485997498035, -0.011169860139489174, 0.03880935162305832, 0.015064925886690617, -0.013986396603286266, 0.0033330663572996855, -0.0019089898560196161, 0.016103297472000122, 0.0007452067802660167, -0.006582849193364382, -0.022846994921565056, -0.0024924634490162134, -0.012445878237485886, -0.003600125666707754, -0.02124469168484211, -0.003164398716762662, -0.008739580400288105, 0.003926368895918131, 0.023167181760072708, -0.013920621015131474], [0.009478339925408363, 0.007455988321453333, -0.02500254660844803, -0.012632040306925774, -0.014965904876589775, 0.005017852410674095, -0.012537566013634205, -0.007617863826453686, -0.008150680921971798, 0.009954866953194141, -0.0021020935382694006, -0.010742565616965294, -0.004861312918365002, 0.011549275368452072, -0.008962891064584255, -0.014088707976043224, -0.021640224382281303, 0.007546768989413977, 0.011952470988035202, 0.032257430255413055, -0.0019217792432755232, -0.005437612533569336, 0.02552960254251957, -0.005583280231803656, -0.007482017390429974, 0.005109975580126047, 0.013329875655472279, -0.007509363349527121, -0.004484603181481361, 0.02103259041905403, -0.016250252723693848, -0.017145181074738503, -0.003484591841697693, 0.0065856436267495155, 0.005684844683855772, 0.002587930765002966, -0.0037366049364209175, -0.015242630615830421, 0.027654534205794334, -0.006235791370272636], [-0.024290475994348526, 0.00017805167590267956, -0.021234886720776558, 0.008032357320189476, 0.029451074078679085, 0.01129176001995802, 0.007354666944593191, -0.016944605857133865, -0.021862490102648735, 0.00242997077293694, 0.0062476275488734245, -0.015283665619790554, 0.025423716753721237, 0.015490041114389896, -0.005817899946123362, 0.015852278098464012, 0.0009406282915733755, 0.006298957858234644, 0.01440155878663063, 0.013680417090654373, 0.014289683662354946, -0.0040011280216276646, -0.0007406126824207604, 0.006011357996612787, -0.03505677357316017, -0.0226293858140707, -0.01369601022452116, -0.008058380335569382, 0.02653384953737259, 0.01716255582869053, 0.0056530507281422615, -0.007252861745655537, -0.012850829400122166, 0.02063557878136635, -0.014481705613434315, -0.0048465789295732975, 0.028339333832263947, -0.018658945336937904, 0.00690839160233736, 0.007403929252177477], [-0.02275378815829754, 0.009910034015774727, 0.004042527638375759, -0.010549233295023441, -0.030845053493976593, -0.00929766520857811, 0.008138940669596195, -0.0077111925929784775, 0.0038028056733310223, 0.006006090901792049, 8.05673553259112e-05, 0.03527960926294327, -0.015364309772849083, -0.001537867123261094, -0.014555881731212139, -0.03151356428861618, -0.01228592824190855, -0.019597556442022324, 0.02019660733640194, 0.016099952161312103, 0.0020428523421287537, -0.005848210770636797, -0.009656132198870182, 0.00867599155753851, -0.049329809844493866, -0.012099506333470345, 0.008788904175162315, -0.016219327226281166, -0.0030948591884225607, -0.006636646576225758, 0.0020937263034284115, 0.014686520211398602, -0.02492833510041237, -0.016163356602191925, -0.003601099131628871, -0.00724608451128006, -0.05698244273662567, -0.0020968473982065916, 0.00308258761651814, 0.003666437231004238], [-0.010720710270106792, -0.022962186485528946, -0.003129101125523448, -0.0033803090918809175, -0.022280428558588028, -0.005434632766991854, 0.005633183754980564, -0.007006132509559393, -0.013207098469138145, 0.00510254455730319, -0.0228048637509346, 0.016997888684272766, -0.010485837236046791, 0.006835920736193657, 0.009762953035533428, 0.004860169719904661, 0.01858689822256565, -0.002949891611933708, -0.0120192626491189, -0.0075526549480855465, -0.014465559273958206, -0.028081202879548073, -0.005076161585748196, -0.017767056822776794, -0.013820391148328781, -0.004898241721093655, 0.007653082720935345, 0.03003673441708088, 0.0006551522528752685, 0.004107290878891945, -0.02285008691251278, -0.0031725631561130285, -0.0002051851333817467, 0.011133067309856415, 0.017467614263296127, 0.031251899898052216, -0.022290052846074104, -0.010153265669941902, -0.021343333646655083, -0.011273574084043503], [0.01144395861774683, 0.009517252445220947, -0.021909024566411972, -0.014791175723075867, -0.0037305504083633423, -0.026563920080661774, -0.010693098418414593, -0.029036110267043114, -0.007826227694749832, 0.025684792548418045, 0.006720019970089197, -0.02727525308728218, -0.0135553739964962, 0.005706328898668289, 0.015790939331054688, -0.015064077451825142, -0.015241935849189758, -0.010339000262320042, -0.006409075111150742, 0.018864480778574944, 9.879950812319294e-05, 0.007496741600334644, 0.024156544357538223, 0.02694140002131462, 0.023297550156712532, -0.016856379806995392, -0.015123759396374226, -0.007494302932173014, -0.027903178706765175, -0.029884418472647667, 0.01574382558465004, -0.017245372757315636, 0.0035082946997135878, -0.023963164538145065, 0.010969744995236397, -0.010391618125140667, -0.0010887756943702698, -0.026551708579063416, -0.005911098327487707, 0.019104264676570892], [-0.01250026747584343, -0.009038920514285564, 0.005549808964133263, -0.03280104696750641, -0.0054179951548576355, -0.00976649858057499, -0.018329482525587082, 0.030734026804566383, 0.00523924408480525, -0.010659297928214073, 0.016227686777710915, 0.011394711211323738, -0.01685032621026039, 0.013013900257647038, 0.008877982385456562, -0.01533046830445528, 0.01786736771464348, 0.02246387116611004, -0.007554045878350735, -0.0027859199326485395, 0.027254939079284668, 0.018201919272542, -0.005654075648635626, -0.01021712739020586, 0.008763536810874939, 0.0057547856122255325, 0.00636366056278348, 0.0077486406080424786, 0.0226178877055645, 0.01579323410987854, 0.0027137091383337975, -0.009665615856647491, 0.013211958110332489, -0.009059863165020943, 0.011647570878267288, -0.0004069930873811245, -0.00705612963065505, -0.010845203883945942, -0.0025662181433290243, 0.003027280792593956], [0.024466373026371002, -0.03154466673731804, 0.0053892056457698345, 0.02022535167634487, -0.018094226717948914, -0.008872556500136852, -0.009541870094835758, 0.015006749890744686, -0.025502532720565796, -0.00011603275197558105, 0.024299083277583122, -0.017373185604810715, 0.016387872397899628, -0.015178498812019825, -0.022376729175448418, 0.00901674572378397, -0.0032248219940811396, -0.0030243515502661467, -0.026010077446699142, 0.008818321861326694, -0.02561308816075325, 0.0012729053851217031, 0.028895024210214615, 0.016760172322392464, 0.02579907327890396, 0.018166664987802505, -0.004227431025356054, -0.032852575182914734, -0.019974619150161743, 0.02212183177471161, -0.024449944496154785, 0.0019779251888394356, -0.008437402546405792, -0.009226047433912754, 0.0002620563900563866, 0.01007936242967844, 0.009137471206486225, 0.01858833059668541, 0.01352223102003336, -0.008379524573683739], [0.022529147565364838, -0.003805772867053747, -0.004445134662091732, -0.014792129397392273, 0.008258014917373657, 0.024536380544304848, -0.017070835456252098, 0.0019532456062734127, -0.011655273847281933, -0.01862899214029312, -0.0032356439623981714, 0.0036835207138210535, -0.020696502178907394, -0.007802737411111593, -0.006921053398400545, -0.01315715629607439, 0.004935752134770155, -0.02844918891787529, 0.013306405395269394, -0.01671290583908558, 0.017702843993902206, 0.0037174485623836517, -0.007896501570940018, 0.013847923837602139, -0.0038704578764736652, -0.003279701806604862, -0.011282037943601608, -0.027748974040150642, 0.03028414212167263, -0.01877221278846264, 0.004620181396603584, 0.004383550025522709, 0.014718366786837578, 0.019126443192362785, -0.005287333391606808, 0.030504947528243065, -0.0003007318591699004, 0.029174834489822388, -0.02171848900616169, -0.008572947233915329], [0.006312455516308546, -0.005066626239567995, 0.02078135497868061, 0.025353796780109406, 0.022598421201109886, 0.0007873691502027214, -0.019035901874303818, -0.041838791221380234, -0.017286818474531174, 0.005793652962893248, 0.00922967679798603, 0.018830550834536552, -0.003537240670993924, -0.006845124997198582, 0.012897292152047157, -0.005793585907667875, 0.0077695962972939014, 0.022328054532408714, 0.007603450212627649, 0.0076350923627614975, 0.004021821077913046, 0.002830773126333952, -0.006132158916443586, 0.005987641401588917, 0.000542293069884181, 0.0024098337162286043, -0.017619885504245758, -0.020626651123166084, 0.029235629364848137, 0.005804411135613918, 0.017831850796937943, -0.005952124949544668, -0.014068711549043655, -0.019149376079440117, 0.020066773518919945, -0.013623340055346489, 0.013418647460639477, -0.00789116695523262, -0.01956930197775364, -0.004760636482387781], [-0.022255759686231613, 0.0005353415035642684, 0.007751441560685635, 0.006094522774219513, 0.02828831970691681, 0.0013900165213271976, -0.00803972128778696, 0.0028613421600311995, -0.02096225507557392, -0.01588490977883339, -0.0010783541947603226, 0.016571303829550743, 0.013380620628595352, 0.005299163516610861, 0.009102581068873405, -0.02530054748058319, 0.012320330366492271, -0.002310259034857154, -0.00649824645370245, -0.001978321699425578, -0.018112463876605034, -0.02030067890882492, 0.003490420524030924, -0.007536066696047783, 0.0010263893054798245, 0.015565123409032822, -0.015220736153423786, 0.024329643696546555, -0.022135509178042412, -0.0008797167683951557, 0.00664232112467289, -0.003898769849911332, 0.019711874425411224, 0.010589644312858582, 0.01797604374587536, -0.01320531778037548, -0.022834962233901024, 0.016961639747023582, -0.009771781042218208, 0.0028977012261748314], [0.009398563764989376, -0.004690921865403652, -0.022317634895443916, 0.019634142518043518, -0.01278679072856903, 0.016105053946375847, -0.009565712884068489, 0.017372794449329376, 0.010722475126385689, -0.009554718621075153, 0.016742559149861336, -0.008156898431479931, 0.015095775946974754, 0.009465277194976807, 0.023697927594184875, -0.016821114346385002, -0.016322754323482513, -0.0012693059397861362, -0.02264777384698391, 0.014506945386528969, 0.01759030856192112, -0.017680440098047256, -0.032724421471357346, -0.013084487058222294, -0.01665191538631916, 0.011412274092435837, -0.003979647997766733, 0.011698870919644833, -0.003891527419909835, -0.005061166360974312, 0.03758178651332855, -0.003041632240638137, 0.000699915864970535, 0.0008131639915518463, 0.009914860129356384, 0.004698815289884806, -0.006483193952590227, 0.009500659070909023, -0.03941856697201729, 0.003662443719804287], [0.0057622226886451244, -0.011810993775725365, 0.009249881841242313, -0.008471420034766197, -0.03250570222735405, -0.010051469318568707, -0.014832342974841595, -0.005220905877649784, 0.0022728380281478167, 0.0048394096083939075, 0.014490458182990551, 0.0036813828628510237, 0.008063124492764473, 0.032619018107652664, -0.010440809652209282, 0.002668637316673994, 0.03494342789053917, 0.007063716650009155, -0.016692733392119408, 0.02565997838973999, -0.014111734926700592, -0.026311805471777916, 0.001217822777107358, 0.005996810272336006, -0.01420825719833374, 0.026035776361823082, 0.0019472067942842841, -0.0007338252617046237, 0.0029965026769787073, 0.019770018756389618, 0.020906852558255196, 0.019543498754501343, 0.007333647459745407, -0.024967307224869728, 0.012861542403697968, -0.02746228128671646, -0.009844589047133923, 0.018596645444631577, 0.00715885404497385, -0.004934247117489576], [0.011407346464693546, 0.018121132627129555, 0.001239458448253572, 0.02611185610294342, 0.01202043890953064, -0.016158711165189743, 0.004775939509272575, 0.018130766227841377, -0.020450102165341377, -0.011535516008734703, 0.021058836951851845, -0.017433665692806244, 0.0019480655901134014, 0.03455657511949539, 0.01549882534891367, 0.007849271409213543, 0.027829578146338463, -0.00617733271792531, 0.024802420288324356, 0.006423719227313995, 0.02437359280884266, -0.016235997900366783, 0.024984408169984818, 0.012727522291243076, -0.0067739407531917095, -0.004467035178095102, -0.0008484147256240249, -0.0009533379343338311, -0.01574043184518814, 0.008568133227527142, 0.0003249150759074837, 0.017358876764774323, 0.03346133604645729, 0.012578876689076424, 0.0018490393413230777, -0.012997932732105255, 0.011409495957195759, -0.003860971424728632, 0.0006740035023540258, 0.007049979642033577], [-0.011068617925047874, -0.0005274306167848408, -0.015800846740603447, 0.01386028341948986, -0.010256677865982056, 0.011296295560896397, -0.03211274743080139, 0.002826250856742263, -0.006084166932851076, 0.015521376393735409, -0.031822241842746735, 0.006745595019310713, 0.01976163312792778, -0.02614145167171955, -0.03280483931303024, -0.012004568241536617, 0.033647313714027405, -0.020932074636220932, -0.0031179687939584255, 0.009289095178246498, -0.011645830236375332, 0.023310337215662003, 0.005493852309882641, 0.014045716263353825, -0.02829744480550289, 0.014208242297172546, 0.004253561142832041, -0.007051726337522268, 0.006568396929651499, -0.006489243358373642, -0.016129640862345695, -0.014242098666727543, 0.01504082977771759, 0.025874091312289238, -0.01861438900232315, 0.012474526651203632, -0.002001258311793208, 0.0029253510292619467, -0.011705681681632996, 0.02243601530790329], [-0.004125962033867836, -0.0024064439348876476, 0.02331632934510708, -0.026429928839206696, -0.01290097925812006, 0.010360298678278923, 0.0055583748035132885, -0.0087999626994133, -0.015577076002955437, -0.032782137393951416, -0.02267778106033802, -0.008787393569946289, 0.014847826212644577, -0.02063027396798134, 0.02573707513511181, -7.985965203261003e-05, 0.0027614436112344265, 0.00031284659053198993, 0.003501066705211997, -0.008070218376815319, -0.017809176817536354, 0.02552982233464718, -0.007124976254999638, 0.00018282115343026817, -0.009767704643309116, 0.020466258749365807, -0.004917004145681858, 0.0014527719467878342, -0.029288489371538162, -0.003550594439730048, -0.009187806397676468, -0.0013383846962824464, -0.030515214428305626, 0.002122699748724699, 0.01611788384616375, 0.02420300990343094, 0.018065353855490685, 0.02372320368885994, -0.007222007494419813, 0.011811414733529091], [0.025008032098412514, 0.01104199979454279, 0.005977136082947254, -0.0033567838836461306, 0.011940202675759792, -0.017288295552134514, 0.028720704838633537, -0.024443015456199646, -0.015578119084239006, 0.01565820537507534, 0.021818839013576508, -0.006553750019520521, 0.014377626590430737, 0.013549854047596455, 0.00616204459220171, -0.01935572363436222, -0.010941357351839542, 0.005032662767916918, 0.017759202048182487, -0.003737729275599122, -0.011259111575782299, 0.023259758949279785, 0.017035480588674545, -0.008937839418649673, -0.012215481139719486, -0.019318686798214912, 0.02178661897778511, 0.010431717149913311, -0.016625387594103813, -0.02200908772647381, 0.0030249599367380142, 0.008345045149326324, 0.004528609570115805, -0.01158642303198576, -0.012979250401258469, 0.023559123277664185, 0.008955775760114193, -0.0029719762969762087, -0.013709465973079205, -0.013689634390175343], [0.0027166218496859074, 0.00873551331460476, -0.006804274395108223, -0.01484389416873455, 0.01458618976175785, -0.007156317122280598, -0.01592133194208145, 0.008053382858633995, 0.0004731965309474617, -0.016598844900727272, 0.003924072720110416, -0.02348380722105503, 0.007368516642600298, 0.007161756046116352, 0.0030893301591277122, -0.0016743630403652787, -0.014277024194598198, 0.009812288917601109, 0.017317062243819237, -0.008717888034880161, -0.026261460036039352, -0.001142233842983842, 0.024202393367886543, -0.017679333686828613, -0.025308959186077118, 0.017630353569984436, 0.0012103497283533216, -0.000882077612914145, -0.010899343527853489, -0.00995645672082901, 0.009416865184903145, -0.02072841115295887, -0.004230516497045755, -0.00422615185379982, -0.008746939711272717, -0.011637209914624691, -0.02635207399725914, 0.016268625855445862, -0.019331982359290123, 0.0007957891211844981], [-0.01596442237496376, -0.021785326302051544, -0.006113395094871521, 0.002989579923450947, 0.01715155690908432, -0.02342025563120842, -0.005521425511687994, -0.02342979796230793, 0.013520094566047192, -0.008672588504850864, -0.00488559203222394, 0.0049461363814771175, 0.021235039457678795, -0.004304284695535898, 0.0034766094759106636, 0.01628532074391842, 0.02086016535758972, -0.015769297257065773, 0.003951067104935646, -0.013583239167928696, 0.03400305658578873, 0.013821124099195004, 0.007431572303175926, -0.009709972888231277, 0.020794514566659927, -0.01642083004117012, -0.02484789490699768, -0.002097578253597021, 0.009149083867669106, -0.005777810700237751, 0.030329100787639618, 0.021438127383589745, 0.00034945440711453557, -0.0013642726698890328, -0.02442287839949131, -0.013443179428577423, 0.019437989220023155, 0.010384688153862953, -0.00996539555490017, -0.0168147049844265], [-0.017830317839980125, 0.022747687995433807, -0.0002473463537171483, 0.0074711269699037075, -0.02072879485785961, 0.012589199468493462, -0.002609680872410536, 0.012776837684214115, 0.0023611998185515404, 0.010851491242647171, -0.014402591623365879, 0.009434541687369347, 0.005164366215467453, 0.006240369752049446, -0.004952955059707165, 0.015301101841032505, -0.016988974064588547, 0.006967076566070318, -0.02065327577292919, 0.002980818273499608, 0.015642227604985237, -0.015182835049927235, 0.00863796379417181, 0.0005507854511961341, -0.020767854526638985, -0.01023149210959673, -0.01824348233640194, -0.011617709882557392, -0.015560577623546124, 0.005000374745577574, -0.013833382166922092, 0.0011007529683411121, -0.014129656367003918, -0.004740736447274685, -0.008398724719882011, 0.026693012565374374, -0.003612461034208536, 0.01008076872676611, 0.015543819405138493, 0.005964076146483421], [0.006429443135857582, -0.00978780072182417, 0.014098231680691242, 0.025941727682948112, 0.019062381237745285, -0.016322506591677666, -0.021724238991737366, 0.01817280426621437, 0.0035387694370001554, -0.02509474754333496, 0.027965473011136055, 0.00636726850643754, 0.006266530137509108, -0.014105075038969517, 0.024622075259685516, 0.003048965008929372, -0.020471366122364998, -0.021784566342830658, 0.0144874332472682, 0.02051643654704094, -0.013523266650736332, -0.008414640091359615, 0.017705751582980156, 0.00960273016244173, 0.0058641936630010605, 0.0017936635995283723, -0.02405374124646187, 0.02506052888929844, -0.02301790565252304, -0.004421201068907976, -0.00810872670263052, -0.00834769569337368, -0.02968873642385006, -0.02544277533888817, -0.016188617795705795, -0.012912943959236145, 0.0014643617905676365, -0.028013721108436584, 0.02291509509086609, 0.006727306172251701], [-0.016055891290307045, 0.03002227284014225, 0.005063393618911505, 0.00039148202631622553, 0.022381430491805077, 0.014735589735209942, 0.009040255099534988, 0.012568493373692036, 0.01937965117394924, -0.002277551218867302, -0.016547810286283493, 0.008349990472197533, 0.012164833955466747, -0.012620767578482628, -0.009651158936321735, 0.014275350607931614, 0.020554423332214355, -0.019349118694663048, -0.0035011472646147013, -0.013405405916273594, 0.010918260551989079, 0.005282368510961533, -0.003628357080742717, -0.017251774668693542, 0.02458072640001774, -0.016048097983002663, 0.02017737738788128, 0.005716246552765369, -0.0011289920657873154, 0.01507201325148344, 0.021005908027291298, 0.013386672362685204, 0.0014052034821361303, -0.0253202635794878, 0.005931644234806299, -0.013742311857640743, 0.010308493860065937, 0.023229945451021194, -0.0167409498244524, -0.006437582895159721], [-0.016664685681462288, -0.008413339965045452, -0.025615276768803596, -0.021992256864905357, -0.0064873904921114445, 0.007641916163265705, -0.01493167970329523, -0.029509499669075012, -0.028279878199100494, -0.0049666836857795715, 0.010908638127148151, -0.007306277751922607, 1.1948495739488862e-05, -0.025134654715657234, 0.011250079609453678, 0.005025150254368782, -0.004141636658459902, 0.024897344410419464, 0.02188025414943695, 0.0017273018602281809, -0.0047799344174563885, -0.018176794052124023, -0.001474694930948317, -0.011887474916875362, -0.003222494153305888, 0.001481936196796596, 0.00023757200688123703, 0.024194426834583282, 0.01901346817612648, -0.006037040613591671, -0.0033596938010305166, -0.019082408398389816, -0.019730111584067345, 0.02371194399893284, -0.007631488610059023, -0.017178548499941826, 0.009773924015462399, -0.008797862567007542, 0.021426815539598465, 0.010785638354718685], [-0.007156072184443474, -0.011467010714113712, 0.007491067051887512, 0.0008817475172691047, 0.017327947542071342, 0.023202620446681976, -0.007886606268584728, 0.00969228520989418, 0.033649660646915436, 0.007307753898203373, -0.004816263914108276, -0.017333030700683594, -0.0034589413553476334, -0.010564957745373249, -0.008356574922800064, 0.009674631990492344, 0.010946028865873814, -0.010771316476166248, -0.0035783289931714535, 0.020568180829286575, 0.00628290232270956, -0.009913845919072628, 0.0034744199365377426, 0.015967875719070435, 0.004176228307187557, -0.01007335726171732, 0.0015901259612292051, -0.0023014817852526903, 0.0018715214682742953, -0.0035700383596122265, -0.02073049172759056, 0.0009375637164339423, -0.016531245782971382, -0.019368750974535942, -0.022981101647019386, -0.006936350371688604, 0.0007041177013888955, 0.024586739018559456, -0.030260762199759483, 0.0100469421595335], [0.018791604787111282, -0.003263759659603238, -0.02080528438091278, 0.007497415412217379, 0.017982885241508484, -0.023366639390587807, 0.0020311116240918636, 0.00446394132450223, -0.00712699955329299, -0.00026647347840480506, -0.006951197516173124, -0.017545348033308983, -0.013519397005438805, -0.0007006998057477176, 0.009173284284770489, -0.01644105091691017, 0.014858933165669441, -0.00451441528275609, -0.006688643712550402, 0.00035996458609588444, -0.030250806361436844, 0.0019621578976511955, 0.007395982276648283, -0.008286237716674805, 0.010134288109838963, -0.006826010067015886, -0.0018819167744368315, 0.011075328104197979, -0.0008744406513869762, 0.003049129154533148, -0.012235580012202263, -0.020225707441568375, 0.04253898561000824, 0.02365186996757984, -0.0066374000161886215, 0.0144929438829422, 0.01208124216645956, 0.007812165189534426, 0.0074301911517977715, 0.0031237429939210415], [0.006078735925257206, 0.028302866965532303, -0.002583355875685811, 0.005640226416289806, -0.017651258036494255, -0.005777998361736536, 0.002875588135793805, -0.029059715569019318, 0.007342573255300522, -0.013860557228326797, -0.006579020991921425, -0.019488202407956123, -0.021858619526028633, 0.011011526919901371, -0.00510743772611022, -0.019584229215979576, -0.008232797496020794, 0.004947600420564413, -0.014828316867351532, -0.004107282962650061, -0.01794595643877983, 0.008074521087110043, 0.02601703442633152, -0.020876433700323105, 0.02657833881676197, -0.0026193521916866302, 0.02021395042538643, 0.005435301456600428, 0.009391211904585361, -0.017530251294374466, 0.017306074500083923, -0.019965119659900665, -0.02326308749616146, 0.001610210514627397, 0.037555303424596786, 0.031695492565631866, 0.006054541561752558, 0.007778439670801163, -0.0066766999661922455, 0.006005082745105028], [0.02000892534852028, 0.027249719947576523, 0.017487872391939163, 0.020077019929885864, 0.01887652277946472, 0.01483561098575592, -0.009259538725018501, 0.0198731180280447, -0.01805528998374939, 0.014499947428703308, 0.008153390139341354, -0.025158923119306564, 0.0058824592269957066, 0.0015843737637624145, -0.029851455241441727, -0.021631481125950813, 0.001011663698591292, 0.0010912775760516524, 0.015808207914233208, 0.013324602507054806, -0.01927601732313633, 0.015616410411894321, -0.011291524395346642, 0.019771257415413857, -0.004620284307748079, 0.0032476549968123436, 0.015418975614011288, -0.01449736300855875, 0.002495461143553257, 0.003482774132862687, -0.02453838847577572, -0.031796131283044815, -0.008181219920516014, 0.013814790174365044, 0.013317630626261234, 0.02065202035009861, -0.016149284318089485, 0.01135183870792389, -0.0017095102230086923, -0.013765713199973106], [-0.008427157066762447, -0.021187514066696167, 0.020968114957213402, -0.012745694257318974, 0.01270105317234993, -0.002106396248564124, 0.005255265161395073, -0.01739371009171009, 0.018532149493694305, 0.021914556622505188, -0.0032914436887949705, 0.00017287807713728398, -0.006849914323538542, -0.0188006479293108, 0.020991304889321327, 0.016250750049948692, -0.02867920882999897, 0.002941550686955452, 0.020308474078774452, -0.004716769326478243, -0.01423074584454298, -0.006947503425180912, -0.0010741694131866097, -0.007822160609066486, 0.0031665905844420195, -0.0004375884891487658, 0.007076167035847902, -0.019918255507946014, 0.005720672197639942, 0.016770007088780403, 0.03762407600879669, -0.018578624352812767, -0.02371116541326046, 0.02310090698301792, 0.010945199988782406, -0.02650262787938118, -0.013308241032063961, 0.0037761060521006584, -0.0047345468774437904, 0.0009199603809975088], [-0.007564515341073275, 0.015958406031131744, -0.016263267025351524, 0.0013770130462944508, 0.0047697098925709724, 0.011551913805305958, -0.010080032050609589, 0.024243203923106194, -0.009373826906085014, 0.0057305945083498955, -0.00920192152261734, 0.003502299776300788, 0.019980935379862785, 0.01754394918680191, -0.01197352446615696, -0.006968093570321798, -0.012047529220581055, 0.014214852824807167, 0.009961669333279133, -0.0263864416629076, 0.03535536304116249, -0.017101339995861053, 0.025890976190567017, -0.005601396318525076, -0.015318079851567745, -0.0024783816188573837, -0.013929145410656929, 0.029077420011162758, -0.0018612700514495373, -0.014679485000669956, -0.0387284979224205, 0.02073669619858265, -0.015150117687880993, -0.018805457279086113, -0.006891471333801746, -0.030936231836676598, 0.00019443438213784248, 0.02687065675854683, 0.0013011452974751592, 0.01210096012800932], [0.00839473307132721, -0.0009276868659071624, 0.009732091799378395, 0.012263232842087746, 0.012868499383330345, 0.02414746582508087, 0.005718444939702749, -0.0012714052572846413, -0.004503607749938965, 0.021167507395148277, 0.00758711900562048, -0.006201253738254309, -0.02574790269136429, 0.0061995889991521835, 0.0066968947649002075, 0.025303540751338005, 0.015833884477615356, 0.012808446772396564, -0.0037464892957359552, 0.032036058604717255, -0.015343688428401947, 0.021227790042757988, -0.012560485862195492, -0.008971719071269035, 0.0026313462294638157, 0.021879907697439194, -0.01117345318198204, 0.023150786757469177, -0.012493190355598927, 0.0036010791081935167, 0.011511124670505524, 0.008711266331374645, -0.013344972394406796, -0.005745959468185902, -0.02490752562880516, -0.0031665130518376827, -0.02429845556616783, -0.0010053071891888976, 0.014867205172777176, -0.015774844214320183], [-0.013711961917579174, -0.0178834181278944, -0.011917325668036938, 0.020301567390561104, 0.021274276077747345, 0.011112736538052559, 0.00010480853234184906, -0.00289351399987936, 0.0045200311578810215, -0.005866202525794506, 0.008143190294504166, 0.010173020884394646, 0.015200631693005562, -0.01165875792503357, -0.010102924890816212, 0.016211610287427902, -0.00042196072172373533, 0.009697911329567432, -0.005884688347578049, -0.0032087054569274187, -0.02039192058146, -0.0035694241523742676, 0.0038541301619261503, -0.02209196425974369, 0.004448235966265202, -0.004438644275069237, -0.014890721067786217, 0.013033287599682808, 0.006868733558803797, 0.012320756912231445, 0.0005035970243625343, 0.004821585491299629, 0.008918840438127518, 0.016402294859290123, 0.012098460458219051, -0.015138700604438782, 0.0031360972207039595, -0.01078907959163189, 0.01844768412411213, 0.0019314270466566086], [0.005792664829641581, 0.0166943296790123, -0.013789549469947815, -0.024905303493142128, -0.015778545290231705, 0.0005679088062606752, -0.019546063616871834, -0.001494631520472467, -0.023870646953582764, 0.01649700663983822, -0.009205503389239311, -0.010271959006786346, -0.008257110603153706, 0.006337422877550125, -0.0011168731143698096, -0.007754756137728691, -0.01895836554467678, 0.01319445576518774, 0.009295818395912647, 0.015448106452822685, -0.018389416858553886, 0.006619439925998449, 0.0034683034755289555, 0.00416115066036582, -0.0022871182300150394, -0.005882620811462402, 0.0012974028941243887, -0.0063335830345749855, 0.011394680477678776, -0.012814556248486042, 0.009103151969611645, 0.014327327720820904, 0.0005434529157355428, -0.005144251976162195, -0.000721857650205493, 0.008414892479777336, 0.008528606966137886, 0.009920850396156311, -0.007027941755950451, 0.005204366985708475], [-0.006639641243964434, -0.007869627326726913, 0.006040623877197504, 0.00324227474629879, -0.019146695733070374, -0.013656284660100937, 0.02569100633263588, -0.020457133650779724, -0.0007554789772257209, -0.011453208513557911, -0.028207512572407722, -0.004960158374160528, -0.0012059269938617945, -0.009786641225218773, -0.026644444093108177, -0.005044607911258936, -0.007189096882939339, -0.016813242807984352, -0.007260278332978487, -0.031797707080841064, -0.006132932845503092, -0.014912928454577923, 0.015195047482848167, -0.00974683091044426, -0.017864761874079704, -0.010743307881057262, -0.011196322739124298, 0.010582279413938522, -0.0044250949285924435, -0.005750981625169516, -0.03523191064596176, -0.00962233915925026, 0.014974897727370262, 0.0203018169850111, 0.025245029479265213, -0.023227285593748093, -0.0026272262912243605, -0.01274425070732832, 0.0321427658200264, 0.021614693105220795], [0.008920835331082344, -0.02921557053923607, 0.005660810507833958, -0.023930180817842484, -0.020932935178279877, 0.016392016783356667, -0.008683898486196995, -0.0005496381199918687, 0.014950471930205822, 0.009950783103704453, -0.00854707695543766, 0.00875029992312193, -0.007403017487376928, 0.0015377468662336469, 0.015824994072318077, -0.018205346539616585, 0.02728200890123844, 0.013041839003562927, -0.01962965726852417, 0.011343106627464294, -0.011857323348522186, -4.881007407675497e-05, 0.014658122323453426, 0.002181173302233219, 0.006836796645075083, 0.0005410914309322834, -0.007221801206469536, -0.0224699005484581, -0.013149087317287922, 0.008604342117905617, 0.016264308243989944, 0.0026501270476728678, 0.00866764783859253, -0.01917441189289093, -0.028453856706619263, -0.010249223560094833, -0.010234755463898182, 0.0021177439484745264, 0.012817689217627048, 0.008727572858333588], [-0.0017841109074652195, 0.02167106233537197, -0.004297033417969942, 0.022928008809685707, -0.0040177288465201855, 0.0011779146734625101, -0.013626418076455593, -0.012473300099372864, 0.018224656581878662, 0.011892358772456646, -0.00020664911426138133, 0.0016164998523890972, 0.0017910331953316927, 0.02244270034134388, -0.010147352702915668, 0.0026505093555897474, 0.00028968643164262176, -0.004889768548309803, -0.013332457281649113, 0.004164128564298153, 0.011670914478600025, -0.0025035738945007324, 0.015447458252310753, -0.017025401815772057, -0.022442640736699104, 0.018081989139318466, 0.0022014654241502285, 0.015298696234822273, 0.02129351533949375, -0.017244277521967888, -0.012885655276477337, 0.013355858623981476, -0.012972554191946983, -0.008488772436976433, 0.0026765307411551476, -0.0050360653549432755, -0.00858478806912899, 0.0053255134262144566, -0.007485112175345421, -0.013291689567267895], [0.004428595304489136, -0.0244281142950058, -0.0060520959086716175, 0.015140261501073837, -0.02863255701959133, 0.020671185106039047, 0.009573740884661674, 0.0011803953675553203, 0.024539874866604805, -0.0013080514036118984, -0.010231373831629753, -0.023047085851430893, 0.006536885630339384, 0.016999434679746628, 0.016545314341783524, 0.0096535449847579, 0.008641045540571213, -0.011184077709913254, 0.020959317684173584, 0.008977839723229408, 0.018273672088980675, 0.008013064973056316, 0.004248276352882385, -0.01537184976041317, -0.015829842537641525, -0.013698242604732513, 0.03273714333772659, 0.006893412210047245, 0.004787461366504431, -0.0042636096477508545, -0.013422646559774876, 0.01875438541173935, -0.013432737439870834, 0.019711628556251526, 0.011281067505478859, -0.0030627527739852667, 0.022890741005539894, 0.0149337537586689, 0.034432552754879, -0.007204748690128326], [0.018277185037732124, 0.002583152614533901, 0.020204760134220123, 0.010205630213022232, -0.019392309710383415, -0.012096057645976543, 0.016836492344737053, 0.030076196417212486, -0.0014689249219372869, -0.0009839258855208755, 0.034281790256500244, 0.008445993065834045, 0.0033272458240389824, -0.006218910217285156, 0.018245987594127655, 0.002806066768243909, -0.028788074851036072, -0.013606489636003971, 0.011749795638024807, -0.013766358606517315, -0.02424808032810688, 0.001680521760135889, 0.014595952816307545, -0.009481584653258324, -0.007382731419056654, -0.00531393475830555, -0.021391460672020912, -0.0007001360645517707, -0.02195665054023266, -0.005072831176221371, 0.021004002541303635, 0.02274692803621292, -0.011050195433199406, 0.01766216568648815, 0.01945457234978676, 0.021778501570224762, -0.016140736639499664, 0.004899735562503338, -0.008330311626195908, -0.02292552962899208], [-0.010701964609324932, 0.002687680535018444, 0.0027035523671656847, 0.002160270232707262, 0.0191943421959877, 0.0059569585137069225, -0.009172515943646431, -0.017467178404331207, -0.009975355118513107, -0.013595620170235634, 0.0120720025151968, -0.001459818915463984, 0.016769083216786385, -0.025562770664691925, -0.012465385720133781, -0.00865917932242155, -0.030109182000160217, -0.008038721978664398, -0.01678898185491562, 0.015926863998174667, -0.014860693365335464, -0.007324978243559599, 0.0038748413790017366, 0.007557807955890894, -0.018360896036028862, 0.00108957604970783, 0.019670505076646805, -0.012020975351333618, -0.02258782833814621, 0.013885023072361946, -0.008309911005198956, 0.013086854480206966, 0.008485298603773117, 0.022701269015669823, -0.005308361258357763, -0.008830795995891094, 0.002222001552581787, -0.014333728700876236, 0.00259875669144094, 0.009425713680684566], [-0.023256028071045876, -0.005959976464509964, 0.007347254082560539, -0.008670976385474205, -0.009719401597976685, 0.005979166366159916, 0.003914176020771265, 0.0005883357371203601, -0.028139518573880196, -0.022605374455451965, -0.018977632746100426, 0.006759357172995806, 0.000883696018718183, 0.02842419035732746, 0.005366923753172159, 0.016660332679748535, 0.00668928911909461, -0.007931789383292198, -0.011760525405406952, -0.011521194130182266, -0.018532462418079376, -0.012408610433340073, 0.024332376196980476, 0.007636599242687225, 0.0006601561326533556, 0.006137416232377291, 0.005790971219539642, -0.0017600206192582846, -0.028987331315875053, 0.017479805275797844, 0.003521748585626483, 0.008977237157523632, -0.0139941880479455, 0.008648429065942764, 0.007920238189399242, -0.003707821248099208, 0.0006589447730220854, -0.003484708024188876, -0.010912462137639523, -0.0031398218125104904], [0.021358830854296684, -0.007025367580354214, 0.0001368077500956133, -0.03434852138161659, 0.00011673074186546728, -0.011465217918157578, -0.0039126998744904995, -0.003859343007206917, 0.019735299050807953, -0.009789089672267437, 0.0031112965662032366, 0.008179465308785439, 0.020544711500406265, 0.029521269723773003, 0.0033347620628774166, 0.012497282586991787, 0.007997355423867702, 0.01848035492002964, 0.01263393834233284, 0.0014623519964516163, 0.0008912188350223005, -0.018484724685549736, 0.001371375983580947, 0.01769375428557396, -0.0038729056250303984, -0.020677678287029266, 0.0013654024805873632, 0.0061233798041939735, 0.00952064711600542, 0.00217114738188684, 0.011909314431250095, 0.014057173393666744, 0.00793764740228653, 0.006966597866266966, -0.010785277001559734, -0.003936778288334608, -0.009251068346202374, -0.01896992325782776, -0.008734201081097126, 0.002427085302770138], [0.021116850897669792, 0.010182391852140427, 0.00688552251085639, -0.028709543868899345, 0.012365632690489292, 0.007819761522114277, 0.010159770026803017, 0.024922676384449005, -0.009485102258622646, 0.00224069831892848, -0.0005394413019530475, 0.028701631352305412, 0.019617995247244835, 0.002526413882151246, 0.00451178103685379, -0.011239483021199703, 0.0124264070764184, -0.010396568104624748, -0.007625290658324957, -0.0336504764854908, -0.015375019051134586, -0.011951327323913574, 0.017136966809630394, -0.009644228033721447, -0.0037852127570658922, 0.0076993778347969055, -0.01845696195960045, -0.005673869047313929, 0.01428801380097866, -0.01775514893233776, -0.01945926994085312, -0.01177914533764124, -0.023913970217108727, 0.009267371147871017, 0.01523140724748373, -0.025307433679699898, -0.008991044014692307, 0.006927140988409519, 0.010068457573652267, 0.007542608771473169], [-0.018266046419739723, -0.01381618995219469, -0.009769391268491745, 0.009131641127169132, -0.002896576188504696, 0.020835191011428833, -0.0043119280599057674, -0.009411624632775784, -0.01634964346885681, -0.007153314538300037, -0.022357147186994553, -0.028184495866298676, 0.011282025836408138, -0.010658270679414272, 0.019886594265699387, 0.027442729100584984, -0.018276505172252655, 0.013189665973186493, -0.012761030346155167, 0.015713412314653397, -0.008031315170228481, -0.012564387172460556, -0.02313360758125782, -0.010435591451823711, 0.02668960951268673, -0.009389991872012615, 0.02995961718261242, 0.022626206278800964, -0.014706254005432129, -0.0014805628452450037, 0.018940038979053497, 0.009670679457485676, -0.015314334072172642, -0.011974897235631943, -0.011393166147172451, -0.011921180412173271, -0.021592894569039345, 0.02248060144484043, 0.0061800517141819, -0.026133621111512184], [-0.0006464743055403233, 0.003171888878569007, 0.006254115141928196, -0.021203313022851944, 0.013198576867580414, -0.008691580034792423, -0.007681297603994608, -0.007706101983785629, 0.009923379868268967, 0.0293476190418005, -0.0011900487588718534, -0.009087417274713516, 0.028835870325565338, 0.024200979620218277, -0.006241129711270332, 0.012939251028001308, 0.01857796311378479, -0.012864484451711178, 0.0032074193004518747, -0.012498541735112667, 0.012023603543639183, -0.021655451506376266, -0.007135759107768536, 0.01094081625342369, 0.010859988629817963, 0.015752900391817093, -0.005902169272303581, -0.0028343615122139454, -0.002443823032081127, 0.004992741625756025, 0.011312351562082767, -0.008078856393694878, 0.0006496665882878006, 0.005777465645223856, 0.008713039569556713, 0.00397697975859046, 0.03803229704499245, -0.01028029527515173, -0.006295075174421072, -0.009026112966239452], [0.010189620777964592, 0.017368976026773453, -0.004988657310605049, -0.01789790764451027, -0.01591963693499565, -0.022663766518235207, -0.01506910752505064, 0.004799725022166967, 0.00428078742697835, -0.02060694992542267, 0.015333975665271282, 0.003924365621060133, 0.012575291097164154, -0.025264475494623184, 0.005951995495706797, 0.0004867328971158713, -0.02514687553048134, -0.0023782579228281975, -0.00856843777000904, -0.005116579122841358, 0.027387229725718498, -0.017142241820693016, 0.0223016906529665, 0.0017751457635313272, 0.004557481501251459, -0.001944259973242879, -0.01853993348777294, 0.010125924833118916, 0.015823161229491234, -0.02934614010155201, 0.013306505978107452, -0.0009844772284850478, -0.018993688747286797, -0.01691414602100849, -0.014464211650192738, -0.013177817687392235, 0.012346740812063217, -0.010934131219983101, 0.0027187997475266457, -0.011405762284994125], [0.001952942693606019, 0.01688559725880623, 0.00684331776574254, -0.0018565432401373982, 0.02013862133026123, 0.022540533915162086, 0.0024706129916012287, -0.007540981750935316, -0.017246942967176437, -0.004854285158216953, 0.003421120112761855, 0.0033884760923683643, 0.022043714299798012, 0.017302757129073143, 0.02103027142584324, 0.0042181131429970264, 0.00800786167383194, -0.03379378840327263, -0.012953664176166058, -0.0043145278468728065, -0.004913349635899067, -0.003642487805336714, 0.01921915076673031, 0.01139877550303936, -0.01537283044308424, -0.011840947903692722, -3.6391214962350205e-05, 0.005240548402070999, -0.011465516872704029, 0.002584602450951934, -0.027238931506872177, -0.02654939889907837, -0.002253396436572075, -0.009331519715487957, -0.011192160658538342, 0.026320533826947212, 0.005111221224069595, 0.014171328395605087, 0.011490043252706528, 0.001325648045167327], [0.014023258350789547, -0.0007567302091047168, -0.027324914932250977, 0.000748820195440203, 0.0013616055948659778, -0.004925920162349939, 0.015648867934942245, -0.0183112695813179, -0.00086362095316872, 0.01985974796116352, 0.011435595341026783, 0.011916251853108406, 0.015188823454082012, 2.3088061425369233e-05, 0.017459845170378685, 4.487617843551561e-05, 0.004645838867872953, -0.00596469035372138, 0.012742229737341404, 0.02254210226237774, 0.027544768527150154, 0.011736905202269554, -0.002336126519367099, -0.001921338029205799, -0.02856273017823696, -0.025373080745339394, -0.012530709616839886, -0.004172982648015022, 0.011194136925041676, 0.012320660054683685, -0.022007104009389877, -0.004740301985293627, -0.021418433636426926, 0.0012298591900616884, -0.014753262512385845, 0.02009454369544983, -0.015698537230491638, 0.020451882854104042, 0.022448936477303505, 0.00474855862557888], [0.023015812039375305, 0.026885202154517174, 0.01171636302024126, -0.0006355356308631599, 0.013907470740377903, 0.02045121230185032, -0.006018222775310278, 0.015916164964437485, -0.027428848668932915, 0.010523351840674877, -0.018354617059230804, 0.006228980142623186, 0.013374499045312405, 0.004306592978537083, -0.018315646797418594, 0.013496133498847485, 0.0182773657143116, 0.026601189747452736, -0.008575438521802425, -0.015813620761036873, 0.012186810374259949, -0.02593495137989521, 0.0034031937830150127, 0.013848794624209404, 0.033365633338689804, -0.011761884205043316, 0.004754464142024517, 0.007373808417469263, -0.008145316503942013, -0.0027506083715707064, 0.0015632661525160074, 0.01279101800173521, -0.0152383828535676, -0.012558646500110626, 0.004632888361811638, -0.005980910733342171, 0.00977533683180809, 0.03727197274565697, 0.010500199161469936, -0.015000036917626858], [-0.01084130723029375, 0.014362062327563763, 0.003258537035435438, -0.00683669513091445, 0.0016282646683976054, 0.008515960536897182, -0.006405859719961882, -0.004531937185674906, 0.026361750438809395, 0.0036078866105526686, 0.006015370599925518, 0.020390590652823448, -0.010899794287979603, -0.015495351515710354, -0.01501557882875204, -0.015152699314057827, -0.005597159266471863, -0.022679807618260384, -0.015659010037779808, 0.00852739904075861, 0.011828423477709293, 0.025717301294207573, -0.00849000085145235, 0.0019515546737238765, 0.009564632549881935, -0.005885242950171232, -0.0006212409934960306, -0.02489355392754078, -0.0008920548134483397, 0.015416915528476238, -0.018531983718276024, -0.03337174654006958, -0.00015777054068166763, -0.0043365200981497765, -0.02760174125432968, -0.020059021189808846, -0.034769121557474136, 0.02134472317993641, 0.014817865565419197, 0.010272718966007233], [-0.027543606236577034, -0.011489126831293106, 0.0029247328639030457, -0.012256351299583912, 0.0002486123994458467, 0.024196507409214973, 0.02511785924434662, -0.015324689447879791, 0.0011946270242333412, -0.01130200270563364, 0.0131656089797616, 0.01124549750238657, -0.004355435725301504, -0.019514260813593864, 0.009188495576381683, 0.01312190666794777, -0.0005381717346608639, 0.021255699917674065, 0.012303859926760197, -0.0035186551976948977, -0.009012827649712563, -0.016216497868299484, 0.003489538561552763, -0.013142898678779602, -0.012929066084325314, 0.009954851120710373, 0.006543682422488928, -0.00621902896091342, -0.004187371116131544, -0.00022523636289406568, 0.00429657194763422, -0.0034323364961892366, -0.01525655947625637, -0.023847436532378197, -0.007199292071163654, -0.0016293700318783522, -0.004909975919872522, -0.0021756449714303017, -0.002319471910595894, 0.005481136031448841], [0.025755025446414948, -0.014472256414592266, -0.003364256815984845, 0.0004255050153005868, -0.012057621963322163, 0.01301563996821642, -0.025821182876825333, -0.020118482410907745, 0.01971334032714367, 0.015275915153324604, 0.018436770886182785, 0.016256900504231453, 0.02053202874958515, -0.02041752077639103, 0.004337485879659653, 0.02357926405966282, 0.0022746031172573566, -0.006402747705578804, -0.01109220553189516, -0.027088837698101997, 0.00482531450688839, -0.02412346750497818, 0.02266954630613327, 0.027788842096924782, -0.013350837863981724, 0.0074239992536604404, -0.021446963772177696, 0.0035919970832765102, -0.0007208521128632128, 0.017807472497224808, 0.004182438366115093, 0.008415739051997662, 0.004981799051165581, 0.0018217932665720582, -0.007329597137868404, 0.0031737363897264004, -0.009671099483966827, -0.011647616513073444, -0.004254031926393509, -0.008411622606217861], [0.019419152289628983, 0.012530867010354996, 0.017741715535521507, 0.02643885277211666, 0.015135080553591251, 0.005664255935698748, 0.024068960919976234, -0.008709954097867012, 0.01645246520638466, 0.0031974806915968657, 0.01513148844242096, -0.023684537038207054, -0.007069836370646954, 0.014904419891536236, 0.024410875514149666, -0.021341126412153244, 0.0002225319913122803, 0.004128520842641592, 0.004347491078078747, 0.009795584715902805, -0.008547527715563774, -0.024916037917137146, -0.012006356380879879, -0.010324615053832531, -0.0005861839163117111, 0.010918548330664635, 0.01309234369546175, 0.005780884530395269, 0.011914595030248165, -0.005397574044764042, 0.023888656869530678, 0.021529892459511757, 0.002031086478382349, -0.0046080006286501884, 0.014608828350901604, 0.002403103280812502, 0.005902683828026056, 0.0038731866516172886, 0.003735321806743741, 0.01937960833311081], [-0.003077622503042221, -0.011399950832128525, 0.009308568201959133, -0.02772720903158188, -0.01371095422655344, 0.011813611723482609, 0.009787269867956638, 0.003776902798563242, -0.018359104171395302, -0.014261872507631779, 0.008326733484864235, 0.011527949944138527, 0.0002383105893386528, 0.022632811218500137, 0.016770165413618088, 0.008548115380108356, -0.0002304808731423691, -0.028581801801919937, 0.005156908184289932, -0.00422626780346036, 0.025403739884495735, 0.012702376581728458, -0.018325403332710266, 0.007640402298420668, -0.017444774508476257, 0.013144793920218945, -0.016872748732566833, -0.004974800627678633, 0.009900689125061035, -0.007597066927701235, 0.011679352261126041, 0.005162076558917761, -0.021383171901106834, 0.018291741609573364, -0.002028588205575943, -0.01802114024758339, 0.0220118910074234, -0.003418073058128357, -0.014743054285645485, -0.003406062489375472], [-0.011479455046355724, 0.008224603720009327, -0.0010412856936454773, 0.03670671582221985, 0.004783333279192448, 0.009059013798832893, -0.006673961877822876, -0.019751068204641342, -0.015315246768295765, 0.028940007090568542, -0.007421092130243778, -0.008270679041743279, -0.013106513768434525, -0.0002339859784115106, 0.003608924336731434, 0.0029737239237874746, -0.007934745401144028, -0.008889902383089066, -0.005361582618206739, 0.01964440383017063, 0.0053372979164123535, 0.006580678280442953, 0.002027004025876522, -0.002648893278092146, 0.02916501648724079, 0.01274785865098238, 0.014396960847079754, 0.012807237915694714, 0.03038075380027294, 0.01221925113350153, 0.007591829635202885, 0.0010371219832450151, -0.024563714861869812, 0.018366040661931038, 0.010242747142910957, 0.009214473888278008, 0.0244237519800663, 0.0006021893350407481, 0.006286991760134697, -0.012737615965306759], [0.03100537694990635, -0.02926422841846943, 0.0015385793522000313, -0.03386235237121582, 0.009341330267488956, -0.0012717340141534805, 0.0021070593502372503, -0.0045614722184836864, -0.009160133078694344, -0.007589046377688646, 0.015400609001517296, 0.009684576652944088, 0.00731264241039753, -0.006441115867346525, -0.015464027412235737, -0.012715889140963554, 0.007701499853283167, 0.009173217229545116, -0.005924315191805363, 0.000994097557850182, -0.003324395278468728, -0.0030055176466703415, -0.007805353496223688, -0.008397146128118038, -0.007063466124236584, -0.016100198030471802, -0.01084452960640192, -0.010397499427199364, -0.008667456917464733, -0.0025662737898528576, -0.010014921426773071, 5.5171403801068664e-05, -0.006665223743766546, 0.0151852797716856, -0.007479329127818346, -0.010390736162662506, 0.008459369651973248, 0.009206168353557587, 0.003815246745944023, -0.012174459174275398], [-0.02139429934322834, -0.0029274695552885532, -0.019761893898248672, 0.002893817378208041, -0.03154931589961052, 0.005211378447711468, 0.018342791125178337, -0.02011800743639469, 0.006414865609258413, 0.008073678240180016, 0.029714422300457954, 0.0263680350035429, -0.02144930697977543, 0.0039712488651275635, -0.003939409274607897, -0.012419546954333782, 0.027622150257229805, 0.021897563710808754, 0.030109828338027, 7.46684308978729e-05, 0.010565118864178658, -0.023929255083203316, -0.002254042075946927, 0.010390069335699081, -0.029755188152194023, 4.330088631832041e-05, 0.009472724981606007, -0.02431752346456051, 0.007462057285010815, 0.009870026260614395, -0.0018992366967722774, -0.020232845097780228, 0.0009309521410614252, -0.007433327380567789, 0.0014969846233725548, 0.006900701206177473, 0.004947202745825052, 0.012908409349620342, 0.010938486084342003, 0.002618198748677969], [-0.009668685495853424, 0.013243845663964748, 0.012697909027338028, 0.009415887296199799, 0.005694245919585228, -0.011180591769516468, -0.028269009664654732, -0.018042966723442078, 0.028698625043034554, -0.01809856854379177, -0.012109467759728432, 0.008808420971035957, -0.014534653164446354, 0.00509827071800828, 0.005056482274085283, -0.025109561160206795, 0.02444710209965706, -0.023513471707701683, -0.016957934945821762, -0.003738818224519491, -0.009362300857901573, 0.026785312220454216, -0.006675638724118471, -0.005704925395548344, 0.018076414242386818, 0.011071440763771534, -0.010307453572750092, -0.015061069279909134, 0.026603301987051964, -0.01595834270119667, 0.014376474544405937, -0.007866285741329193, 0.013577314093708992, 0.019009046256542206, -0.013063818216323853, -0.02056869864463806, 0.004766656085848808, -0.007090941537171602, -3.918054062523879e-05, -0.018229300156235695], [0.011050079017877579, 0.014579294249415398, 0.0005702084163203835, 0.007400790229439735, 0.01749715581536293, -0.011506087146699429, 0.0058493828400969505, 0.01603400707244873, 0.01644991524517536, -0.013797784224152565, -0.017586324363946915, -0.01639482192695141, -0.017893532291054726, -0.003254943061619997, 0.006201488897204399, -0.0028382237069308758, 0.009003368206322193, 0.007724067196249962, -0.011658746749162674, 0.004642801359295845, 0.0006190281710587442, -0.008182868361473083, 0.0040421499870717525, -0.013500422239303589, 0.018857449293136597, 0.014041374437510967, 0.011632729321718216, 0.002560937777161598, 0.004342195577919483, -0.0033598041627556086, 0.010163410566747189, 0.007405119016766548, -0.023370487615466118, 0.016497157514095306, -0.009405192919075489, 0.007773027755320072, 0.034136995673179626, -0.00560602406039834, 2.1429717889986932e-05, 0.01635240763425827], [-0.01080870907753706, -0.012258853763341904, 0.0056682429276406765, 0.0062128775753080845, -0.0004231360799167305, -0.019296815618872643, -0.020557476207613945, -0.023661408573389053, -0.011294931173324585, 0.01617427170276642, 0.018937593325972557, 0.0292502548545599, 0.012584992684423923, 0.016300532966852188, 0.02065783552825451, 0.008300730027258396, 0.023093031719326973, -0.016314402222633362, -0.023206286132335663, -0.0321623794734478, 0.0039544799365103245, -0.017118647694587708, -0.0020537441596388817, 0.00941929966211319, 0.016339361667633057, 0.024186477065086365, 0.008969909511506557, 0.021062413230538368, 0.020876778289675713, -0.003659907728433609, 0.0025337000843137503, -0.012973859906196594, 0.013704957440495491, -0.013478463515639305, -0.025483110919594765, -0.01657530665397644, 0.014155533164739609, 0.01957022026181221, 0.014871911145746708, 0.01488962396979332], [0.010243714787065983, 0.0136467469856143, 0.0011136768152937293, 0.005970881320536137, -0.0011349905980750918, -0.011925287544727325, -0.014482320286333561, -0.01772555336356163, 