{"model_state": {"net.0.linear.weight": [[0.014914099127054214, -0.010767684318125248, 0.017917267978191376, 0.009605580940842628, 0.0017482639523223042, -0.007544204592704773, 0.01055523194372654, 0.01850774697959423, -0.01910533383488655, -0.001133155426941812, -0.013915571384131908, -0.0006144312210381031, 0.00213885516859591, 0.015291284769773483, -0.023785658180713654, 0.014324200339615345, 0.011994834989309311, 0.009151816368103027, -0.017718661576509476, -0.0012931379023939371, 0.0019205445423722267, -0.02044103480875492, 0.02789115346968174, -0.011641375720500946, -0.019978290423750877, 0.005471515003591776, -0.010758653283119202, -0.0012139533646404743, 0.014191962778568268, 0.004642454441636801, 1.717867053230293e-05, 0.027453698217868805, -0.011672335676848888, -0.0022601503878831863, 0.026698673143982887, 0.03420634567737579, 0.013647103682160378, -0.0007310922956094146, 0.02477107383310795, 0.014950674027204514], [0.002490013837814331, 0.015557902865111828, 0.02290445938706398, 0.01532465498894453, 0.01479354314506054, 0.00484186876565218, 0.0040701949037611485, -0.018062211573123932, -0.013919783756136894, 0.005868904292583466, 0.00525782210752368, 0.005341694224625826, -0.0032368996180593967, 0.003310197265818715, 0.01592309959232807, -0.013791527599096298, -0.018228815868496895, 0.020651618018746376, 0.01725369691848755, 0.008970880880951881, 0.002313654636964202, -0.014801320619881153, 0.010392294265329838, -0.0019698685500770807, -0.018496371805667877, 0.014391179196536541, -0.024900052696466446, -0.03384559229016304, -0.022926397621631622, -0.00544478464871645, -0.019480407238006592, -0.00584575068205595, -0.019543824717402458, -0.008099441416561604, 0.010471394285559654, 0.017740599811077118, 0.02669157087802887, -0.015060686506330967, -0.02582952193915844, 0.023978939279913902], [0.023591002449393272, -0.022832950577139854, 0.009884064085781574, -0.015505671501159668, -0.007999980822205544, 0.009555205702781677, -0.00017855846090242267, -0.025423426181077957, 0.015059455297887325, 0.0030173638369888067, -0.010415400378406048, 0.015659699216485023, -0.00422887597233057, -0.010757764801383018, 0.027608809992671013, 0.017125993967056274, 0.010176009498536587, -0.00871090404689312, -0.017264164984226227, -0.006936847697943449, -0.02394062466919422, -0.004651878494769335, 0.01169158797711134, 0.010208064690232277, 0.00488571310415864, -0.009467385709285736, -0.01098155602812767, 0.005833662115037441, -0.017129162326455116, -0.016699273139238358, 0.011275957338511944, 0.005873797927051783, 0.006087935529649258, -0.009791402146220207, -0.0014736898010596633, -0.007856368087232113, -0.01707105152308941, 2.979511918965727e-05, -0.003932707943022251, 0.005643037147819996], [0.01942753605544567, 0.025686725974082947, -0.0033963159658014774, -0.010699582286179066, 0.0015539329033344984, 0.007802186533808708, 0.01106382254511118, -0.025235969573259354, -0.0167870931327343, 0.026984473690390587, -0.0040781511925160885, 0.007403919473290443, -0.03047105297446251, -0.007764243055135012, 0.015137332491576672, -0.02115515060722828, -0.014229131862521172, 0.028302371501922607, -0.001957847736775875, -0.0027414518408477306, -0.05393972992897034, 0.005308657884597778, 0.01831989176571369, 0.002745025558397174, -0.010802526026964188, 0.013859447091817856, 0.0013439239701256156, 0.008848852477967739, -0.02550930716097355, -0.005858810152858496, 0.009780296124517918, -0.0007919557392597198, -0.022963428869843483, 0.012002603150904179, -0.011574365198612213, 0.0104740085080266, -0.04305985942482948, -0.013041626662015915, 0.013870341703295708, 0.001971371239051223], [-0.013701298274099827, -0.017085859552025795, 0.020129384472966194, -0.008199848234653473, -0.01961744949221611, 0.012407067231833935, 0.027281347662210464, 0.018500447273254395, 0.01158649567514658, -0.018480075523257256, 0.030475128442049026, 0.019879743456840515, 0.002815631218254566, -0.006995256990194321, 0.010088849812746048, 0.022518251091241837, 0.012228073552250862, 0.004510258324444294, -0.019458329305052757, 0.016148215159773827, -0.018428387120366096, -0.02169518731534481, 0.008636369369924068, -0.012939793057739735, 0.0012815245427191257, -0.0040488955564796925, -0.027135390788316727, 0.016182946041226387, 0.0017038683872669935, 0.006865736562758684, -0.0031471168622374535, 0.00030836620135232806, 0.016099045053124428, -0.00878150574862957, -0.010111240670084953, -0.007536707911640406, -0.0057999794371426105, -0.01922827959060669, 0.0196921918541193, 0.0062743183225393295], [0.015665283426642418, 0.01578502543270588, 0.014581781812012196, -0.018088120967149734, -0.004760460462421179, 0.036301061511039734, -2.0400506400619633e-05, -0.007297242525964975, -0.027062522247433662, 0.0027626221999526024, 0.023344455286860466, 0.012634851969778538, -0.016227059066295624, 0.0037632950115948915, 0.014010301791131496, -0.013714983128011227, -0.005279421340674162, 0.005786048248410225, 0.0011572801740840077, 0.008988307788968086, 0.007018793374300003, -0.011947300285100937, -0.01546274684369564, -0.003104143077507615, 0.014506607316434383, -0.01580355502665043, -0.015102477744221687, -0.0010438706958666444, 0.004918845370411873, 0.0013279556296765804, -0.0014073014026507735, 0.004567129071801901, -0.01825752668082714, 0.0074301837012171745, 0.003993253223598003, 1.3603605111711659e-05, -0.032651957124471664, 0.009888610802590847, -0.014080138877034187, 0.0026845417451113462], [-0.028600089251995087, 0.007661751937121153, -0.00317558366805315, -0.010434352792799473, -0.003612397238612175, -0.011186176910996437, 0.0012984269997105002, 0.003415922401472926, 0.02394135668873787, -0.02455749735236168, 0.0024988935329020023, -0.0027037381660193205, 0.022382404655218124, 0.014832193963229656, -0.007622843608260155, -0.013246104121208191, -0.013075882568955421, -0.004542936105281115, 0.002432445529848337, 0.009535836055874825, 0.03566448763012886, -0.03168850019574165, 0.005736221093684435, -0.01680033467710018, 0.014742341823875904, -0.012854312546551228, -0.005727424286305904, 0.0008859196677803993, 0.0059388442896306515, -0.019591759890317917, -0.010730781592428684, 0.012002287432551384, 0.028349941596388817, -0.001484965905547142, 0.010949178598821163, 0.007863197475671768, 0.04136445373296738, 0.013867242261767387, -0.0008677266887389123, -0.011577703058719635], [-0.025255514308810234, 0.0032137734815478325, -0.0010884320363402367, -0.007985266856849194, 0.009455081075429916, -0.02354446053504944, -0.025369100272655487, -0.0031062792986631393, -0.013069291599094868, -0.00666313711553812, 0.010928716510534286, 0.008236865513026714, 0.018544284626841545, -0.015313505195081234, -0.016553914174437523, 0.0094378013163805, 0.024503279477357864, -0.020122841000556946, 0.030833661556243896, 0.00221005966886878, -0.004431573208421469, -0.030509406700730324, -0.014876289293169975, -0.0071761999279260635, 0.03117860108613968, -0.013175860047340393, 0.013407737948000431, 0.011314433068037033, -0.013865928165614605, -0.012451723217964172, -0.024208946153521538, -0.0319981649518013, -0.00281647895462811, -0.00124831753782928, 0.005742514505982399, 0.02513282373547554, 0.0008939764811657369, 0.009511931799352169, -0.02285240776836872, 0.011244939640164375], [-0.016903240233659744, -0.008608386851847172, -0.010212661698460579, -0.016518229618668556, 0.018864989280700684, 0.007658673916012049, 0.021774694323539734, -0.0080571873113513, -0.007940923795104027, 0.0026630826760083437, -0.02290276251733303, 0.01470892783254385, 0.00997982919216156, -0.005109087098389864, 0.010136734694242477, 0.020831510424613953, 0.00021853327052667737, 0.012250548228621483, -0.005475401878356934, -0.009230916388332844, 0.011731859296560287, -0.005403583403676748, -0.013590489514172077, 0.009100060909986496, 0.009034343995153904, -0.0015467220218852162, 0.003375591244548559, 0.0035712977405637503, -0.015544645488262177, 0.010674632154405117, -0.01999538391828537, 0.0015634066658094525, 0.0005958217079751194, 0.00324684358201921, 0.0038080671802163124, -0.01062342431396246, -0.0034834910184144974, 0.0048741865903139114, -0.0038804395589977503, -0.016449682414531708], [0.014990097843110561, -0.009316517040133476, 0.022759364917874336, -0.006673285271972418, 0.021505082026124, 0.012397054582834244, 0.013530006632208824, 0.016994114965200424, 0.006027672439813614, 0.021687133237719536, -0.010550231672823429, -0.002258282620459795, 0.01602860912680626, -0.0038027737755328417, 0.0020333097781986, -0.010503471828997135, 0.02208862267434597, 0.005294251721352339, -0.01811673305928707, 0.011086489073932171, 0.023447947576642036, 0.01915140263736248, -0.0049406313337385654, 0.009891066700220108, 0.02620724029839039, 0.008380013518035412, 0.003521869657561183, 0.022310834378004074, 0.022091103717684746, 0.008250312879681587, 7.342195021919906e-05, 0.019468551501631737, 0.005557300988584757, 0.009147144854068756, 0.006115347612649202, -0.00884944200515747, 0.01942463032901287, 0.0016320972936227918, 0.015956368297338486, -0.008800841867923737], [0.0033722897060215473, -0.0017558899708092213, 0.028008947148919106, -0.0013234817888587713, 0.0009271292947232723, -0.01615838333964348, 0.01345282606780529, 0.004611840005964041, 0.006802708376199007, -0.026730483397841454, 0.024900909513235092, 0.005070131737738848, 0.004207714926451445, 0.03468063101172447, 0.03251000493764877, 0.0022482022177428007, 0.02089596539735794, 0.018989380449056625, 0.01161131076514721, 0.0034314889926463366, 0.011060203425586224, -0.018613463267683983, -0.018123598769307137, 0.007407177705317736, 0.0014540862757712603, 0.01906469278037548, -0.008957238867878914, -0.027470368891954422, -0.004905257374048233, 0.006283842027187347, -6.662960367975757e-05, -0.021894315257668495, -0.007623970042914152, -0.02307792939245701, 0.004878037143498659, -0.005371644627302885, 0.00780416838824749, 0.012006845325231552, -0.012199421413242817, 0.014180846512317657], [0.0034617637284100056, -0.00907489750534296, 0.012783554382622242, -0.024841824546456337, -0.011409488506615162, -0.0030618873424828053, 0.021929940208792686, 0.015230458229780197, 0.0033208983950316906, 0.011331425048410892, -0.02289840765297413, -0.018004585057497025, 0.030258720740675926, 0.010860433802008629, -0.008338842540979385, -0.0008352049626410007, 0.0030771365854889154, -0.01998143643140793, 0.01359480619430542, 0.01384462509304285, -0.011624716222286224, -0.0018787243170663714, -0.009563792496919632, 0.0003968201344832778, -0.0017778852488845587, -0.0018921943847090006, -0.010226819664239883, -0.018854161724448204, -0.0018817231757566333, 0.010319152846932411, 0.02800283208489418, -0.017517855390906334, 0.0033498150296509266, -0.01598062366247177, -0.009053227491676807, 0.013961113058030605, -0.007855148054659367, -0.005441984161734581, 0.010475635528564453, 0.005406636744737625], [0.016099609434604645, 0.012818212620913982, -0.010231616906821728, 0.02341574989259243, -0.00785018876194954, -0.010625718161463737, -0.008932354860007763, 0.0049787359312176704, -0.0214004535228014, -0.0034007877111434937, -0.003911562263965607, -0.0002984067832585424, -0.008984111249446869, 0.0186663456261158, -0.0018647366669028997, -0.010657372884452343, -0.007633145432919264, -0.0033913967199623585, 0.01216544397175312, -0.012466125190258026, -0.014918085187673569, 0.015046082437038422, 0.013448283076286316, -0.005310490261763334, -0.035608865320682526, 0.02152961865067482, 0.019720815122127533, 0.004985062871128321, -0.017124205827713013, -0.01740168407559395, 0.006025652401149273, 0.01272247638553381, -0.0069464161060750484, -0.01606612652540207, 0.007931477390229702, -0.006401452701538801, -0.02022869512438774, 0.0012874961830675602, -0.004377024248242378, -0.008154155686497688], [0.0021968644578009844, -0.0021584664937108755, -0.007814553566277027, 0.02229633368551731, 0.011949492618441582, 0.010802195407450199, -0.02292451448738575, -0.013616623356938362, -0.01865091361105442, 0.003992260433733463, -0.011024245992302895, 0.023964228108525276, -0.004966792184859514, 0.016039958223700523, 0.009827595204114914, -0.030131788924336433, -0.014595402404665947, -0.01635347679257393, -0.002270633587613702, -0.016865791752934456, 0.013167692348361015, 0.0036976817063987255, 0.03018888272345066, -0.009848861955106258, -0.009124676696956158, 0.0030602707993239164, 0.02961549535393715, -0.010166066698729992, 0.016649609431624413, 0.015039822086691856, -0.010889322496950626, 0.017669571563601494, 0.001106860931031406, 0.013582281768321991, 0.0011592017253860831, -0.005295804236084223, 0.009267834946513176, -0.0053484681993722916, -0.02656753547489643, -0.02520059421658516], [0.01588599570095539, 0.016568494960665703, -0.01932203769683838, -0.020255547016859055, 0.006815834902226925, -0.007869157940149307, -0.004765364807099104, 0.014361931942403316, -0.0075254663825035095, 0.018746748566627502, -0.0057474831119179726, -0.014392256736755371, -0.016880664974451065, 0.022992288693785667, -0.017371729016304016, 0.030162299051880836, -0.003479904728010297, -0.00132878334261477, 0.004027162212878466, 0.03645067662000656, 0.003136519342660904, -0.0021131725516170263, -0.0053020622581243515, -0.01527114026248455, 0.006325254682451487, 0.004314112011343241, 0.014892135746777058, 0.004157863557338715, 0.009555336087942123, 0.0028516040183603764, 0.016788002103567123, -0.0045866938307881355, 0.017149053514003754, 0.010105821304023266, 0.009133659303188324, -0.011631655506789684, -0.008167998865246773, -0.006081326864659786, 0.0216244887560606, 0.0006842919392511249], [0.005188159178942442, -0.013407127931714058, 0.014988278038799763, 0.02202734909951687, -0.0231707151979208, 0.0067691495642066, 0.01668712869286537, 0.022483669221401215, 0.018224172294139862, 0.006540929898619652, 0.00946503970772028, -0.03228074684739113, -0.0021493318490684032, -0.015361305326223373, 0.000950439425650984, 0.02737584337592125, -0.006727651692926884, 0.019030435010790825, 0.018924977630376816, -0.009971922263503075, 0.017791718244552612, 0.00010000473412219435, -0.0006119200261309743, -0.014083750545978546, -0.01816082000732422, 0.002911476418375969, -0.01630147360265255, -0.012497719377279282, 0.0019915124867111444, 0.008752868510782719, -0.013376965187489986, 0.01808798313140869, 0.0016953943995758891, -0.010510405525565147, -0.006332427728921175, 0.02050480991601944, -0.0058656781911849976, 0.002825555158779025, 0.009329741820693016, -0.018566759303212166], [0.00910024344921112, -0.021421287208795547, 0.009759956039488316, -0.01120045967400074, -0.022201990708708763, 0.008248086087405682, 0.0035272324457764626, 0.0021413294598460197, 0.0012252096785232425, -0.026476198807358742, -0.015632279217243195, -0.005593334790319204, 0.0236459169536829, -0.02353724092245102, -0.014734955504536629, 0.018562085926532745, -0.019203968346118927, 0.013309609144926071, 0.004973571747541428, 0.014718260616064072, -0.025873644277453423, -0.004098951350897551, 0.0174374021589756, -0.022766506299376488, 0.012918254360556602, 0.003222705563530326, 0.017552681267261505, -0.02525748312473297, -0.007527952082455158, 0.02198370173573494, -0.03350316733121872, -0.024020763114094734, -0.02537868171930313, -0.012982509098947048, 0.002529366407543421, 0.01645444519817829, 0.012882762588560581, -0.009878571145236492, -0.012875305488705635, 0.02201813831925392], [0.019924335181713104, 0.011855538934469223, -0.014705020003020763, -0.010639859363436699, 0.010693405754864216, -0.013554936274886131, -0.009308840148150921, -0.020389113575220108, -0.025140775367617607, 0.0031833474058657885, -0.013710697181522846, -0.0052789668552577496, -0.013292579911649227, 0.01854541152715683, -0.021654091775417328, 0.00992676429450512, 0.007240452338010073, 0.006342884618788958, -0.018544673919677734, 0.002392915077507496, -0.0030661786440759897, -0.017156189307570457, -0.0049233282916247845, -0.004754876717925072, -0.009044953621923923, -0.019575605168938637, 0.023090923205018044, -0.020931290462613106, -0.010489333420991898, -0.004317453131079674, -0.011447628028690815, 0.020547492429614067, -0.0032556361984461546, -0.017198722809553146, -0.02397964335978031, 0.0059921941719949245, 0.009881873615086079, -0.02891676500439644, -0.0017596491379663348, 0.016426311805844307], [-0.0014703586930409074, -0.01616930589079857, 0.009034358896315098, -0.013082712888717651, 0.010156764648854733, 0.006677179131656885, 0.007610755506902933, 0.0014470570022240281, -0.013758774846792221, 0.016363663598895073, 0.01090376079082489, 0.015443882904946804, 0.014549626968801022, -0.01745688170194626, 0.009249669499695301, 0.01848524808883667, -0.00493929348886013, 0.01383138820528984, 0.004397055599838495, -0.003603351069614291, 0.014390538446605206, -0.008559934794902802, 0.014283040538430214, -0.017197171226143837, 0.006029943004250526, 0.024643750861287117, 0.008889465592801571, -0.011143776588141918, -0.027945127338171005, 0.02812119945883751, 0.005495721008628607, 0.018100617453455925, -0.023602429777383804, 0.009387878701090813, 0.010081030428409576, 0.0003999590699095279, -0.015291444025933743, -0.02683309279382229, 0.014520738273859024, -0.00036534990067593753], [-0.01333562284708023, -0.028020653873682022, 0.006141645833849907, -0.03771405294537544, -0.024956805631518364, 0.01739615947008133, 0.008650608360767365, -0.005554236471652985, 0.0045956275425851345, -0.008967174217104912, -0.008640788495540619, 0.030196413397789, -0.025134872645139694, 0.001293811248615384, -0.002444015583023429, -0.005448341369628906, -0.010361175052821636, 0.016890887171030045, 0.0037126510869711637, -0.02064495161175728, -0.026653483510017395, -0.02552422136068344, -0.009358673356473446, 0.004876638296991587, 0.01676671952009201, 0.008075274527072906, 0.0025636660866439342, 0.01600251905620098, -0.015448528341948986, 0.02995566837489605, -0.002306797541677952, -0.014848614111542702, -0.02771676331758499, 0.008341814391314983, 0.011503462679684162, 0.02492736466228962, 0.0016753332456573844, -0.027245931327342987, -0.003186708316206932, -0.0006095651770010591], [0.0017626202898100019, 0.016420064494013786, 0.011247608810663223, 0.015447200275957584, -0.013161265291273594, -0.007630069740116596, 0.015533736906945705, 0.01135960966348648, 0.014405681751668453, -0.00384269910864532, 0.03195000812411308, -0.009650814346969128, 0.0004358872538432479, -0.006712188478559256, -0.007515203673392534, 0.002149187959730625, -0.017094185575842857, 0.018404031172394753, 0.014486962929368019, 0.02408701926469803, 0.01251228153705597, 0.011128636077046394, -0.01832367479801178, -0.013899216428399086, 0.01074796449393034, 0.01525779627263546, -0.015068650245666504, 0.015570586547255516, -0.029920483008027077, 0.013648971915245056, -0.006955998949706554, -0.009621461853384972, -0.016838623210787773, -0.0224250890314579, -0.0036718416959047318, 0.01013677753508091, -0.006241953000426292, -0.009720972739160061, 0.016062557697296143, 0.009949436411261559], [0.016756387427449226, -0.016178397461771965, 0.020016580820083618, 0.0042099179700016975, 0.012092589400708675, 0.010932118631899357, -0.00990698579698801, 0.020126985386013985, 0.006289329379796982, 0.0010944175301119685, -0.014144808053970337, 0.010418056510388851, -0.008434830233454704, 0.01358447689563036, 0.02060740999877453, 0.01867041364312172, -0.0026499354280531406, -0.014886971563100815, -0.01750096119940281, -0.008042801171541214, 0.005688638426363468, 0.023434286937117577, 0.026868509128689766, 0.008440000005066395, -0.011172797530889511, -0.03421933576464653, 0.015328067354857922, 0.0018227769760414958, -0.017370296642184258, 0.016819924116134644, 0.02271203137934208, 0.0006713669281452894, -0.0104117626324296, -0.012338626198470592, 0.01150462031364441, -0.0020538324024528265, 0.005608196835964918, 0.030934305861592293, 0.04599858820438385, 0.011513037607073784], [0.0024040474090725183, -0.0018202647333964705, 0.003738968400284648, -0.003751825774088502, 0.0005627264035865664, 0.017133887857198715, -0.0007122905808500946, -0.008159542456269264, 0.02574205957353115, -0.017311707139015198, -0.011768681928515434, -0.010600081644952297, -0.034612178802490234, -0.004663690458983183, 0.017424872145056725, 0.007818402722477913, -0.00208301586098969, 0.01867925375699997, 0.005066355224698782, -0.00039956977707333863, 0.022252928465604782, -0.013099206611514091, -0.008819375187158585, 0.010871035978198051, -0.022214487195014954, -0.01227075606584549, 0.014794604852795601, -0.009817689657211304, 0.02699415758252144, -0.01611868478357792, -0.017169693484902382, 0.007207452319562435, -0.024223826825618744, -0.0001939319190569222, 0.0046069081872701645, -0.006630952935665846, -0.001162888016551733, -0.006714354269206524, 0.005374283995479345, 0.015362431295216084], [0.015024177730083466, -0.010005601681768894, 0.005633076187223196, -0.02273029275238514, 0.018511341884732246, 0.009387258440256119, 0.00933101773262024, -0.016398532316088676, -0.010185560211539268, 0.01818252168595791, -0.006963262800127268, 0.014646944589912891, -0.015167279168963432, 0.015110190957784653, -0.012056590989232063, 0.0015271514421328902, 0.014592430554330349, 0.00303665385581553, 0.0035482472740113735, -0.013613065704703331, 0.01165900006890297, 0.01156565360724926, -0.008258020505309105, 0.0006758956587873399, 0.006415471434593201, 0.00439113425090909, 0.010548894293606281, -0.0055312421172857285, -0.021311426535248756, 0.01756931096315384, 0.0120761189609766, -0.01175670512020588, 0.016713857650756836, 0.006566195283085108, 0.006750836037099361, -0.0012253433233126998, 0.01921733468770981, -0.0022225226275622845, 0.0083138607442379, 0.001104468130506575], [0.02791612409055233, -0.016058452427387238, 0.004537335131317377, 0.0055010877549648285, 0.0034816155675798655, 0.018316905945539474, 0.02119949832558632, -0.010672269389033318, -0.013402216136455536, -0.006810659542679787, -0.019336579367518425, 0.011652720160782337, 0.0023339074105024338, -0.009793583303689957, 0.0158997755497694, -0.012486121617257595, -0.0016690322663635015, -0.012163299135863781, -0.008992009796202183, -0.008225047960877419, -0.015161481685936451, -0.029242336750030518, 0.003949377685785294, -0.015218137763440609, -0.015142731368541718, 0.0011819690698757768, 0.019944703206419945, 0.022488290444016457, 0.004083377309143543, 0.006534361746162176, -0.014935694634914398, 0.024649662896990776, -0.00037310263724066317, -0.016722962260246277, -0.011127057485282421, -0.007410177029669285, 0.005307243671268225, -0.0012285204138606787, 0.043290119618177414, -0.023214904591441154], [-0.011360589414834976, -0.03278515487909317, -0.019686246290802956, -0.010870706290006638, -0.006347961258143187, 0.01815057173371315, -0.002532340819016099, 0.018207993358373642, 0.0036957000847905874, 0.001695181243121624, -0.024107465520501137, 0.00835849717259407, 0.005910526495426893, -0.017528964206576347, -0.01547518465667963, 0.022181501612067223, -0.004818453919142485, 0.0191129669547081, 0.03014267608523369, -0.003531381022185087, -0.012786603532731533, 0.01601991429924965, 0.021325137466192245, 0.016735749319195747, -0.002776325913146138, 0.013791547156870365, 0.01064971275627613, 0.02330981381237507, -0.012309490703046322, -0.011614513583481312, 0.0007715369574725628, 0.02702571265399456, 0.020412225276231766, 0.017450377345085144, -0.026065843179821968, -0.009379989467561245, -0.03293394297361374, -0.008303720504045486, -0.036905840039253235, -0.007568996399641037], [-0.011996216140687466, 0.010723229497671127, -0.016462363302707672, 0.008775010704994202, -0.008854782208800316, 0.006461482960730791, -0.025762321427464485, 0.005933581385761499, -0.015583060681819916, 0.020153583958745003, -0.007759207859635353, -0.02580002136528492, 0.004201429896056652, 0.014107546769082546, 0.0083018708974123, -0.0024181040935218334, -0.024095812812447548, 0.009272594004869461, 0.03221696615219116, 0.006112753879278898, -0.013981220312416553, 0.021199828013777733, -0.02693500556051731, 0.015596498735249043, 0.007025793194770813, -0.008383923210203648, -0.0028356346301734447, -0.030640311539173126, -0.0327371209859848, -0.012991242110729218, 0.025610042735934258, 0.008779357187449932, -0.02545378915965557, 0.017761332914233208, 0.01993192359805107, 0.0013729316415265203, -0.01538008451461792, 0.018378056585788727, -0.030782166868448257, 0.0007025536033324897], [-0.01877088099718094, 0.010632685385644436, -0.0015101612079888582, 0.02572108432650566, -0.005703249014914036, 0.013764516450464725, 0.007908654399216175, 0.009545606561005116, -0.01150873675942421, -0.009165016002953053, -0.015756739303469658, -0.013477033004164696, -0.016645090654492378, 0.01381797343492508, -0.006224930286407471, 0.0001028938713716343, 0.0062833321280777454, -0.008422398939728737, 0.009061139076948166, -0.0052844756282866, 0.025293752551078796, -0.00357969943434, 0.010853246785700321, -0.002011497737839818, 0.023116227239370346, -0.02549518086016178, -0.012644866481423378, -0.020394589751958847, -0.0034322773572057486, 0.016238834708929062, 0.013890333473682404, 0.009193899109959602, 0.013653154484927654, 0.023268457502126694, -0.011418244801461697, 0.003550310153514147, 0.018178828060626984, 0.020533611997961998, 0.00016474846052005887, 0.0029974624048918486], [-0.021291537210345268, 0.014471489936113358, 0.007069082465022802, 0.007316543720662594, -0.0018697503255680203, 0.02148646116256714, -0.028718460351228714, -0.036414340138435364, -0.016420645639300346, -0.006796565372496843, -0.006022805813699961, -0.0012644812231883407, 0.012408078648149967, 0.010051046498119831, -0.008365417830646038, 0.02353622391819954, -0.010721825994551182, -0.023923197761178017, 0.02464906871318817, -0.01217332761734724, -0.011215564794838428, 0.007738565560430288, 0.006455868948251009, -0.014769873581826687, -0.021263487637043, 0.0012962628388777375, 0.010121140629053116, 0.02349955029785633, -0.001991924596950412, 0.007500031962990761, 0.023240303620696068, -0.024646833539009094, 0.014384490437805653, -0.0018209253903478384, 0.00040179523057304323, -0.015232033096253872, -0.00867481529712677, 0.00742395780980587, 0.0015817369567230344, 0.012629881501197815], [-0.01415236759930849, -0.012466366402804852, 0.005969718564301729, 0.027000240981578827, -0.013626163825392723, -0.009947371669113636, -0.016349123790860176, -0.011739811860024929, 0.002017034450545907, 0.009989372454583645, 0.004749535582959652, 0.010267185978591442, 0.005041580181568861, -0.015571104362607002, -0.00667776120826602, -0.005040336400270462, -0.014896083623170853, -0.019830739125609398, -0.0013621468096971512, -0.007980767637491226, -0.026467112824320793, -0.015612248331308365, 0.0005159408319741488, 0.01720108464360237, -0.016215085983276367, 0.02086586318910122, 0.00956736970692873, -0.008131356909871101, -0.0075865937396883965, -0.010431363247334957, -0.0011939548421651125, -0.013846419751644135, -0.02978213131427765, 0.013416643254458904, -0.00192430114839226, 0.014761426486074924, -0.019714878872036934, 0.011395545676350594, 0.009485992603003979, -0.007365784607827663], [0.01899242028594017, -0.004567759111523628, 2.5101973733399063e-05, -0.02087784744799137, -0.022130925208330154, 0.016611121594905853, 0.009711346589028835, 0.0017421278171241283, 0.02733146771788597, -0.020733555778861046, -0.01587500236928463, 0.008900647051632404, 0.03698762506246567, 0.011071298271417618, 0.02428318001329899, 0.010624013841152191, 0.0006880960427224636, 0.03279406949877739, -0.028411706909537315, -0.024851810187101364, 0.03157559037208557, 0.03005729615688324, 0.016300298273563385, 0.004086226224899292, -0.011518062092363834, -0.02489233948290348, -0.006952688563615084, 0.015940619632601738, 0.012373019009828568, -0.021786056458950043, 0.0056571573950350285, -0.023538408800959587, -0.01784546487033367, -0.012704504653811455, -0.012977858074009418, 0.007197665516287088, 0.035973940044641495, -0.026362188160419464, 0.00963932927697897, 0.0077565982937812805], [0.019359884783625603, 0.011729197576642036, -0.02535165660083294, -0.018625669181346893, -0.01673484593629837, -0.01399507187306881, -0.007371364161372185, 0.00010631112672854215, 0.025595715269446373, 0.003705461509525776, 0.01618075557053089, 0.009230273775756359, 0.012430103495717049, 0.017533589154481888, 0.011384936049580574, -0.01959937997162342, -0.013806167989969254, -0.03018105775117874, -0.010523841716349125, -0.0026171323843300343, 0.01082620956003666, -0.009789632633328438, -0.03158127889037132, 0.008940120227634907, -0.0035835006274282932, 0.0008147107437252998, 0.013371486216783524, -0.013881560415029526, 0.010390582494437695, 0.003329985309392214, -0.01111436728388071, -0.016757488250732422, 0.0322275273501873, 0.004795827902853489, 0.001275028451345861, -0.02171947993338108, -0.010914762504398823, -0.01913384720683098, -0.018341900780797005, -0.0286273006349802], [-0.017853325232863426, 0.0061080120503902435, -0.02322438172996044, 0.014096535742282867, 0.01328954566270113, 0.0033747542183846235, 0.012630191631615162, -0.00162058649584651, 0.010976037941873074, -0.013883807696402073, 0.009073248133063316, -0.02439279295504093, -0.007678324356675148, -0.027433542534708977, -0.028788601979613304, -0.004845731426030397, -0.03749643638730049, -0.002625836757943034, 0.010115106590092182, 0.020394181832671165, 0.0013060950441285968, 0.01356157660484314, 0.0090310825034976, -0.003106956137344241, -0.004389159847050905, 0.007267582230269909, 0.011704747565090656, -0.012770646251738071, -0.0013554426841437817, -0.001685796887613833, -0.021700432524085045, -0.0010781270684674382, -0.015587902627885342, 0.013149956241250038, -0.017953336238861084, 0.0009605776285752654, 0.007467800751328468, 0.000517285312525928, 0.029318982735276222, -0.010260161012411118], [-0.023043014109134674, 0.022580699995160103, 0.023716215044260025, 0.007144485600292683, 0.006045869551599026, -0.026650870218873024, 0.01224338635802269, 0.02090836875140667, -0.013507446274161339, 0.016025112941861153, 0.020479997619986534, 0.003766304114833474, -0.0011089753825217485, -0.014335555024445057, 0.011823327280580997, -0.014867359772324562, -0.005940420087426901, 0.014787917956709862, -0.0025541498325765133, -0.010336343199014664, -0.00653808144852519, 0.0027870212215930223, -0.0027791731990873814, 0.015681279823184013, 0.01779690943658352, 0.0072784945368766785, -0.003037008224055171, 0.023191282525658607, 0.020210498943924904, 0.0020449873991310596, -0.011531224474310875, 0.010622981935739517, -0.00217823451384902, 0.00047968135913833976, 0.006386782508343458, -0.012108614668250084, -0.001767815905623138, 0.00747670279815793, -0.02067815139889717, 0.012632472440600395], [-0.0021706586703658104, -0.03536823019385338, -0.017137376591563225, 8.90977680683136e-05, 0.013112805783748627, 0.010171798057854176, -0.014068106189370155, -0.030872540548443794, -0.01383474562317133, -0.009106213226914406, -0.014209247194230556, 0.005691634025424719, 0.008771750144660473, -0.014617466367781162, -0.01082743052393198, 0.01735057309269905, -0.017421474680304527, 0.008383669890463352, -0.029703432694077492, -0.008886606432497501, 0.002680991543456912, -0.016128743067383766, 0.0002800842048600316, -0.02458111010491848, -0.017752619460225105, 0.001947155105881393, -0.008099344559013844, 0.028533848002552986, 0.00597662478685379, 0.0018256017938256264, 0.008919425308704376, -0.004795295186340809, -0.019853217527270317, -0.01858452521264553, 0.019560743123292923, -0.03816310316324234, -0.007905797101557255, 0.0213894285261631, -0.01830267906188965, 0.001623228075914085], [-0.01239099446684122, -0.012635501101613045, 0.005688176490366459, 0.002681431593373418, 0.000547754461877048, -0.00900054071098566, 0.012533670291304588, -0.011695313267409801, -0.008479315787553787, -0.011171885766088963, 0.00973771046847105, -0.007874990813434124, 0.008515161462128162, 0.0023055681958794594, 0.011211506091058254, -0.0013224194990471005, 0.02171866036951542, 0.012143556028604507, -0.013614549301564693, 0.018101302906870842, 0.02145441249012947, 0.00011300267942715436, -0.017153752967715263, 0.015999939292669296, -0.0076226480305194855, -0.014645034447312355, -0.01900816150009632, 0.006917182821780443, 0.025110896676778793, 0.0012629490811377764, -0.010528371669352055, 0.005341503769159317, 0.02280518040060997, 0.013691991567611694, -0.01736343838274479, -0.021692495793104172, 0.003225159365683794, 0.00549420015886426, 0.021920476108789444, 0.012751982547342777], [0.022457454353570938, -0.03306273743510246, -0.004116137512028217, -0.0024971324019134045, -0.03449913114309311, -0.01734524965286255, 0.011080751195549965, 0.019492074847221375, -0.0016111363656818867, -0.005102850496768951, 0.026193905621767044, 0.008576731197535992, 0.011626198887825012, -0.009597294963896275, 0.013181401416659355, -0.0008529717451892793, -0.009356116876006126, 0.008209857158362865, 0.003353770822286606, 0.025129085406661034, 0.008975828066468239, -0.015023286454379559, -0.013273321092128754, -0.011382605880498886, 0.012490056455135345, 0.005480277817696333, -0.003774047829210758, 0.004537744447588921, -0.017249349504709244, -0.01475522294640541, -0.009313619695603848, 0.000817680440377444, 0.0051357559859752655, 0.023470763117074966, 0.01064497884362936, 0.006049506366252899, -0.007154808379709721, -0.004775162786245346, -0.00862414576113224, 0.013387858867645264], [-0.00035067068529315293, 0.023202694952487946, -0.012653063982725143, -0.02800114080309868, 0.021879618987441063, -0.010496684350073338, 0.01410538237541914, -0.0014078414533287287, -0.004619214218109846, 0.00914717372506857, -0.01004436518996954, -0.0016848421655595303, 0.028859617188572884, 0.020425070077180862, 0.006121187005192041, -0.0066248225048184395, 0.028250090777873993, -0.0009820970008149743, 0.006640807259827852, -0.01071812491863966, 0.011305014602839947, -0.015967974439263344, 0.009050073102116585, 0.0036730056162923574, -0.00930362194776535, 0.006320476531982422, -0.007857558317482471, 0.004712920635938644, 0.014176744036376476, 0.005688835401087999, 0.009487769566476345, -0.002241587033495307, -0.0047294339165091515, -0.0010407742811366916, -0.02580781653523445, -0.0010887999087572098, 0.009982001036405563, 0.019264979287981987, 0.015177343972027302, 0.009919864125549793], [0.008669104427099228, 0.015153251588344574, 0.01520986296236515, 0.008896403945982456, 0.027805909514427185, 0.02976834401488304, 0.01579364389181137, 0.004093929659575224, -0.014158053323626518, 0.0404677651822567, -0.009031766094267368, 0.028117068111896515, 0.014084101654589176, -0.021138839423656464, 0.01057165302336216, -0.011182740330696106, -0.02355862222611904, 0.02518053725361824, -0.014904342591762543, -0.016810839995741844, -0.0050363605841994286, 0.002432379638776183, -0.0021800037939101458, -0.004236848093569279, 0.005533349700272083, 0.006575911305844784, -0.007439861539751291, -0.006396483164280653, 0.001995585160329938, 0.011263242922723293, 0.003994678612798452, 0.00863247737288475, -0.010804207064211369, -0.018169648945331573, -0.00884397141635418, -0.025713158771395683, 0.012666438706219196, 0.0014305093791335821, 0.01639433577656746, 0.01541237160563469], [0.009703505784273148, 0.01093817688524723, 0.018185747787356377, -0.005493721924722195, -0.010647105053067207, -0.012278756126761436, 0.014362682588398457, 0.00850484985858202, 0.001033226726576686, -0.012167480774223804, -0.014889826066792011, 0.02604815363883972, 0.006432827562093735, -0.01577492617070675, -0.02029872126877308, -0.005911138374358416, 0.013707336038351059, 0.01825585775077343, -0.01845134049654007, 0.013432670384645462, 0.008155062794685364, -0.0063806078396737576, -0.0006104667554609478, 0.007788163144141436, 0.008604349568486214, -0.014093544334173203, 0.024035077542066574, 0.009384877048432827, 0.003506131237372756, 0.038979422301054, 0.022177964448928833, 0.003699689405038953, -0.02200106717646122, -0.01713051088154316, 0.019948650151491165, 0.008662721142172813, -0.009206937626004219, -0.0009734188788570464, -0.0033379916567355394, 0.02259993553161621], [0.0031766691245138645, -0.008248325437307358, -0.02638266421854496, 0.003074469044804573, 0.002335748402401805, -0.022871436551213264, -0.028367286548018456, -0.022069357335567474, 0.020498650148510933, -0.011411814019083977, 0.022789712995290756, 0.013918082229793072, 0.021344413980841637, 0.008949002251029015, -0.021440165117383003, 0.017661867663264275, 0.007054180838167667, -0.006651195231825113, 0.0020602664444595575, 0.015764109790325165, -0.027713673189282417, 0.0034253024496138096, -0.021094707772135735, -0.020490078255534172, -0.0004430267435964197, 0.017123572528362274, 0.010290120728313923, -0.027066580951213837, -0.010017428547143936, 0.025898391380906105, -0.006310444325208664, 0.029842108488082886, 0.006768008694052696, -0.028830988332629204, 0.02745198644697666, 0.014891387894749641, 0.009624358266592026, 0.007598925847560167, -0.011611301451921463, 0.0013443472562357783], [-0.0035080513916909695, 0.0210696030408144, -0.014732705429196358, 0.0035270201042294502, -0.021211814135313034, -0.010783111676573753, -0.0025387383066117764, -0.01470810454338789, -0.011502387002110481, 0.0024463417939841747, -0.001905408687889576, 0.030346103012561798, 0.0063135381788015366, 0.005544869229197502, -0.013420911505818367, 0.01842305436730385, 0.00967447180300951, 0.022137071937322617, -0.023454520851373672, 0.017945440486073494, 0.02530650421977043, -0.015231180004775524, 0.015817491337656975, -0.00843018013983965, -0.023623881861567497, -0.00011984520824626088, -9.934068657457829e-05, 0.006939872168004513, -0.009675972163677216, 0.0049704439006745815, -0.028256364166736603, 0.0008325261878781021, -0.024678049609065056, 0.0005791503353975713, 0.017420202493667603, -0.01067164447158575, 0.010863879695534706, 0.023941639810800552, 0.006078198552131653, 0.01886921189725399], [0.02748463675379753, 0.009271085262298584, 0.002758622169494629, 0.00344771402888, -0.021978195756673813, -0.008788173086941242, -0.02007949724793434, 0.003321595024317503, -0.01685909554362297, 0.011286883614957333, 0.014356272295117378, -0.018476713448762894, -0.015504717826843262, 0.008231643587350845, -0.00916386116296053, -0.007188963238149881, 0.020402941852808, 0.0015663239173591137, -0.020680710673332214, -0.005047541577368975, 0.008379652164876461, -0.00020033078908454627, 0.019145730882883072, -0.014871440827846527, 0.016410671174526215, -0.0013249926269054413, 0.007001535035669804, 0.033527400344610214, 2.6634834284777753e-05, 0.02731533721089363, -0.012326875701546669, -0.004401189275085926, -0.008004018105566502, 0.03324314206838608, 0.018070261925458908, -0.01732085458934307, -0.0273938849568367, 0.01407245360314846, -0.02595635876059532, -0.018071232363581657], [0.026691602542996407, 0.00937232282012701, -0.015769964084029198, -0.02336382493376732, 0.023430783301591873, -0.016680000349879265, 0.011645354330539703, 0.01506989449262619, -8.257117588073015e-05, -0.017748381942510605, 0.008817147463560104, 0.00888039916753769, 0.010014350526034832, -0.008215718902647495, -0.01730474643409252, -0.013334542512893677, -0.00649997778236866, -0.0044779544696211815, -0.012006104923784733, -0.0036159127485007048, 0.003684468101710081, -0.016279682517051697, 0.020697880536317825, -0.003081099595874548, -0.02616139128804207, -0.013489105738699436, 0.0002169430663343519, 0.01874605566263199, 0.00660567544400692, 0.006503224838525057, -0.0012412186479195952, 0.014831588603556156, 0.008573047816753387, -0.011926205828785896, -0.013430619612336159, 0.008311313576996326, -0.01163310557603836, -0.0062208413146436214, 0.02960669808089733, -0.0006954186828806996], [0.0004750487278215587, 0.021580779924988747, 0.03265555575489998, -0.02864374965429306, -0.027556663379073143, 0.021652068942785263, 0.011771331541240215, 0.021829964593052864, 0.02033183164894581, 0.015181588008999825, -0.027925431728363037, -0.005888600833714008, -0.011579602025449276, 0.011769217438995838, -0.01477354858070612, -0.01109365839511156, 0.014323105104267597, 0.02306625433266163, -0.008959408849477768, 0.016819747164845467, 0.009997550398111343, -0.008614780381321907, -0.014808742329478264, 0.002377648837864399, 0.00340003683231771, 0.017025267705321312, 0.010088244453072548, -0.01190874632447958, -0.03621114790439606, -0.010136167518794537, -0.01339183934032917, 0.014830763451755047, 0.009603907354176044, -0.026897212490439415, -0.019723661243915558, 0.025051148608326912, 0.02037055604159832, -0.0006846478790976107, -0.02762627601623535, -0.025041067972779274], [-0.013010014779865742, 0.017319705337285995, -0.006434365641325712, -0.007938891649246216, 0.016830088570713997, -0.02376607060432434, 0.020233411341905594, 0.03326333686709404, 0.01180427335202694, -0.006527011748403311, -0.0089016854763031, 0.01101665385067463, 0.008206361904740334, 0.00953392032533884, 0.015351628884673119, 0.026365801692008972, 0.01951807364821434, 0.008199067786335945, -0.014427061192691326, -0.022653620690107346, 0.014365596696734428, 0.013284226879477501, 0.028587184846401215, -0.0008772626169957221, 0.010433982126414776, 0.010980860330164433, -0.02328360639512539, -0.016213703900575638, -0.0020493364427238703, 0.006554937455803156, -0.01110290177166462, -0.02067440189421177, -0.002607098314911127, 0.007069278508424759, 0.023091886192560196, 0.004299777559936047, 0.00482118409126997, 0.0013733311789110303, -0.0210525281727314, 0.005201335065066814], [0.01662902720272541, 0.019055336713790894, -0.00598462438210845, -0.003533633891493082, 0.003279967000707984, 0.029693400487303734, -0.023860333487391472, 0.005740871652960777, -0.023821916431188583, -0.004665014799684286, -0.026045000180602074, -0.006645947229117155, -0.006712288595736027, -0.021588845178484917, 0.008017516694962978, -0.019694026559591293, -0.017348498106002808, 0.012518392875790596, 0.0173707976937294, -0.015447434037923813, -0.025375476107001305, -0.016320612281560898, 0.02146362140774727, 1.452847027394455e-05, 0.008975604549050331, 0.010058451443910599, 0.006880803499370813, 0.027833662927150726, -0.03312208130955696, -0.009803412482142448, -0.014286840334534645, -0.010693640448153019, 0.014908666722476482, -0.015406708233058453, -0.029130911454558372, 0.007093559950590134, -0.021204181015491486, 0.004952223505824804, 0.015133204869925976, -0.010835344903171062], [0.0050438204780220985, -0.00675958301872015, 0.0045914240181446075, 0.024848146364092827, -0.0008986799512058496, -0.0014418541686609387, -0.000890520284883678, 0.018280304968357086, 0.0006214397144503891, -0.000197130924789235, 0.0038250209763646126, 0.01762528344988823, -0.019648496061563492, -0.004872487857937813, -0.016431599855422974, -0.011468933895230293, -0.0007975893095135689, 0.013605655170977116, 0.006385704502463341, 0.004168224520981312, 0.005692591425031424, -0.01244338694959879, 0.010871772654354572, 0.00760274101048708, -0.009837827645242214, 0.0024613412097096443, 0.002729063853621483, 0.000972315960098058, 0.01471748761832714, 0.011468830518424511, -0.016653206199407578, 0.009366564452648163, -0.0024799290113151073, -0.015064486302435398, 0.013766538351774216, -0.019766392186284065, -0.0025900055188685656, 0.009498239494860172, 0.028449993580579758, 0.005404551513493061], [0.0061164735816419125, -0.007874671369791031, -0.018681475892663002, -0.020525101572275162, -0.0033381925895810127, -6.342421329463832e-06, 0.00021027689217589796, -0.033146172761917114, -0.013970138505101204, 0.023355519399046898, -0.00753063103184104, 0.024343933910131454, 0.01512038055807352, 0.0028650127351284027, -0.014574541710317135, 0.01974412053823471, 0.015672452747821808, -0.008628034964203835, 0.005528560373932123, -0.03214817866683006, -0.005581648088991642, 0.014787692576646805, 0.004950528498739004, -0.010135536082088947, 0.00910607073456049, 0.008014533668756485, 0.003587940940633416, 0.021661853417754173, 0.028487790375947952, 0.004338838160037994, 0.014407912269234657, -0.017828403040766716, -0.025626283138990402, -0.012277254834771156, 0.011535188183188438, -0.015544035471975803, 0.027285121381282806, 0.007229152135550976, -0.0035609931219369173, -0.0064306859858334064], [-0.010826281271874905, -0.015021814033389091, -0.010727514512836933, 0.024809522554278374, 0.017526527866721153, 0.013172713108360767, -0.005670985672622919, -0.02173641137778759, 0.004205711185932159, -0.008778518065810204, 0.012030748650431633, -0.01630920171737671, -0.011432858183979988, -0.002749754348769784, 0.008085198700428009, 0.013861591927707195, 0.004975474905222654, 0.009814247488975525, 0.006928705610334873, 0.02215936966240406, -0.014348707161843777, -0.005251138471066952, 0.0016619062516838312, -0.007513726595789194, 0.006071677431464195, 0.005267198197543621, 0.007735781371593475, -0.018645307049155235, -0.012330662459135056, -0.005942611023783684, -0.0056833834387362, 0.011004853993654251, 0.010676862671971321, -0.001359838293865323, -0.003193055745214224, 0.005805169697850943, -0.005140997935086489, 0.008095900528132915, -0.00373851228505373, -0.009619473479688168], [0.015770016238093376, 0.014545985497534275, 0.02250160276889801, 0.023777449503540993, -0.017354214563965797, -0.023529106751084328, 0.010828121565282345, 0.01135758962482214, -0.014941491186618805, -0.002882088301703334, -0.012915842235088348, 0.02067217417061329, 0.005756665952503681, 0.0032828268595039845, -0.015939917415380478, -0.021017523482441902, 0.017706548795104027, -0.005459314212203026, 0.01972878724336624, -0.013576638884842396, 0.02697298862040043, 0.021052898839116096, 0.017169412225484848, 0.01041614543646574, 0.010991710238158703, 0.00024226983077824116, -0.027904067188501358, 0.020753895863890648, 0.021976057440042496, -0.0039040949195623398, 0.0060279094614088535, -0.0010325968032702804, -0.033770155161619186, 0.006158181466162205, 0.003923447802662849, -0.011549847200512886, 0.033144932240247726, 0.015832804143428802, -0.012685401365160942, 0.00794594082981348], [-0.007676106411963701, -0.02288881503045559, -0.012285915203392506, 0.01463604811578989, -0.02457452565431595, 0.007170303724706173, -0.00044860359048470855, -0.024993404746055603, 0.0036560685839504004, -0.004696613177657127, 0.0008664308115839958, 0.012983612716197968, -0.022516362369060516, -0.01737593300640583, -0.015564353205263615, 0.007997079752385616, 0.006806656252592802, 0.008081505075097084, 0.01762188971042633, -0.018601441755890846, -0.008582797832787037, -0.02756946161389351, -0.023466581478714943, -0.009175468236207962, -0.031029535457491875, -0.018093492835760117, 0.010756864212453365, 0.018095381557941437, -0.025922618806362152, 0.006065075751394033, -0.011131065897643566, -0.008056682534515858, -0.02381795644760132, -0.005390772130340338, -0.011769158765673637, -0.000164689845405519, -0.021721385419368744, 0.011310984380543232, 0.023885706439614296, -0.004217501729726791], [0.00404638797044754, -0.019090814515948296, -0.0070687029510736465, 0.002546182833611965, -0.00033929015626199543, 0.013901912607252598, 0.010004214011132717, -0.0028603868559002876, 0.003982241731137037, 0.024457335472106934, -0.016357023268938065, -0.013255948200821877, 0.019083146005868912, -0.007262577768415213, -0.0014813764719292521, 0.004308694042265415, -0.023161711171269417, -0.0017924491548910737, -0.020563406869769096, -0.01690835691988468, -0.005118515808135271, 0.02224174328148365, 0.0020496284123510122, 0.005011717323213816, 0.02745523303747177, 0.028642984107136726, 0.020864084362983704, -0.0008554320666007698, 0.01953159086406231, -0.014961626380681992, -0.0010902726789936423, 0.024178998544812202, 0.0006855392712168396, -0.012627321295440197, -0.0024638401810079813, -0.01058189570903778, 0.003663209732621908, 2.0626757759600878e-05, 0.019764330238103867, 0.02272961102426052], [-0.013450001366436481, 0.015342810191214085, -0.01469388697296381, 0.012654755264520645, 0.007550766225904226, -0.016507847234606743, 0.02502116933465004, -0.008963443338871002, -0.006155337207019329, 0.005109523423016071, 0.016467629000544548, 0.027724402025341988, -0.003662602975964546, -0.004885128233581781, -0.014239226467907429, 0.006781005300581455, -0.00721343606710434, 0.0037535412702709436, -0.01915333792567253, -0.028888795524835587, -0.006354029290378094, -0.011150049977004528, 0.03875448554754257, 0.015056673437356949, -0.014033086597919464, 0.0033327245619148016, -0.0019786593038588762, 0.016179492697119713, 0.0007516740588471293, -0.006562410853803158, -0.022939305752515793, -0.002563758986070752, -0.012479111552238464, -0.003575424198061228, -0.021180639043450356, -0.0032570799812674522, -0.008752410300076008, 0.003955007530748844, 0.023149386048316956, -0.014025275595486164], [0.009437896311283112, 0.0073285894468426704, -0.025044631212949753, -0.012711506336927414, -0.015026608482003212, 0.004938079044222832, -0.012524237856268883, -0.0076127988286316395, -0.00824409257620573, 0.009810389950871468, -0.0021121299359947443, -0.010718090459704399, -0.004976856522262096, 0.011623603291809559, -0.009014314971864223, -0.014134278520941734, -0.021781478077173233, 0.007676301058381796, 0.011840255931019783, 0.032241012901067734, -0.001905527664348483, -0.005437054671347141, 0.025615746155381203, -0.005642039235681295, -0.007442153058946133, 0.005148331169039011, 0.013373417779803276, -0.0075032575987279415, -0.004438052885234356, 0.021165581420063972, -0.01635490171611309, -0.017183873802423477, -0.0034768860787153244, 0.006606565322726965, 0.005608808249235153, 0.0026047062128782272, -0.0038260286673903465, -0.01519489474594593, 0.02763904258608818, -0.006394293624907732], [-0.024358119815587997, 0.00015002676809672266, -0.021269895136356354, 0.007998733781278133, 0.029415084049105644, 0.011255081743001938, 0.007356850430369377, -0.016937408596277237, -0.02189989946782589, 0.0024143627379089594, 0.006272992119193077, -0.01535067055374384, 0.025396335870027542, 0.015469970181584358, -0.005874641239643097, 0.015915442258119583, 0.0009149070829153061, 0.00631779246032238, 0.014350931160151958, 0.013788520358502865, 0.014234093017876148, -0.003940553404390812, -0.000616077333688736, 0.00617141043767333, -0.03510662913322449, -0.022593097761273384, -0.013794098049402237, -0.00810365378856659, 0.026499856263399124, 0.017237380146980286, 0.005582692101597786, -0.007292464375495911, -0.01283312402665615, 0.020703382790088654, -0.014538764022290707, -0.004831381142139435, 0.028352361172437668, -0.01862931437790394, 0.006894831079989672, 0.007403803989291191], [-0.022820714861154556, 0.009981916286051273, 0.004059096332639456, -0.01045376155525446, -0.030759340152144432, -0.009212261997163296, 0.008075217716395855, -0.007658533751964569, 0.003868609433993697, 0.006074053701013327, 6.058089638827369e-07, 0.0354534350335598, -0.015318864956498146, -0.0014899632660672069, -0.014570202678442001, -0.03142103552818298, -0.012232055887579918, -0.019621938467025757, 0.020176229998469353, 0.01604367420077324, 0.0021276199258863926, -0.005874764174222946, -0.009760517627000809, 0.008556907996535301, -0.04932780563831329, -0.012146556749939919, 0.008672857657074928, -0.01628638058900833, -0.0031259884126484394, -0.006696718279272318, 0.0020734660793095827, 0.014624247327446938, -0.0249425508081913, -0.01617627777159214, -0.003675360232591629, -0.007348337210714817, -0.057025548070669174, -0.0020910955499857664, 0.0031180246733129025, 0.003607984399423003], [-0.010844334959983826, -0.02310970053076744, -0.003160142106935382, -0.003587750717997551, -0.022349387407302856, -0.0055170501582324505, 0.0055571007542312145, -0.0070887901820242405, -0.013282074593007565, 0.005177623592317104, -0.0227796733379364, 0.016860470175743103, -0.010566157288849354, 0.006880407687276602, 0.009753750637173653, 0.0047158473171293736, 0.018540071323513985, -0.0029017734341323376, -0.012118833139538765, -0.007516144774854183, -0.014527344144880772, -0.027996549382805824, -0.005073949694633484, -0.017571385949850082, -0.013837129808962345, -0.00484031718224287, 0.007656230125576258, 0.03015560284256935, 0.0006565939984284341, 0.004320850595831871, -0.02288740873336792, -0.00304260547272861, -0.0001590228930581361, 0.011288145557045937, 0.017399707809090614, 0.031461525708436966, -0.022230153903365135, -0.010168774053454399, -0.02137303724884987, -0.011181888170540333], [0.011384574696421623, 0.009511388838291168, -0.021971484646201134, -0.0147173423320055, -0.003852906869724393, -0.026637250557541847, -0.010792798362672329, -0.029057499021291733, -0.007817788980901241, 0.025706982240080833, 0.0066320509649813175, -0.027312591671943665, -0.013532452285289764, 0.005581410136073828, 0.015770521014928818, -0.015181148424744606, -0.015245410613715649, -0.010243967175483704, -0.006357403472065926, 0.018758056685328484, -8.85455847310368e-06, 0.0076471976935863495, 0.024107659235596657, 0.026963528245687485, 0.023277051746845245, -0.016849296167492867, -0.015212073922157288, -0.007512364070862532, -0.02793031558394432, -0.02992788702249527, 0.015672769397497177, -0.017221683636307716, 0.0035317488946020603, -0.024147143587470055, 0.010936391539871693, -0.010393932461738586, -0.0010247771861031651, -0.026749033480882645, -0.005950143560767174, 0.019119219854474068], [-0.012502005323767662, -0.009041253477334976, 0.005552454851567745, -0.0327867791056633, -0.005397917237132788, -0.009742473252117634, -0.01829269714653492, 0.030799580737948418, 0.0052597904577851295, -0.010502801276743412, 0.016253914684057236, 0.011392448097467422, -0.01689961552619934, 0.013060646131634712, 0.008946087211370468, -0.015407374128699303, 0.01790464296936989, 0.02247687056660652, -0.007584836333990097, -0.0028167651034891605, 0.027323508635163307, 0.018117321655154228, -0.005644283723086119, -0.01020131167024374, 0.008817506954073906, 0.005727671552449465, 0.006363188847899437, 0.007501463405787945, 0.022621333599090576, 0.015834229066967964, 0.0027375812642276287, -0.009752104058861732, 0.013239658437669277, -0.00905624683946371, 0.011637675575911999, -0.00037199779762886465, -0.007088898681104183, -0.010902062058448792, -0.0025288129691034555, 0.003073833417147398], [0.024515749886631966, -0.031584061682224274, 0.005232836585491896, 0.020285623148083687, -0.0180208720266819, -0.008917617611587048, -0.009621744975447655, 0.015061597339808941, -0.02560386061668396, -0.00014919234672561288, 0.024198157712817192, -0.017310772091150284, 0.016352051869034767, -0.015212269499897957, -0.022420622408390045, 0.009018545038998127, -0.0032769327517598867, -0.003045948687940836, -0.02613515406847, 0.008886833675205708, -0.02566109038889408, 0.001159102190285921, 0.028797131031751633, 0.016723785549402237, 0.025754747912287712, 0.01823378913104534, -0.004320043139159679, -0.03293216601014137, -0.020018327981233597, 0.022180350497364998, -0.02453640289604664, 0.0019427447114139795, -0.008465812541544437, -0.00917154923081398, 0.00011556880781427026, 0.01013275422155857, 0.009163505397737026, 0.01863531954586506, 0.013583799824118614, -0.008367327041924], [0.022603921592235565, -0.0037521901540458202, -0.00449767243117094, -0.014695774763822556, 0.008341898210346699, 0.024541568011045456, -0.017131511121988297, 0.0020560796838253736, -0.011600830592215061, -0.018648114055395126, -0.0032392898574471474, 0.0036306984256953, -0.0206160768866539, -0.007784191984683275, -0.006929036695510149, -0.013262009248137474, 0.004973192233592272, -0.02849981002509594, 0.013239446096122265, -0.01680954545736313, 0.01772073656320572, 0.003703982336446643, -0.00804057065397501, 0.013850432820618153, -0.0038670378271490335, -0.003349693026393652, -0.011352485977113247, -0.02770760841667652, 0.03025418147444725, -0.018909050151705742, 0.004603484179824591, 0.00443193968385458, 0.014639339409768581, 0.01897539384663105, -0.005320172291249037, 0.030532553791999817, -0.0003531667171046138, 0.029215233400464058, -0.021749353036284447, -0.00854520034044981], [0.0062690842896699905, -0.005107969045639038, 0.020793549716472626, 0.02528870850801468, 0.022576574236154556, 0.0007313243695534766, -0.018946092575788498, -0.0418495312333107, -0.017382582649588585, 0.00571984238922596, 0.00927820149809122, 0.018872829154133797, -0.003581468015909195, -0.0067958892323076725, 0.012908412143588066, -0.005763214081525803, 0.007750688586384058, 0.022360894829034805, 0.007613472640514374, 0.007553688250482082, 0.004040328785777092, 0.0028582289814949036, -0.006148236338049173, 0.005972125567495823, 0.000580037769395858, 0.002458861330524087, -0.017723290249705315, -0.020624438300728798, 0.029277728870511055, 0.005770033225417137, 0.017868563532829285, -0.006006642710417509, -0.014022082090377808, -0.019189633429050446, 0.020089086145162582, -0.013646621257066727, 0.013390236534178257, -0.007923701778054237, -0.01961495727300644, -0.004845905117690563], [-0.022215738892555237, 0.00057664152700454, 0.0077780140563845634, 0.006098312325775623, 0.02831364795565605, 0.0013608407462015748, -0.008032782934606075, 0.0027243653312325478, -0.0209453534334898, -0.015785595402121544, -0.0011301343329250813, 0.016569651663303375, 0.013354051858186722, 0.0052685062400996685, 0.009124278090894222, -0.02537190541625023, 0.012369467876851559, -0.0023452749010175467, -0.006431031972169876, -0.0020146756432950497, -0.018102822825312614, -0.02034846879541874, 0.003630849067121744, -0.0075056422501802444, 0.0010290746577084064, 0.015625860542058945, -0.015094834379851818, 0.024435052648186684, -0.022143756970763206, -0.0009006679174490273, 0.00668669305741787, -0.0036004064604640007, 0.019748985767364502, 0.010567648336291313, 0.018037213012576103, -0.013089577667415142, -0.022850684821605682, 0.016968881711363792, -0.010028602555394173, 0.0030858174432069063], [0.009410563856363297, -0.004695896990597248, -0.022315651178359985, 0.01964694634079933, -0.012808874249458313, 0.016136297956109047, -0.009589089080691338, 0.017446240410208702, 0.010691491886973381, -0.00956783164292574, 0.016737988218665123, -0.008123654872179031, 0.015003719367086887, 0.009425288066267967, 0.023708347231149673, -0.01680908538401127, -0.01636209525167942, -0.0012314607156440616, -0.02268207259476185, 0.014532392844557762, 0.017604362219572067, -0.017587965354323387, -0.032533057034015656, -0.013189468532800674, -0.01666513830423355, 0.011402692645788193, -0.003928970545530319, 0.01164892129600048, -0.003904410870745778, -0.0050246985629200935, 0.03762667998671532, -0.0030682492069900036, 0.0006869733333587646, 0.0008682266343384981, 0.009920848533511162, 0.004736725706607103, -0.006513701286166906, 0.00940093956887722, -0.03944443166255951, 0.003661317517980933], [0.005723993293941021, -0.01195613108575344, 0.009233850054442883, -0.008456586860120296, -0.032558124512434006, -0.010036921128630638, -0.014933533035218716, -0.005217068362981081, 0.002259494038298726, 0.0048541780561208725, 0.014483096078038216, 0.0036915831733494997, 0.00790192186832428, 0.03266194462776184, -0.010354824364185333, 0.002565327100455761, 0.03495495393872261, 0.0071166385896503925, -0.01661885716021061, 0.025684257969260216, -0.014049893245100975, -0.02624787949025631, 0.0012643605004996061, 0.006103917490690947, -0.014079655520617962, 0.026152221485972404, 0.0019589781295508146, -0.0005278625176288188, 0.0030580705497413874, 0.019840139895677567, 0.020823389291763306, 0.01967729441821575, 0.0073900059796869755, -0.025105005130171776, 0.012727772817015648, -0.027416493743658066, -0.009777219966053963, 0.01848362758755684, 0.007109472528100014, -0.004910060670226812], [0.011419159360229969, 0.018132256343960762, 0.0012173140421509743, 0.026140788570046425, 0.012026497162878513, -0.016121838241815567, 0.0048013124614953995, 0.01814259961247444, -0.02041146159172058, -0.011569195427000523, 0.0211135633289814, -0.017460256814956665, 0.0019374312832951546, 0.03466533496975899, 0.015613981522619724, 0.007832890376448631, 0.027890529483556747, -0.006071863230317831, 0.024823088198900223, 0.006488852668553591, 0.024545010179281235, -0.01614316739141941, 0.02500864490866661, 0.012844706885516644, -0.006642937194555998, -0.004425386432558298, -0.0008186423801817, -0.0008162559824995697, -0.015562865883111954, 0.008577408269047737, 0.00043711226317100227, 0.01743745431303978, 0.03363395109772682, 0.012540298514068127, 0.0019209490856155753, -0.012900890782475471, 0.011413387022912502, -0.003944001626223326, 0.0006741409888491035, 0.007169620133936405], [-0.011071301065385342, -0.0006225272663868964, -0.015780959278345108, 0.013830997049808502, -0.010310614481568336, 0.011071252636611462, -0.03196710720658302, 0.002847274299710989, -0.006248461082577705, 0.015619117766618729, -0.03164789080619812, 0.0067341867834329605, 0.019667934626340866, -0.026051586493849754, -0.0326891653239727, -0.01179044134914875, 0.033508408814668655, -0.020732920616865158, -0.0031291297636926174, 0.009482388384640217, -0.0117192342877388, 0.02336256578564644, 0.005467547103762627, 0.014031981118023396, -0.028221560642123222, 0.014446594752371311, 0.004160305019468069, -0.00702873757109046, 0.006678789854049683, -0.006449730135500431, -0.016255423426628113, -0.014143540523946285, 0.015326373279094696, 0.025990096852183342, -0.018611473962664604, 0.012528316117823124, -0.0018357516964897513, 0.0029813076835125685, -0.011729140765964985, 0.022355280816555023], [-0.0041488343849778175, -0.00241734366863966, 0.0233475212007761, -0.026503650471568108, -0.01292968075722456, 0.010319807566702366, 0.005606979131698608, -0.008826900273561478, -0.0156415868550539, -0.0327131412923336, -0.02251550927758217, -0.008692605420947075, 0.014940825290977955, -0.02054554969072342, 0.025820091366767883, -7.571686001028866e-05, 0.0027218484319746494, 0.00030311691807582974, 0.0034617267083376646, -0.008102960884571075, -0.017829326912760735, 0.02559427171945572, -0.007246583700180054, 0.00016313341620843858, -0.009852556511759758, 0.02046048454940319, -0.005111906211823225, 0.0014773944858461618, -0.029354114085435867, -0.003609476611018181, -0.009191278368234634, -0.001266591832973063, -0.030582452192902565, 0.0021222743671387434, 0.01597089134156704, 0.024224739521741867, 0.0179955642670393, 0.023775946348905563, -0.007271117065101862, 0.011802153661847115], [0.024987440556287766, 0.01101522147655487, 0.00596661726012826, -0.0032723473850637674, 0.0119269834831357, -0.017331121489405632, 0.029040811583399773, -0.0244094580411911, -0.015566520392894745, 0.01566407084465027, 0.022010916844010353, -0.006428209599107504, 0.014515705406665802, 0.01355865690857172, 0.006150365807116032, -0.019326865673065186, -0.010994112119078636, 0.005017728079110384, 0.017735552042722702, -0.003680774476379156, -0.011299684643745422, 0.023279882967472076, 0.017133569344878197, -0.00885159894824028, -0.01219908520579338, -0.019367055967450142, 0.02184322476387024, 0.010483445599675179, -0.016664357855916023, -0.022121891379356384, 0.0030825745780020952, 0.008286154828965664, 0.004581524059176445, -0.011587347835302353, -0.013059643097221851, 0.02348652482032776, 0.00896111037582159, -0.002997105708345771, -0.013799598440527916, -0.013689059764146805], [0.0027876831591129303, 0.009035942144691944, -0.00681258412078023, -0.014831558801233768, 0.014821618795394897, -0.00701145501807332, -0.015925275161862373, 0.008004439994692802, 0.000577628321480006, -0.016642410308122635, 0.003939678426831961, -0.023519497364759445, 0.007470560260117054, 0.007123645860701799, 0.0031972364522516727, -0.0016804487677291036, -0.014233625493943691, 0.009900715202093124, 0.017474856227636337, -0.008730689994990826, -0.02610683999955654, -0.001205355511046946, 0.024242253974080086, -0.017629088833928108, -0.025307444855570793, 0.01763414777815342, 0.0012799798278138041, -0.0008091373019851744, -0.010882285423576832, -0.009917888790369034, 0.009669901803135872, -0.020677845925092697, -0.004291781224310398, -0.0043560718186199665, -0.008667225949466228, -0.011668368242681026, -0.026284195482730865, 0.016197582706809044, -0.01935504376888275, 0.0008237549918703735], [-0.01599964126944542, -0.02180357277393341, -0.006043323315680027, 0.0029652330558747053, 0.017146138474345207, -0.02335238642990589, -0.005570177920162678, -0.023467833176255226, 0.013515042141079903, -0.008647476322948933, -0.005017404444515705, 0.004952888935804367, 0.02123372070491314, -0.00417641457170248, 0.0035504980478435755, 0.01629544235765934, 0.020918164402246475, -0.015849534422159195, 0.0039967866614460945, -0.013772597536444664, 0.03399805724620819, 0.013710910454392433, 0.007415149826556444, -0.009791837073862553, 0.020792454481124878, -0.016461869701743126, -0.02486780285835266, -0.002158725168555975, 0.009125969372689724, -0.005771535914391279, 0.030326783657073975, 0.02133915387094021, 0.00026791400159709156, -0.0013517665211111307, -0.024424908682703972, -0.013623779639601707, 0.019449999555945396, 0.010379700921475887, -0.009953627362847328, -0.016881316900253296], [-0.017880532890558243, 0.022713692858815193, -0.000358604418579489, 0.007445615716278553, -0.020778421312570572, 0.012590502388775349, -0.0026085160207003355, 0.012737879529595375, 0.0023348138201981783, 0.010824805125594139, -0.014219609089195728, 0.009436668828129768, 0.005124059040099382, 0.006197823211550713, -0.005032993387430906, 0.015341822989284992, -0.017020419239997864, 0.006994270253926516, -0.020686380565166473, 0.003002532059326768, 0.015666088089346886, -0.01515826117247343, 0.00858449935913086, 0.0005306527018547058, -0.020773103460669518, -0.010219582356512547, -0.018335621803998947, -0.01158938929438591, -0.0155471321195364, 0.005034353584051132, -0.013889812864363194, 0.0012143071508035064, -0.014112129807472229, -0.00479472940787673, -0.00836923811584711, 0.026761114597320557, -0.003720306558534503, 0.010091218166053295, 0.015579723753035069, 0.006193974055349827], [0.006509835831820965, -0.009750980883836746, 0.014037368819117546, 0.025965463370084763, 0.0191526859998703, -0.01629161834716797, -0.02181345224380493, 0.018144704401493073, 0.0035258622374385595, -0.025221392512321472, 0.028022289276123047, 0.006393740884959698, 0.006308415438979864, -0.014154375530779362, 0.024633055552840233, 0.0031661679968237877, -0.020457539707422256, -0.021916739642620087, 0.01453949324786663, 0.02054404467344284, -0.013578091748058796, -0.008603587746620178, 0.017764896154403687, 0.009578507393598557, 0.00570995919406414, 0.0017599028069525957, -0.024049853906035423, 0.025230003520846367, -0.02308502607047558, -0.004466313868761063, -0.008120536804199219, -0.008399341255426407, -0.02976030670106411, -0.025394391268491745, -0.016506429761648178, -0.012966649606823921, 0.0014915770152583718, -0.027957705780863762, 0.022948747500777245, 0.006682080216705799], [-0.01611184887588024, 0.029930423945188522, 0.00498956860974431, 0.00031868257792666554, 0.02230077236890793, 0.014709717594087124, 0.008988101035356522, 0.012678762897849083, 0.019320806488394737, -0.002243044087663293, -0.016436774283647537, 0.008505505509674549, 0.0121983103454113, -0.012453353963792324, -0.009697603061795235, 0.014445571228861809, 0.02054753340780735, -0.019387314096093178, -0.0034038375597447157, -0.013390060514211655, 0.01082428265362978, 0.0052824364975094795, -0.0034971097484230995, -0.017284858971834183, 0.024546433240175247, -0.015890277922153473, 0.020174819976091385, 0.005649861879646778, -0.0011559908743947744, 0.015051256865262985, 0.020966485142707825, 0.01319286972284317, 0.001347075100056827, -0.025326920673251152, 0.005971640348434448, -0.013888523913919926, 0.010284666903316975, 0.02320140413939953, -0.016661586239933968, -0.006535179913043976], [-0.016612103208899498, -0.008353698067367077, -0.025697559118270874, -0.021954715251922607, -0.006446162238717079, 0.007702145725488663, -0.015069200657308102, -0.029483336955308914, -0.02823365479707718, -0.005009613931179047, 0.01062223594635725, -0.00747275585308671, 4.835004801861942e-05, -0.02516072802245617, 0.011238926090300083, 0.004944851156324148, -0.004116240423172712, 0.024869168177247047, 0.02187570556998253, 0.001627235091291368, -0.004725818056613207, -0.018202101811766624, -0.0012185444356873631, -0.01202236209064722, -0.0031970483250916004, 0.0014982360880821943, 0.0003704832633957267, 0.024145131930708885, 0.019090166315436363, -0.00606355257332325, -0.0032277933787554502, -0.01911288872361183, -0.019739264622330666, 0.023832904174923897, -0.007580407429486513, -0.01712433062493801, 0.009932288900017738, -0.008891425095498562, 0.02145255357027054, 0.010690280236303806], [-0.007170450408011675, -0.011431202292442322, 0.00754494359716773, 0.0008337278268299997, 0.017371181398630142, 0.023250335827469826, -0.007827764376997948, 0.009631636552512646, 0.03356168046593666, 0.007329527288675308, -0.004735452122986317, -0.017438683658838272, -0.0035065372940152884, -0.010535325855016708, -0.008267701603472233, 0.009542838670313358, 0.010722111910581589, -0.010779555886983871, -0.0033726533874869347, 0.020560842007398605, 0.006249397527426481, -0.009924548678100109, 0.0035198982805013657, 0.01588018424808979, 0.0041663465090096, -0.010108699090778828, 0.001538663636893034, -0.002228644909337163, 0.0018253956222906709, -0.0034547706600278616, -0.020822806283831596, 0.0010023326613008976, -0.016569174826145172, -0.019288785755634308, -0.023050112649798393, -0.006962568033486605, 0.0007795652491040528, 0.024619635194540024, -0.03019910678267479, 0.00988300982862711], [0.018740683794021606, -0.0032580627594143152, -0.020859278738498688, 0.007438758388161659, 0.017923511564731598, -0.02346516028046608, 0.002030860399827361, 0.004349259193986654, -0.007161389105021954, -0.0002491374034434557, -0.006937029771506786, -0.017618192359805107, -0.013560647144913673, -0.0007977465866133571, 0.009133117273449898, -0.01652095466852188, 0.014786647632718086, -0.00441755959764123, -0.006670831702649593, 0.00028999941423535347, -0.030294235795736313, 0.002015180652961135, 0.007378856651484966, -0.008332819677889347, 0.010151471011340618, -0.006749063264578581, -0.0018926116172224283, 0.011063339188694954, -0.0008259544847533107, 0.0029560041148215532, -0.01240632589906454, -0.020286284387111664, 0.04257043078541756, 0.02368142269551754, -0.006697742268443108, 0.01452589686959982, 0.012070322409272194, 0.007909353822469711, 0.007442601025104523, 0.003350385930389166], [0.006018453277647495, 0.028247453272342682, -0.002570596756413579, 0.005694677587598562, -0.017769189551472664, -0.005794088821858168, 0.0029853899031877518, -0.02901316061615944, 0.007292240858078003, -0.013945307582616806, -0.006321323104202747, -0.019515668973326683, -0.021880533546209335, 0.010978679172694683, -0.0049852849915623665, -0.019601237028837204, -0.00797020923346281, 0.005013355519622564, -0.01473925169557333, -0.003990404773503542, -0.017950959503650665, 0.008078159764409065, 0.026054520159959793, -0.020879270508885384, 0.02667655609548092, -0.002598193706944585, 0.020227745175361633, 0.005544569808989763, 0.009457326494157314, -0.017608504742383957, 0.017305852845311165, -0.019895300269126892, -0.023241693153977394, 0.001635813619941473, 0.03763417527079582, 0.03176192566752434, 0.006066972389817238, 0.007753663696348667, -0.006655411329120398, 0.006006525829434395], [0.02004312537610531, 0.027300693094730377, 0.01747548207640648, 0.020129546523094177, 0.018901526927947998, 0.014947707764804363, -0.009284710511565208, 0.019933970645070076, -0.018001556396484375, 0.014632352627813816, 0.008086852729320526, -0.025230584666132927, 0.005951879546046257, 0.0016035240842029452, -0.029946543276309967, -0.021682633087038994, 0.0010947507107630372, 0.0010530633153393865, 0.01575278304517269, 0.013502370566129684, -0.019284479320049286, 0.015366403385996819, -0.011243479326367378, 0.019807981327176094, -0.004595882724970579, 0.0031813380774110556, 0.015459347516298294, -0.01458862703293562, 0.0024891027715057135, 0.003518525045365095, -0.024550622329115868, -0.031839579343795776, -0.008213705383241177, 0.01378052681684494, 0.013359497301280499, 0.020534658804535866, -0.01630602777004242, 0.011303539387881756, -0.0016442000633105636, -0.01391411293298006], [-0.008251067250967026, -0.021192243322730064, 0.020978981629014015, -0.01258900947868824, 0.01268872618675232, -0.002105280989781022, 0.005264739040285349, -0.017324605956673622, 0.01855899952352047, 0.02190353535115719, -0.003259649034589529, 0.00019534856255631894, -0.006858585402369499, -0.018862416967749596, 0.021016057580709457, 0.016175365075469017, -0.02868789993226528, 0.0029023862443864346, 0.020348982885479927, -0.004705408122390509, -0.014258979819715023, -0.006956248078495264, -0.000967684609349817, -0.007830175571143627, 0.0030948815401643515, -0.0004390795947983861, 0.007197454571723938, -0.020003587007522583, 0.0055973464623093605, 0.016725875437259674, 0.03772246465086937, -0.018603989854454994, -0.023727871477603912, 0.023046160116791725, 0.010936127975583076, -0.026555795222520828, -0.013355444185435772, 0.0037450341042131186, -0.004729520995169878, 0.0008374937460757792], [-0.007602996192872524, 0.016108239069581032, -0.016262976452708244, 0.0013442860217764974, 0.004772198852151632, 0.011554806493222713, -0.01033320464193821, 0.024230053648352623, -0.009163531474769115, 0.005716684274375439, -0.009462250396609306, 0.003582881297916174, 0.020158452913165092, 0.017503920942544937, -0.012011117301881313, -0.006944204680621624, -0.012000282295048237, 0.014173506759107113, 0.00996183231472969, -0.026482628658413887, 0.035294897854328156, -0.017264805734157562, 0.02583843097090721, -0.005601667799055576, -0.015327717177569866, -0.002605713438242674, -0.013886233791708946, 0.029103081673383713, -0.0019218792440369725, -0.014783739112317562, -0.038683149963617325, 0.020689653232693672, -0.015129956416785717, -0.01883055455982685, -0.00692099891602993, -0.030990028753876686, 0.00024360058887396008, 0.02691684663295746, 0.0012392248027026653, 0.012147827073931694], [0.008447330445051193, -0.0009131474071182311, 0.009757300838828087, 0.01228357944637537, 0.012875261716544628, 0.024189302697777748, 0.00573404785245657, -0.0012462689774110913, -0.004566126503050327, 0.021293215453624725, 0.007698642089962959, -0.006055373232811689, -0.025721164420247078, 0.006310592871159315, 0.006749797612428665, 0.025371190160512924, 0.01588011533021927, 0.012809602543711662, -0.0035926608834415674, 0.03207891434431076, -0.015261993743479252, 0.021170398220419884, -0.01264740526676178, -0.008800896815955639, 0.002693310845643282, 0.02176615595817566, -0.011247158981859684, 0.023310989141464233, -0.012256897985935211, 0.003514362731948495, 0.011450211517512798, 0.008713679388165474, -0.013299528509378433, -0.005856656469404697, -0.024916553869843483, -0.003220936516299844, -0.024397049099206924, -0.001073423307389021, 0.014821470715105534, -0.015827804803848267], [-0.013716024346649647, -0.01784881390631199, -0.011849424801766872, 0.020296132192015648, 0.021364813670516014, 0.011166662909090519, 0.00015733035979792476, -0.0028900878969579935, 0.004525919910520315, -0.005849084351211786, 0.008127909153699875, 0.010160276666283607, 0.01518093328922987, -0.011642782017588615, -0.01019842829555273, 0.016209527850151062, -0.00038684933679178357, 0.00968712754547596, -0.005951218772679567, -0.0033811028115451336, -0.02025805599987507, -0.0035957901272922754, 0.0037961830385029316, -0.02209514193236828, 0.004514288157224655, -0.004427582956850529, -0.014859831891953945, 0.01308783795684576, 0.006891400087624788, 0.01232205145061016, 0.0005867776344530284, 0.004912668839097023, 0.008949981071054935, 0.01637304574251175, 0.01223697792738676, -0.015088656917214394, 0.0031784591265022755, -0.010789785534143448, 0.018582332879304886, 0.001908747828565538], [0.0057665202766656876, 0.016700735315680504, -0.013801068998873234, -0.024959227070212364, -0.015812858939170837, 0.0005132429068908095, -0.019680745899677277, -0.00153240910731256, -0.02387353591620922, 0.016508102416992188, -0.00926554948091507, -0.010249290615320206, -0.008348638191819191, 0.006378437392413616, -0.0010671642376109958, -0.007764982059597969, -0.018946658819913864, 0.013265267945826054, 0.00940782018005848, 0.015353512950241566, -0.01835780031979084, 0.00659230537712574, 0.003464451292529702, 0.004171487409621477, -0.002193799940869212, -0.00584088359028101, 0.0012760792160406709, -0.006291653495281935, 0.01142131257802248, -0.012776763178408146, 0.009112527593970299, 0.01431021187454462, 0.0005993624217808247, -0.005195804871618748, -0.0009618768817745149, 0.008441675454378128, 0.008553032763302326, 0.009893477894365788, -0.007108461111783981, 0.005241583567112684], [-0.006607588846236467, -0.007891067303717136, 0.006000816822052002, 0.0032790140248835087, -0.019130468368530273, -0.01365270558744669, 0.025669917464256287, -0.02047027088701725, -0.0007369200466200709, -0.011587751097977161, -0.02820269949734211, -0.005024980287998915, -0.001207592780701816, -0.009919099509716034, -0.026711279526352882, -0.005086334887892008, -0.00724179670214653, -0.016934096813201904, -0.007248797919601202, -0.031874872744083405, -0.0062055387534201145, -0.014988620765507221, 0.01522398553788662, -0.009774386882781982, -0.018092026934027672, -0.01077248714864254, -0.01125156320631504, 0.010525167919695377, -0.004492966923862696, -0.005716540385037661, -0.035317543894052505, -0.009662346914410591, 0.014957986772060394, 0.02036277949810028, 0.02526308409869671, -0.023242328315973282, -0.0026656477712094784, -0.012609836645424366, 0.03220288082957268, 0.021404501050710678], [0.0088864266872406, -0.029205169528722763, 0.005706191528588533, -0.02407301403582096, -0.020962560549378395, 0.016380950808525085, -0.008750559762120247, -0.0007192472694441676, 0.014993857592344284, 0.009969598613679409, -0.008683227933943272, 0.008760679513216019, -0.007379039656370878, 0.00155533361248672, 0.01587563194334507, -0.01820642501115799, 0.027291415259242058, 0.013030115514993668, -0.019599054008722305, 0.01131969690322876, -0.011834188364446163, -0.0001172392294392921, 0.014654889702796936, 0.002314947545528412, 0.006839706562459469, 0.0005463086999952793, -0.00716532114893198, -0.022351719439029694, -0.013144238851964474, 0.008572397753596306, 0.016267141327261925, 0.0026305720675736666, 0.008639266714453697, -0.01921376772224903, -0.02849108725786209, -0.010239209979772568, -0.010253483429551125, 0.002088395645841956, 0.012793312780559063, 0.008821776136755943], [-0.0018309366423636675, 0.021701805293560028, -0.0043193986639380455, 0.02289004623889923, -0.004020355176180601, 0.0012191731948405504, -0.013661318458616734, -0.0125191081315279, 0.018222464248538017, 0.011915505863726139, -0.00017001158266793936, 0.0015993084525689483, 0.0018525046762079, 0.02245115116238594, -0.010194526985287666, 0.0026599583216011524, 0.0003271941386628896, -0.004900562576949596, -0.013367203064262867, 0.004215724300593138, 0.011697320267558098, -0.0026136566884815693, 0.015508740209043026, -0.016973065212368965, -0.02243301458656788, 0.018022561445832253, 0.002168392762541771, 0.015447571873664856, 0.02129933424293995, -0.017305482178926468, -0.012929705902934074, 0.013447822071611881, -0.013020496815443039, -0.008546154946088791, 0.0026050019077956676, -0.00495626125484705, -0.008670404553413391, 0.005288883112370968, -0.0075725833885371685, -0.01331028901040554], [0.004354874603450298, -0.024338427931070328, -0.006054813042283058, 0.015137633308768272, -0.0286627896130085, 0.020629622042179108, 0.009581170976161957, 0.001221420243382454, 0.024571342393755913, -0.0014426971320062876, -0.01010969653725624, -0.02310873009264469, 0.006526674143970013, 0.017028285190463066, 0.01660219021141529, 0.009657848626375198, 0.008618135936558247, -0.011199453845620155, 0.021105436608195305, 0.009032977744936943, 0.018209019675850868, 0.00797469075769186, 0.004408873617649078, -0.015329675748944283, -0.015926619991660118, -0.01371465902775526, 0.032714180648326874, 0.006963975261896849, 0.004614576231688261, -0.004377692937850952, -0.01342733670026064, 0.01898350566625595, -0.013406419195234776, 0.019875401630997658, 0.011288854293525219, -0.0030020636040717363, 0.022929174825549126, 0.015105186961591244, 0.034459423273801804, -0.007207242771983147], [0.018337106332182884, 0.0025263549759984016, 0.020108100026845932, 0.010187673382461071, -0.01938769966363907, -0.012100356630980968, 0.01693989895284176, 0.03015337511897087, -0.0015224454691633582, -0.0009327776497229934, 0.034256674349308014, 0.008363797329366207, 0.0033117749262601137, -0.006156180985271931, 0.018222801387310028, 0.002736050635576248, -0.02878965623676777, -0.013577326200902462, 0.011627944186329842, -0.013811727054417133, -0.024224599823355675, 0.001715693506412208, 0.014546803198754787, -0.009460764937102795, -0.007354543078690767, -0.005358086433261633, -0.021342255175113678, -0.0006046599592082202, -0.0219429861754179, -0.005110155791044235, 0.021030696108937263, 0.02298697456717491, -0.010960354469716549, 0.017652016133069992, 0.01946714147925377, 0.02184969186782837, -0.016105055809020996, 0.004878782667219639, -0.008412644267082214, -0.022974716499447823], [-0.01065556239336729, 0.0026875913608819246, 0.002691812813282013, 0.0020590550266206264, 0.019253162667155266, 0.005941133014857769, -0.00919195543974638, -0.017462214455008507, -0.0099595682695508, -0.013474680483341217, 0.01209620013833046, -0.0014805180253461003, 0.01675800047814846, -0.025398049503564835, -0.012464281171560287, -0.008703568950295448, -0.03011278808116913, -0.008183356374502182, -0.016828591004014015, 0.01595037803053856, -0.014863819815218449, -0.0072868941351771355, 0.003839018288999796, 0.0076087056659162045, -0.018191209062933922, 0.001122376648709178, 0.019656691700220108, -0.012060732580721378, -0.022534875199198723, 0.013894913718104362, -0.008337674662470818, 0.012993136420845985, 0.008514459244906902, 0.022512566298246384, -0.005321979522705078, -0.008770043030381203, 0.0022676633670926094, -0.014466062188148499, 0.0026172040961682796, 0.009424636140465736], [-0.023304080590605736, -0.005914323031902313, 0.007378831971436739, -0.008713587187230587, -0.009750442579388618, 0.006004593335092068, 0.0038469135761260986, 0.0005282705533318222, -0.028192684054374695, -0.022714223712682724, -0.019062012434005737, 0.006704381667077541, 0.0008222588803619146, 0.02838842384517193, 0.005349145736545324, 0.016609035432338715, 0.00663903821259737, -0.00813793670386076, -0.011691595427691936, -0.011577269993722439, -0.018548956140875816, -0.012491816654801369, 0.02434709668159485, 0.007617730647325516, 0.0006162157515063882, 0.006197614129632711, 0.006087527610361576, -0.0016825023340061307, -0.029086794704198837, 0.01750056818127632, 0.0036598423030227423, 0.009092043153941631, -0.014080534689128399, 0.00867877621203661, 0.007864848710596561, -0.003639322007074952, 0.0006496576825156808, -0.003524795174598694, -0.011010038666427135, -0.0030925499740988016], [0.021369541063904762, -0.007046710234135389, 0.00013197639782447368, -0.03434963524341583, 9.859156853053719e-05, -0.011474870145320892, -0.003918153699487448, -0.0038638042751699686, 0.019749240949749947, -0.009753846563398838, 0.003265660023316741, 0.008143323473632336, 0.020514028146862984, 0.02952657639980316, 0.0034587366972118616, 0.01250800397247076, 0.007893789559602737, 0.018555233255028725, 0.012682273983955383, 0.001446485985070467, 0.0009573482675477862, -0.01835630275309086, 0.001271864166483283, 0.017676303163170815, -0.0037479016464203596, -0.020594818517565727, 0.0012522995239123702, 0.006277829874306917, 0.00949844066053629, 0.0023253916297107935, 0.011839264072477818, 0.014057744294404984, 0.007913018576800823, 0.006964580621570349, -0.010992256924510002, -0.0038753936532884836, -0.00928311888128519, -0.01896144449710846, -0.008899301290512085, 0.0024708095006644726], [0.021152883768081665, 0.01019927766174078, 0.006903951987624168, -0.028727710247039795, 0.012281780131161213, 0.007731752935796976, 0.01015938725322485, 0.02494499273598194, -0.009517071768641472, 0.0020579544361680746, -0.0005229546804912388, 0.028619443997740746, 0.019621599465608597, 0.0024889728520065546, 0.004506469238549471, -0.011338283307850361, 0.012425780296325684, -0.010416672565042973, -0.007628869265317917, -0.0336630679666996, -0.015407233498990536, -0.011970619671046734, 0.01723374053835869, -0.009627159684896469, -0.003803698346018791, 0.007727098185569048, -0.018485333770513535, -0.00569224962964654, 0.01425683218985796, -0.01768752932548523, -0.019711924716830254, -0.011759688146412373, -0.02395683340728283, 0.009329029358923435, 0.014932045713067055, -0.025191381573677063, -0.00908111035823822, 0.006924031302332878, 0.010095463134348392, 0.00749425683170557], [-0.01829424314200878, -0.013844435103237629, -0.00971217267215252, 0.009078552946448326, -0.002906841691583395, 0.02075302042067051, -0.004253664053976536, -0.009472439996898174, -0.016398491337895393, -0.007143522147089243, -0.022262606769800186, -0.02826056443154812, 0.011276072822511196, -0.0105259595438838, 0.019947169348597527, 0.027592750266194344, -0.01834987662732601, 0.013229998759925365, -0.012708712369203568, 0.015727605670690536, -0.008016173727810383, -0.012564771808683872, -0.02322125807404518, -0.010350611060857773, 0.026805412024259567, -0.009369133040308952, 0.030083168298006058, 0.022904543206095695, -0.014659008011221886, -0.0014782445505261421, 0.019104845821857452, 0.009731338359415531, -0.015300622209906578, -0.011973301880061626, -0.01143463235348463, -0.011955501511693, -0.02156541496515274, 0.02256031148135662, 0.006039674859493971, -0.02622046321630478], [-0.0006476903217844665, 0.0031873586121946573, 0.006277140695601702, -0.021200532093644142, 0.01316941436380148, -0.008702301420271397, -0.007658359128981829, -0.0077240378595888615, 0.009944809600710869, 0.02934104949235916, -0.001241349964402616, -0.009057863615453243, 0.028866460546851158, 0.02417266182601452, -0.00623495876789093, 0.012973109260201454, 0.01861649379134178, -0.01289581973105669, 0.0031971184071153402, -0.012424677610397339, 0.012005739845335484, -0.021683359518647194, -0.007192796096205711, 0.011001002043485641, 0.010842561721801758, 0.015694765374064445, -0.006007037125527859, -0.002859091153368354, -0.0024796323850750923, 0.004959144163876772, 0.011106306686997414, -0.008084593340754509, 0.0006141357589513063, 0.005792524665594101, 0.008730142377316952, 0.00391266169026494, 0.03797220438718796, -0.010270429775118828, -0.006191408261656761, -0.009121936745941639], [0.010210801847279072, 0.017423931509256363, -0.004966743290424347, -0.017862848937511444, -0.015866734087467194, -0.022600002586841583, -0.015155869536101818, 0.0048419213853776455, 0.004325254820287228, -0.02055526338517666, 0.015300372615456581, 0.003962614107877016, 0.012629264034330845, -0.025290003046393394, 0.006015658378601074, 0.0005098975962027907, -0.025086820125579834, -0.0024431340862065554, -0.008379497565329075, -0.005164980888366699, 0.027442725375294685, -0.01719195954501629, 0.02230466715991497, 0.0017939978279173374, 0.004640380851924419, -0.001994822174310684, -0.018432622775435448, 0.010271214880049229, 0.015816763043403625, -0.02938932180404663, 0.013370259664952755, -0.0010067644761875272, -0.01903797872364521, -0.016972564160823822, -0.014465655200183392, -0.013224883005023003, 0.01232319138944149, -0.011181186884641647, 0.0026685940101742744, -0.011350051499903202], [0.0019604754634201527, 0.01694248989224434, 0.007040736731141806, -0.0017069281311705709, 0.02024867944419384, 0.022568432614207268, 0.0024650865234434605, -0.007438949309289455, -0.01719733141362667, -0.00485041830688715, 0.003380389418452978, 0.0035021756775677204, 0.022085685282945633, 0.01716390997171402, 0.020825982093811035, 0.0042220065370202065, 0.008054039441049099, -0.03384315222501755, -0.013053628616034985, -0.004398692399263382, -0.004888927098363638, -0.0036986747290939093, 0.01899576373398304, 0.011323157697916031, -0.015427736565470695, -0.011899353936314583, -0.00012670458818320185, 0.005121460650116205, -0.011572127230465412, 0.0024526389315724373, -0.02722857892513275, -0.026663612574338913, -0.002350206719711423, -0.009458308108150959, -0.01119020115584135, 0.02620718814432621, 0.005005105398595333, 0.014251677319407463, 0.011563288979232311, 0.001313321408815682], [0.014158835634589195, -0.0007136764470487833, -0.02730972319841385, 0.0007995240739546716, 0.001507414854131639, -0.004650385119020939, 0.01571860909461975, -0.01827012561261654, -0.00069570227060467, 0.019927682355046272, 0.011567285284399986, 0.01194701436907053, 0.01547220628708601, -1.0866975571843795e-05, 0.0175027996301651, -5.113948282087222e-05, 0.004727259278297424, -0.006017608568072319, 0.012739326804876328, 0.02249154821038246, 0.02766328863799572, 0.01146149542182684, -0.002356227720156312, -0.002056651283055544, -0.028554212301969528, -0.02547011896967888, -0.01260174810886383, -0.0041750953532755375, 0.011152027174830437, 0.012250889092683792, -0.02202305942773819, -0.0047492170706391335, -0.021433603018522263, 0.0011305484222248197, -0.014777719974517822, 0.019871985539793968, -0.01584157533943653, 0.020345693454146385, 0.022325390949845314, 0.004821393173187971], [0.022975264117121696, 0.026889223605394363, 0.011765124276280403, -0.0006575330044142902, 0.013840719126164913, 0.02045436203479767, -0.005873162765055895, 0.01594567485153675, -0.02743484079837799, 0.010456215590238571, -0.018206225708127022, 0.006191631313413382, 0.01340780034661293, 0.004263410810381174, -0.01831301487982273, 0.013482724316418171, 0.018374864012002945, 0.026595808565616608, -0.008637117221951485, -0.01574547030031681, 0.012373413890600204, -0.02591170184314251, 0.003414810635149479, 0.013773221522569656, 0.03333422914147377, -0.011821061372756958, 0.004717244300991297, 0.007343912962824106, -0.008152779191732407, -0.002758567687124014, 0.001599611947312951, 0.012834640219807625, -0.01524062268435955, -0.012433208525180817, 0.0047686840407550335, -0.005971506703644991, 0.009796199388802052, 0.03722728416323662, 0.01054769940674305, -0.01505038421601057], [-0.010850001126527786, 0.01439368911087513, 0.003151938086375594, -0.006889556534588337, 0.001675599836744368, 0.00853891670703888, -0.0063215889967978, -0.004618553910404444, 0.026389583945274353, 0.003606964834034443, 0.006203224416822195, 0.020417649298906326, -0.010937935672700405, -0.015488933771848679, -0.014993243850767612, -0.015120397321879864, -0.005656862165778875, -0.02268224209547043, -0.015519101172685623, 0.008581678383052349, 0.01180026214569807, 0.025734057649970055, -0.008359864354133606, 0.0020996108651161194, 0.00955251231789589, -0.0059591131284832954, -0.0005876795039512217, -0.024846630170941353, -0.0008909256430342793, 0.015363975428044796, -0.018460901454091072, -0.033346373587846756, -0.0001755225530359894, -0.004367623012512922, -0.027628056704998016, -0.020025210455060005, -0.03474514186382294, 0.02135072834789753, 0.014764832332730293, 0.01033016387373209], [-0.0276256762444973, -0.011429637670516968, 0.0029459570068866014, -0.012313587591052055, 0.00028475336148403585, 0.024316325783729553, 0.025165779516100883, -0.015351377427577972, 0.0012817918322980404, -0.011221271008253098, 0.013205010443925858, 0.011270682327449322, -0.004315410740673542, -0.019489668309688568, 0.009211909957230091, 0.013147014193236828, -0.0004982497193850577, 0.021221989765763283, 0.012414209544658661, -0.0035978208761662245, -0.008922304958105087, -0.016280990093946457, 0.0034883494954556227, -0.013127172365784645, -0.012776114977896214, 0.009843054227530956, 0.006621057633310556, -0.006198790390044451, -0.004257237073034048, -0.00029145486769266427, 0.0043394193053245544, -0.003396550891920924, -0.015331550501286983, -0.023890556767582893, -0.007213385310024023, -0.0016068745171651244, -0.004858301021158695, -0.0022689509205520153, -0.0023322836495935917, 0.005495385732501745], [0.02578507922589779, -0.014377371408045292, -0.0033451325725764036, 0.0006371458293870091, -0.011955039575695992, 0.013082023710012436, -0.025828272104263306, -0.020060835406184196, 0.019835064187645912, 0.015393861569464207, 0.018400659784674644, 0.016361316666007042, 0.020619435235857964, -0.02041385881602764, 0.004268156364560127, 0.023519672453403473, 0.0023325143847614527, -0.006457762327045202, -0.01109007652848959, -0.027116412296891212, 0.004833669867366552, -0.024494381621479988, 0.022659962996840477, 0.027771437540650368, -0.013307820074260235, 0.007357295136898756, -0.02140878140926361, 0.003573998576030135, -0.0007348547806032002, 0.01774514466524124, 0.004197648260742426, 0.008385690860450268, 0.004959430079907179, 0.0017505587311461568, -0.0072792572900652885, 0.0031972182914614677, -0.009718048386275768, -0.01168888807296753, -0.0042868247255682945, -0.008351420052349567], [0.019475214183330536, 0.012486887164413929, 0.01756388135254383, 0.026488879695534706, 0.015131859108805656, 0.005711293779313564, 0.024078620597720146, -0.008672863245010376, 0.016445530578494072, 0.0031509383115917444, 0.015142610296607018, -0.02383119985461235, -0.007010588422417641, 0.014603502117097378, 0.02430790849030018, -0.02153274044394493, 0.0002441451360937208, 0.004135669209063053, 0.004324429202824831, 0.009799179621040821, -0.00861376617103815, -0.024908697232604027, -0.012033768929541111, -0.010464947670698166, -0.0007029735716059804, 0.010970909148454666, 0.012994322925806046, 0.005738565698266029, 0.011895271018147469, -0.005418404005467892, 0.02387273497879505, 0.021732700988650322, 0.0018924410687759519, -0.004410610534250736, 0.014645664021372795, 0.002434608293697238, 0.005860895849764347, 0.003863754216581583, 0.0036768100690096617, 0.01933177560567856], [-0.003026379970833659, -0.011364775709807873, 0.009406083263456821, -0.02770187519490719, -0.013681513257324696, 0.011842512525618076, 0.009868530556559563, 0.003788457252085209, -0.018339641392230988, -0.014453046023845673, 0.008382726460695267, 0.01150320190936327, 0.00025050147087313235, 0.022586379200220108, 0.016845908015966415, 0.008576472289860249, -0.00020094630599487573, -0.028607144951820374, 0.00516646821051836, -0.004156994167715311, 0.02542218565940857, 0.012686633504927158, -0.018430233001708984, 0.007630759384483099, -0.017472505569458008, 0.013117879629135132, -0.017061801627278328, -0.004982214421033859, 0.009866123087704182, -0.007630741689354181, 0.01165919378399849, 0.00518146064132452, -0.021405063569545746, 0.018278134986758232, -0.0019981334917247295, -0.01825196109712124, 0.02197960391640663, -0.0033809898886829615, -0.014744221232831478, -0.0034322284627705812], [-0.011450245976448059, 0.008292682468891144, -0.0010561414528638124, 0.036758095026016235, 0.0048066964372992516, 0.00911436602473259, -0.006698083132505417, -0.01968301460146904, -0.015207577496767044, 0.02894829772412777, -0.007448582910001278, -0.008376173675060272, -0.013081586919724941, -0.0004383763880468905, 0.00350682414136827, 0.002896514255553484, -0.00793801061809063, -0.00893109105527401, -0.005414566490799189, 0.019696034491062164, 0.00536275515332818, 0.006557714659720659, 0.0020461075473576784, -0.0026532099582254887, 0.029081493616104126, 0.01271642092615366, 0.014325693249702454, 0.01279375422745943, 0.03039742447435856, 0.01238219253718853, 0.007580525707453489, 0.0011272146366536617, -0.02453809604048729, 0.018348142504692078, 0.010217941366136074, 0.0093450378626585, 0.024499986320734024, 0.0005949491169303656, 0.006206216290593147, -0.01280662789940834], [0.031045377254486084, -0.029293324798345566, 0.0015750267775729299, -0.03384747728705406, 0.009339197538793087, -0.0012894906103610992, 0.0021322104148566723, -0.00446024164557457, -0.009121453389525414, -0.007604942191392183, 0.015391946770250797, 0.009627529419958591, 0.0073509979993104935, -0.006476748734712601, -0.015413276851177216, -0.01266260165721178, 0.007777082268148661, 0.009127620607614517, -0.005965895019471645, 0.0009890259243547916, -0.0033614328131079674, -0.003052158746868372, -0.007894841022789478, -0.008308473974466324, -0.007105352357029915, -0.01622767001390457, -0.010983018204569817, -0.010454797185957432, -0.0086865508928895, -0.0026081628166139126, -0.010075148195028305, -4.165469363215379e-06, -0.00671955244615674, 0.01523175835609436, -0.0075405053794384, -0.010416178964078426, 0.008402728475630283, 0.009251349605619907, 0.0037301054690033197, -0.012223385274410248], [-0.021590357646346092, -0.0030197673477232456, -0.01967248134315014, 0.002722396282479167, -0.03163047879934311, 0.005209479480981827, 0.01844758354127407, -0.02007116936147213, 0.0063161286525428295, 0.008147547952830791, 0.029805060476064682, 0.02641252614557743, -0.02157805860042572, 0.004101853352040052, -0.0038587141316384077, -0.012568317353725433, 0.027587879449129105, 0.021878976374864578, 0.030009638518095016, 0.0001141792963608168, 0.010580023750662804, -0.02400619350373745, -0.0022406699135899544, 0.010412701405584812, -0.029751285910606384, -7.303903112187982e-05, 0.00950407050549984, -0.024474792182445526, 0.0075200810097157955, 0.009897047653794289, -0.001962070818990469, -0.020500898361206055, 0.0010813288390636444, -0.007324389647692442, 0.0014662668108940125, 0.006922307889908552, 0.004991638474166393, 0.012891147285699844, 0.010941729880869389, 0.002711287932470441], [-0.009709496051073074, 0.013228493742644787, 0.012717590667307377, 0.009439066052436829, 0.005571985617280006, -0.011141168884932995, -0.028314536437392235, -0.018126919865608215, 0.028675153851509094, -0.018162129446864128, -0.012141280807554722, 0.00891302153468132, -0.014553725719451904, 0.0050558485090732574, 0.0051096584647893906, -0.025050818920135498, 0.02450012043118477, -0.023573633283376694, -0.016884291544556618, -0.0037775745149701834, -0.009243532083928585, 0.026800762861967087, -0.0067093693651258945, -0.005759436637163162, 0.018149754032492638, 0.01110287755727768, -0.010257028043270111, -0.015020269900560379, 0.026647502556443214, -0.01588083617389202, 0.014627673663198948, -0.007837634533643723, 0.013636183924973011, 0.019067030400037766, -0.01309775561094284, -0.02062690071761608, 0.004862391855567694, -0.007151904050260782, -8.863460243446752e-05, -0.018170727416872978], [0.011099991388618946, 0.014606612734496593, 0.0006076492718420923, 0.0074454708956182, 0.017545687034726143, -0.011485885828733444, 0.006022474262863398, 0.01611432619392872, 0.016476625576615334, -0.013770682737231255, -0.017526991665363312, -0.01634986884891987, -0.017861945554614067, -0.0033846781589090824, 0.006249230355024338, -0.0027608107775449753, 0.009022440761327744, 0.007679961621761322, -0.01155651081353426, 0.0046169045381248, 0.0006431310321204364, -0.008220241405069828, 0.004035441670566797, -0.01353366207331419, 0.0188691895455122, 0.01400731597095728, 0.011643304489552975, 0.00250810943543911, 0.004303563851863146, -0.0034034966956824064, 0.01024054829031229, 0.007379797287285328, -0.023412182927131653, 0.016457529738545418, -0.00937647558748722, 0.007772386539727449, 0.03409644216299057, -0.005659956950694323, 1.7380771168973297e-05, 0.016339989379048347], [-0.010844494216144085, -0.012343115173280239, 0.005762660875916481, 0.006186879705637693, -0.0005608613137155771, -0.01929977722465992, -0.020541725680232048, -0.02369852177798748, -0.011279609985649586, 0.016288746148347855, 0.01899256557226181, 0.02931029349565506, 0.012565110810101032, 0.016292382031679153, 0.020795993506908417, 0.008428354747593403, 0.023147236555814743, -0.016355227679014206, -0.023258483037352562, -0.03213951736688614, 0.0039984555914998055, -0.017147960141301155, -0.0021012776996940374, 0.009530285373330116, 0.016373295336961746, 0.024194344878196716, 0.008980575017631054, 0.021086715161800385, 0.02092640846967697, -0.0037226988933980465, 0.002342098392546177, -0.012954797595739365, 0.013700181618332863, -0.013532857410609722, -0.025506388396024704, -0.016714120283722878, 0.014147511683404446, 0.019441518932580948, 0.014871165156364441, 0.014865097589790821], [0.010321426205337048, 0.013443940319120884, 0.0010783933103084564, 0.005912013817578554, -0.001253427122719586, -0.011994541622698307, -0.014456110075116158, -0.017627643421292305, 0.019255323335528374, 